{
  "gc1.weight": [
    -0.053133271634578705,
    0.06883715093135834,
    0.05481301620602608,
    -0.23103933036327362,
    -1.0732339461583251e-07,
    -0.22395411133766174,
    0.0923398956656456,
    0.04228924587368965,
    0.13938191533088684,
    -0.1450248658657074,
    -0.10315357148647308,
    0.16888786852359772,
    0.06831233203411102,
    0.24880819022655487,
    0.05706518143415451,
    -0.15891097486019135,
    0.007351879496127367,
    -0.015679892152547836,
    -0.17001624405384064,
    -0.0958472415804863,
    1.8790206013363786e-06,
    0.15538275241851807,
    -0.1577189415693283,
    0.08074117451906204,
    -0.1971708983182907,
    0.08641131222248077,
    0.006093371193856001,
    -0.18246333301067352,
    0.04714716225862503,
    -0.03679284453392029,
    0.005093119107186794,
    0.07217104732990265,
    0.016586897894740105,
    -0.18810433149337769,
    0.4508390724658966,
    0.009254349395632744,
    -9.724612226591489e-08,
    0.009217611514031887,
    -0.0854644849896431,
    -0.01681516319513321,
    0.6486993432044983,
    -0.33148568868637085,
    -0.31046169996261597,
    0.552527129650116,
    -0.26331254839897156,
    0.13658829033374786,
    -0.2508777379989624,
    0.16093853116035461,
    -0.5082178115844727,
    0.09173956513404846,
    -0.15790480375289917,
    0.2295057624578476,
    -4.150959739490645e-06,
    0.37406763434410095,
    -0.12426283210515976,
    0.10649949312210083,
    -0.3771834671497345,
    0.6074265837669373,
    0.6449947953224182,
    -0.31288743019104004,
    -0.02286507561802864,
    -0.26940983533859253,
    -0.0660746693611145,
    0.07397580146789551,
    0.5902253985404968,
    -0.7291151881217957,
    -0.8776924014091492,
    -1.0935379266738892,
    2.73925184046675e-06,
    -1.1327993869781494,
    -0.8582151532173157,
    0.5270226001739502,
    1.5010557174682617,
    -0.09024312347173691,
    -1.1390246152877808,
    1.1063735485076904,
    -0.6481552720069885,
    1.6968544721603394,
    -0.704547643661499,
    0.5285892486572266,
    0.06798552721738815,
    0.04818493127822876,
    -0.09220142662525177,
    0.08543148636817932,
    -5.201590738579398e-06,
    0.007294659502804279,
    -0.02262202836573124,
    -0.011518639512360096,
    -0.09752253443002701,
    0.13813979923725128,
    0.03951405733823776,
    -0.09553759545087814,
    0.022004535421729088,
    0.011714055202901363,
    0.010122515261173248,
    -0.03771412745118141,
    0.15244804322719574,
    -0.06118994206190109,
    -0.07300231605768204,
    -0.07664373517036438,
    -3.8174671317392495e-06,
    0.09218249469995499,
    0.14066584408283234,
    -0.011957187205553055,
    -0.14588096737861633,
    -0.15162496268749237,
    -0.15828458964824677,
    -0.11897788941860199,
    0.0023940978571772575,
    -0.08227694034576416,
    0.2647837996482849,
    0.06431683152914047,
    -0.11138098686933517,
    -0.10463473200798035,
    -0.28690052032470703,
    -0.0717456117272377,
    1.406887406574242e-07,
    0.2710205912590027,
    0.03730623051524162,
    0.07541357725858688,
    -0.33502158522605896,
    0.13342979550361633,
    0.17359884083271027,
    -0.2467549592256546,
    -0.07539268583059311,
    -0.0906844437122345,
    0.142816424369812,
    0.2507994771003723,
    0.37583696842193604,
    0.1849798709154129,
    -0.5495584607124329,
    0.1651313304901123,
    1.1122217074444052e-05,
    -0.4212300181388855,
    -0.08407926559448242,
    -0.06958276778459549,
    -0.20981237292289734,
    0.32325369119644165,
    0.03181794285774231,
    -0.1988709270954132,
    0.051166970282793045,
    0.38392260670661926,
    0.039989691227674484,
    -0.154721200466156,
    0.03295254707336426,
    0.041505273431539536,
    -0.054242897778749466,
    0.0528322272002697,
    -2.2601859654969303e-06,
    -0.036995045840740204,
    0.030888576060533524,
    -0.032209329307079315,
    0.0029997429810464382,
    0.01254553347826004,
    0.004203132353723049,
    0.0047278497368097305,
    0.0178857259452343,
    0.04462510719895363,
    0.04253612831234932,
    -0.04311016947031021,
    0.07795935869216919,
    0.08561503142118454,
    -0.21334482729434967,
    0.1323879361152649,
    4.609167717717355e-06,
    -0.03045257180929184,
    -0.01129381824284792,
    -0.025337688624858856,
    -0.24728193879127502,
    0.24179349839687347,
    0.10254766792058945,
    -0.1849910169839859,
    0.01562015525996685,
    0.011201667599380016,
    0.05479852110147476,
    -0.0453190952539444,
    -0.053021643310785294,
    0.0676158145070076,
    0.05481082573533058,
    -0.09557133167982101,
    2.1539451608987292e-06,
    -0.06138545647263527,
    0.03418554365634918,
    0.0033232250716537237,
    0.1030612662434578,
    -0.05095800757408142,
    -0.0199862290173769,
    0.10119795054197311,
    0.031460732221603394,
    0.1602422147989273,
    0.08003772050142288,
    -0.05858555808663368,
    0.2500363886356354,
    0.018416771665215492,
    0.1300131380558014,
    -0.10928355902433395,
    -5.658401391883672e-07,
    -0.00253201718442142,
    0.06757193058729172,
    0.04016663879156113,
    0.09510701149702072,
    -0.10173285007476807,
    -0.16609053313732147,
    0.002142831217497587,
    0.16344492137432098,
    0.09266763925552368,
    0.07671429961919785,
    -0.07748395204544067,
    0.03173839673399925,
    0.09580443799495697,
    -0.24831049144268036,
    0.17095570266246796,
    8.111999704851769e-06,
    0.05528183653950691,
    -0.05789817497134209,
    -0.023272832855582237,
    -0.30743926763534546,
    0.22814472019672394,
    0.18417710065841675,
    -0.2679610550403595,
    0.011312557384371758,
    -0.025953127071261406,
    0.030345439910888672,
    0.01445312611758709,
    -0.1157335415482521,
    0.014475008472800255,
    0.032944031059741974,
    -0.03194563835859299,
    -5.467689334182069e-06,
    0.01756087690591812,
    -0.009547409601509571,
    -0.000969529733993113,
    0.022499220445752144,
    -0.034351129084825516,
    0.062230758368968964,
    0.03922485560178757,
    -0.009639408439397812,
    -0.011420703493058681,
    -0.02245144732296467,
    -0.026533950120210648,
    -0.015682579949498177,
    -0.00014574886881746352,
    0.0501033291220665,
    0.005613117944449186,
    5.70563940982538e-07,
    0.023314880207180977,
    0.02189965546131134,
    -0.010195352137088776,
    0.03437468409538269,
    -0.031885772943496704,
    0.003370707156136632,
    0.04760601744055748,
    -0.0056893229484558105,
    -0.0016699066618457437,
    0.004571231547743082,
    0.009381542913615704,
    -0.203740194439888,
    0.1745300590991974,
    0.2787029445171356,
    -0.17331935465335846,
    8.283414899779018e-06,
    -0.0481250137090683,
    0.17249256372451782,
    0.018221061676740646,
    0.20381255447864532,
    -0.21061274409294128,
    0.022720856592059135,
    0.186196967959404,
    0.14216698706150055,
    0.10570615530014038,
    0.1849091798067093,
    -0.06170063838362694,
    0.01502656377851963,
    0.0071084145456552505,
    -0.022826915606856346,
    0.0033053592778742313,
    8.609636097389739e-06,
    -0.01106517668813467,
    0.005237155128270388,
    -0.0029628071933984756,
    -0.02878103218972683,
    -0.0170863326638937,
    -0.009621735662221909,
    -0.010135756805539131,
    0.005583701655268669,
    0.006246915552765131,
    0.01893511973321438,
    -0.0016365358605980873,
    0.13772763311862946,
    0.007247834000736475,
    0.05207214131951332,
    -0.11583041399717331,
    4.170258307567565e-06,
    -0.04034971073269844,
    0.12050468474626541,
    0.06667773425579071,
    -0.15338245034217834,
    -0.20261096954345703,
    -0.1244116798043251,
    -0.14701613783836365,
    0.2500746250152588,
    -0.03969242051243782,
    0.2613816559314728,
    -0.14330469071865082,
    0.31190747022628784,
    1.427521824836731,
    -1.4525401592254639,
    1.0405399799346924,
    -2.581713260951801e-06,
    -1.1104646921157837,
    1.5241286754608154,
    -0.4366993010044098,
    -1.5934044122695923,
    0.7465267777442932,
    1.1012495756149292,
    -1.3051799535751343,
    1.188887357711792,
    0.8910626173019409,
    1.7944445610046387,
    -1.2440025806427002,
    -0.0033724685199558735,
    0.017231956124305725,
    0.004936242941766977,
    0.0034573953598737717,
    7.65952245274093e-06,
    -0.005670146085321903,
    0.0032338430173695087,
    -0.0008401348604820669,
    -0.00035779771860688925,
    -0.0008986510219983757,
    0.004353526514023542,
    0.0031820498406887054,
    0.005681722890585661,
    0.0064169662073254585,
    0.0049433340318500996,
    -0.0040441229939460754,
    -0.07230260223150253,
    -0.10580608993768692,
    0.031247811391949654,
    0.21467097103595734,
    6.327902042357891e-07,
    0.10446828603744507,
    -0.04538129270076752,
    -0.03172863647341728,
    0.02362765185534954,
    0.04339931905269623,
    0.12932831048965454,
    0.047251004725694656,
    -0.16640648245811462,
    -0.16052010655403137,
    -0.13856026530265808,
    0.07264301180839539,
    0.015275787562131882,
    0.01532154344022274,
    -0.026604419574141502,
    0.00749284029006958,
    -4.758305294672027e-06,
    -0.01142849400639534,
    0.012698866426944733,
    -0.005319705232977867,
    -0.015198812820017338,
    0.024852288886904716,
    0.007986866869032383,
    -0.008949129842221737,
    0.010575340129435062,
    0.008282476104795933,
    0.0005539704579859972,
    -0.02502618171274662,
    0.07145439088344574,
    0.04472026973962784,
    -0.09982757270336151,
    -0.06062246486544609,
    -1.3899727946409257e-06,
    -0.05527471378445625,
    0.2125726044178009,
    -0.033632468432188034,
    -0.19102124869823456,
    -0.07469560950994492,
    -0.07554927468299866,
    -0.1231018528342247,
    0.10661941766738892,
    0.01212460920214653,
    0.33413130044937134,
    -0.04129325971007347,
    0.009061054326593876,
    0.01851535402238369,
    -0.010999209247529507,
    0.017952917143702507,
    1.1477440011731233e-06,
    -0.04054901748895645,
    -0.0003397066320758313,
    -0.00246562366373837,
    -0.0162153672426939,
    0.01223596278578043,
    0.01776905357837677,
    -0.012692825868725777,
    0.010215500369668007,
    0.010956995189189911,
    0.013783102855086327,
    -0.014199595898389816,
    0.358425110578537,
    -0.2649727165699005,
    0.2768755555152893,
    -0.5118729472160339,
    2.3419111130351666e-06,
    0.019874317571520805,
    -0.4190717041492462,
    0.15876513719558716,
    0.3186023235321045,
    -0.1226150244474411,
    -0.5031524300575256,
    0.1296941637992859,
    -0.011441320180892944,
    0.07043564319610596,
    -0.3289892077445984,
    0.21151010692119598,
    -0.17693915963172913,
    -0.10252398252487183,
    0.26917290687561035,
    -0.19283901154994965,
    1.6391391000070143e-07,
    0.11992175132036209,
    -0.0006682933890260756,
    0.05704239383339882,
    0.43337708711624146,
    -0.34493502974510193,
    -0.0981539711356163,
    0.39463430643081665,
    -0.12004673480987549,
    0.01757924258708954,
    -0.12842302024364471,
    0.1369846761226654,
    0.11297179013490677,
    -0.21792960166931152,
    -0.1315201371908188,
    -0.18841028213500977,
    3.865925918944413e-06,
    -0.06914188712835312,
    -0.11478281766176224,
    0.07502024620771408,
    0.23533648252487183,
    -0.06758484989404678,
    -0.23879851400852203,
    0.17861361801624298,
    -0.16838768124580383,
    0.12367668747901917,
    -0.09604673087596893,
    0.14040689170360565,
    -0.08034957200288773,
    -0.02641310915350914,
    -0.08105261623859406,
    0.028317805379629135,
    8.080924089881591e-06,
    0.015620529651641846,
    -0.06886263936758041,
    0.015964243561029434,
    -0.016976868733763695,
    0.08244697004556656,
    0.07876577973365784,
    -0.03671245649456978,
    -0.05523538589477539,
    0.018744176253676414,
    -0.028008103370666504,
    0.03267930820584297,
    0.03187768533825874,
    -0.15645447373390198,
    0.20174813270568848,
    0.37110769748687744,
    1.0265565833833534e-05,
    0.18895749747753143,
    0.0656496062874794,
    -0.12229549139738083,
    0.10217546671628952,
    -0.055116817355155945,
    0.11786581575870514,
    0.14102376997470856,
    -0.1967868208885193,
    -0.16441315412521362,
    -0.11270338296890259,
    0.11683645844459534,
    0.20280981063842773,
    -0.02757270075380802,
    0.21996445953845978,
    -0.19199219346046448,
    5.635765205624921e-07,
    0.18104051053524017,
    -0.13250881433486938,
    0.06147334352135658,
    0.0418611615896225,
    -0.1086711660027504,
    -0.22877396643161774,
    -0.015384719707071781,
    0.1980576068162918,
    -0.11708339303731918,
    -0.12394451349973679,
    -0.0016322878655046225,
    0.001392223290167749,
    0.023414842784404755,
    -0.05467340722680092,
    -0.17030376195907593,
    5.882224058950669e-07,
    -0.20631767809391022,
    -0.0390549935400486,
    0.0334387943148613,
    0.11591872572898865,
    -0.028734968975186348,
    -0.08169132471084595,
    0.1321791261434555,
    0.005688577424734831,
    0.20834769308567047,
    0.029301855713129044,
    -0.011930430307984352,
    0.07717790454626083,
    0.029224462807178497,
    0.05802864953875542,
    -0.01862652786076069,
    -9.951379979611374e-06,
    -0.010307232849299908,
    -0.0574897825717926,
    0.01873905397951603,
    0.008803620003163815,
    -0.009488925337791443,
    -0.02718104049563408,
    -0.06250668317079544,
    0.05343887582421303,
    -0.03830340877175331,
    -0.045194074511528015,
    -0.07389599084854126,
    -0.08178424090147018,
    0.047632694244384766,
    0.17700333893299103,
    -0.08050122112035751,
    1.4523159279633546e-06,
    -0.005645049270242453,
    0.0758497565984726,
    -0.004196321126073599,
    0.12034153193235397,
    -0.08040336519479752,
    0.009142945520579815,
    0.12199252843856812,
    0.020770739763975143,
    0.014577682130038738,
    0.05748703330755234,
    -0.02544870413839817,
    -0.10042329132556915,
    0.0179293192923069,
    -0.10771345347166061,
    0.02462322823703289,
    -5.744865575252334e-06,
    0.06907270103693008,
    -0.11257843673229218,
    0.02386198379099369,
    -0.08633928000926971,
    0.1233583614230156,
    0.13122877478599548,
    -0.05042579025030136,
    -0.05868123844265938,
    -0.012091572396457195,
    -0.04349549859762192,
    0.03359828516840935,
    0.10308188945055008,
    0.017902234569191933,
    -0.16393622756004333,
    0.04805219545960426,
    -5.940945811744314e-06,
    -0.16039352118968964,
    -0.03681183233857155,
    -0.021489806473255157,
    -0.0058261435478925705,
    0.08749232441186905,
    -0.005767905153334141,
    -0.002363791922107339,
    0.015930991619825363,
    0.17339108884334564,
    0.022574998438358307,
    -0.05532316491007805,
    -0.012220732867717743,
    0.02907240018248558,
    -0.014103522524237633,
    0.0001133060286520049,
    -6.6398424678482115e-06,
    -0.012561840936541557,
    0.01225500088185072,
    -0.00844483356922865,
    -0.031008996069431305,
    0.08272764831781387,
    0.023819653317332268,
    -0.03286842629313469,
    0.01446738000959158,
    0.0162083450704813,
    0.015642410144209862,
    -0.039659906178712845,
    0.004282019101083279,
    0.01650102436542511,
    -0.014761829748749733,
    0.019238349050283432,
    -8.454049975625821e-07,
    -0.015799563378095627,
    0.04333366081118584,
    -0.010333621874451637,
    0.008606530725955963,
    -0.0240253247320652,
    0.00017152643704321235,
    0.005441384855657816,
    0.007653112057596445,
    -0.0014636627165600657,
    0.011246898211538792,
    -0.016200879588723183,
    -0.4116393029689789,
    -0.07023599743843079,
    0.04400026053190231,
    0.19311124086380005,
    5.2102441259194165e-06,
    0.20451533794403076,
    -0.06294889003038406,
    -0.02920178882777691,
    -0.06274298578500748,
    0.05102931335568428,
    0.38329726457595825,
    0.03627116233110428,
    -0.1883266419172287,
    -0.2087634652853012,
    -0.17325076460838318,
    0.08672956377267838,
    0.025662247091531754,
    0.021627146750688553,
    0.020614465698599815,
    0.15119096636772156,
    -1.2173967661510687e-05,
    -0.007021924015134573,
    -0.17252492904663086,
    -0.042837634682655334,
    -0.2030794769525528,
    0.08395033329725266,
    0.010646828450262547,
    -0.17775505781173706,
    -0.0012997615849599242,
    -0.2506639063358307,
    -0.06161169335246086,
    -0.1456286758184433,
    0.3687973618507385,
    -0.33472537994384766,
    -0.5047094821929932,
    -0.18073773384094238,
    -1.239516495843418e-05,
    -0.28701937198638916,
    -0.4108995199203491,
    0.10370449721813202,
    0.5070695281028748,
    0.170816108584404,
    -0.4193263053894043,
    0.2940603792667389,
    -0.3030194044113159,
    0.7217842936515808,
    -0.32206082344055176,
    0.17198295891284943,
    -0.06675253808498383,
    -0.0477680005133152,
    -0.029518267139792442,
    -0.04773038625717163,
    -8.479986718157306e-06,
    -0.0914626196026802,
    0.19612820446491241,
    -0.017886623740196228,
    0.1875835508108139,
    -0.2942505478858948,
    -0.1302218735218048,
    0.1884489208459854,
    -0.01852920837700367,
    0.030184604227542877,
    0.14250504970550537,
    0.07139424234628677,
    0.11070604622364044,
    -0.04073205962777138,
    -0.02815673127770424,
    0.0947938933968544,
    -1.2515855587480473e-06,
    0.08803988248109818,
    0.04054790735244751,
    -0.02300153858959675,
    -0.08863602578639984,
    0.07997287809848785,
    0.01774629019200802,
    -0.07909048348665237,
    -0.09190298616886139,
    -0.036779969930648804,
    -0.0011252245167270303,
    0.04692285135388374,
    0.001511878683231771,
    0.08438996970653534,
    0.02984486147761345,
    0.027843130752444267,
    4.878104391536908e-07,
    0.02178495191037655,
    0.08168665319681168,
    -0.031232818961143494,
    -0.08591212332248688,
    0.008645419031381607,
    0.005824061576277018,
    -0.08615343272686005,
    0.07475145161151886,
    0.03962777182459831,
    0.0808933675289154,
    -0.007132268510758877,
    -0.052752476185560226,
    -0.13999362289905548,
    -0.08995059877634048,
    -0.3325302302837372,
    1.024269931804156e-05,
    -0.09480368345975876,
    -0.2330559343099594,
    0.1573752760887146,
    0.2045103758573532,
    0.019575966522097588,
    -0.1906486451625824,
    0.1796920746564865,
    -0.07404748350381851,
    0.20470580458641052,
    -0.19670988619327545,
    0.14720293879508972,
    -0.002970511792227626,
    -0.017118265852332115,
    -0.1883450299501419,
    0.14769093692302704,
    3.763607082873932e-06,
    0.01391203049570322,
    0.02478758990764618,
    -0.03153899312019348,
    -0.17890462279319763,
    0.1018361821770668,
    0.12626327574253082,
    -0.11829917132854462,
    -0.01483580470085144,
    0.02572599984705448,
    0.050967346876859665,
    0.04758460819721222,
    0.1321667730808258,
    0.07658122479915619,
    -0.09817405790090561,
    0.04694501310586929,
    -2.9524949241022114e-06,
    0.018734050914645195,
    0.0947778970003128,
    -0.03350553661584854,
    -0.08466482907533646,
    0.0540408156812191,
    -0.021084563806653023,
    -0.10811177641153336,
    0.03113425523042679,
    0.0370374396443367,
    0.1528542935848236,
    -0.06023155897855759,
    -0.15392079949378967,
    0.039773207157850266,
    0.2731873393058777,
    -0.10435546189546585,
    -7.817455411895935e-07,
    0.019745586439967155,
    0.05769946798682213,
    0.0009958241134881973,
    0.1487301141023636,
    -0.11004322022199631,
    -0.006630302406847477,
    0.11786477267742157,
    0.09625900536775589,
    -0.021703224629163742,
    0.06812086701393127,
    -0.03444737568497658,
    0.09017374366521835,
    0.1233149990439415,
    -0.03800277039408684,
    0.009949889965355396,
    2.7364742436475353e-06,
    -0.15852436423301697,
    0.02758820168673992,
    -0.09047643840312958,
    -0.016867687925696373,
    0.038494404405355453,
    0.01314510777592659,
    -0.02600444108247757,
    0.07551006227731705,
    0.17128883302211761,
    0.09631061553955078,
    -0.197295144200325,
    0.04094040393829346,
    -0.09002764523029327,
    0.1536550223827362,
    0.3367609679698944,
    1.7830240039984346e-06,
    0.13843782246112823,
    0.06933076679706573,
    -0.10592028498649597,
    0.18585684895515442,
    -0.07216569036245346,
    0.07960127294063568,
    0.10031378269195557,
    -0.16469770669937134,
    -0.16801999509334564,
    -0.11447124183177948,
    0.08998923748731613,
    0.06027025356888771,
    -0.03866581991314888,
    0.1364172399044037,
    -0.009538117796182632,
    3.175762458340614e-06,
    0.06540460139513016,
    -0.06991531699895859,
    -0.005251442082226276,
    0.0464579276740551,
    -0.0384761281311512,
    -0.054368432611227036,
    0.035089123994112015,
    0.006743808276951313,
    -0.08185938745737076,
    -0.07138632982969284,
    0.02850060723721981,
    -0.6237874031066895,
    0.4253082573413849,
    0.40784499049186707,
    -0.4142090082168579,
    -5.400882400863338e-06,
    -0.30461329221725464,
    0.3558286726474762,
    0.0023486195132136345,
    0.29900944232940674,
    -0.35314080119132996,
    0.14274169504642487,
    0.35437676310539246,
    0.3559490442276001,
    0.30326709151268005,
    0.31997278332710266,
    -0.34033215045928955,
    0.14679504930973053,
    -0.22447305917739868,
    0.28523728251457214,
    0.5152575969696045,
    1.478154104006535e-06,
    0.09066580981016159,
    -0.23037280142307281,
    -0.12875914573669434,
    0.3691558241844177,
    0.10082460939884186,
    0.0595410130918026,
    0.30055320262908936,
    -0.3807094991207123,
    -0.1384029984474182,
    -0.574020266532898,
    0.1278066188097,
    0.0002430778695270419,
    0.03029845654964447,
    0.05692434310913086,
    0.033196695148944855,
    -4.186606929579284e-06,
    -0.043368998914957047,
    0.01995161361992359,
    -0.03069842793047428,
    0.006645746994763613,
    0.018219968304038048,
    0.032925475388765335,
    -0.006010436452925205,
    0.012822587974369526,
    0.013227802701294422,
    -0.001081265858374536,
    -0.03104393184185028,
    0.07819832116365433,
    -0.07025550305843353,
    0.3461901545524597,
    -0.15624788403511047,
    4.150917334300175e-07,
    0.3418985903263092,
    -0.07014777511358261,
    0.05124855786561966,
    0.01030108891427517,
    -0.12378261238336563,
    -0.29130908846855164,
    -0.11141248792409897,
    0.11284974962472916,
    -0.24099774658679962,
    -0.09534305334091187,
    0.11144273728132248,
    -0.11934779584407806,
    0.07156889885663986,
    0.07754478603601456,
    -0.047672122716903687,
    -7.379095222859178e-06,
    0.011352526023983955,
    -0.0014582918956875801,
    0.043535105884075165,
    0.04804501309990883,
    -0.05282481014728546,
    0.015002928674221039,
    0.07269195467233658,
    0.062275033444166183,
    0.024489864706993103,
    0.031180549412965775,
    -0.04504616931080818,
    0.05520191416144371,
    -0.2487090677022934,
    0.33415159583091736,
    0.4475499093532562,
    -5.026690359954955e-06,
    0.28091558814048767,
    0.10745265334844589,
    -0.16585798561573029,
    0.25021857023239136,
    -0.13451604545116425,
    0.0496319904923439,
    0.26367560029029846,
    -0.2618695795536041,
    -0.23570923507213593,
    -0.13935314118862152,
    0.1876135617494583,
    -0.05480659380555153,
    0.10101918876171112,
    -0.18925364315509796,
    -0.12748922407627106,
    2.19355615627137e-06,
    0.018032148480415344,
    0.2799018621444702,
    0.001705085625872016,
    -0.2653406858444214,
    -0.13992822170257568,
    0.1238941103219986,
    -0.1421547532081604,
    0.06309323012828827,
    0.0242905393242836,
    0.4530269205570221,
    0.026599353179335594,
    -0.8872573375701904,
    0.7021790742874146,
    0.5012821555137634,
    -0.5128211975097656,
    -8.565915777580813e-06,
    -0.5567360520362854,
    0.5749871134757996,
    -0.005440976470708847,
    0.4993922710418701,
    -0.45225125551223755,
    0.3032958209514618,
    0.5274079442024231,
    0.5740981101989746,
    0.48156237602233887,
    0.498709499835968,
    -0.7818598747253418,
    -0.11018688231706619,
    -0.04977729544043541,
    -0.028880955651402473,
    0.13474130630493164,
    7.840739272069186e-06,
    0.021826457232236862,
    -0.0954013466835022,
    -0.018812282010912895,
    -0.047973789274692535,
    0.06066695228219032,
    0.13402216136455536,
    -0.023276256397366524,
    -0.09625199437141418,
    -0.09056837111711502,
    -0.11552292108535767,
    0.03209185227751732,
    0.011522287502884865,
    -0.01827961951494217,
    -0.0011200971202924848,
    -0.0019258472602814436,
    -2.934976691904012e-06,
    -0.016603652387857437,
    -0.01721230521798134,
    0.0008607013151049614,
    0.00791522953659296,
    -0.004746449179947376,
    -0.021346867084503174,
    0.01559076365083456,
    -0.01620301604270935,
    0.017886539921164513,
    -0.0008567360346205533,
    0.008917438797652721,
    -0.11507507413625717,
    0.29929399490356445,
    0.19324573874473572,
    -0.06024670973420143,
    -2.3879304080764996e-06,
    -0.21924780309200287,
    0.5876863598823547,
    -0.1308199167251587,
    0.04341299086809158,
    -0.39215409755706787,
    -0.05483770743012428,
    0.16108213365077972,
    0.18102087080478668,
    0.03217196464538574,
    0.5177356600761414,
    -0.2978824973106384,
    -0.16382308304309845,
    0.0021661981008946896,
    -0.04148811101913452,
    -0.133053719997406,
    1.5113656104404072e-07,
    -0.07422010600566864,
    0.14246580004692078,
    0.002722313394770026,
    0.01575055904686451,
    -0.07460731267929077,
    -0.06748021394014359,
    -0.012586367316544056,
    0.09587258845567703,
    0.005532700102776289,
    0.18288812041282654,
    -0.0947050154209137,
    0.1312984824180603,
    -0.09069451689720154,
    -0.10974638909101486,
    -0.07567527890205383,
    4.668442215916002e-06,
    0.04951594024896622,
    0.21234703063964844,
    -0.021465346217155457,
    -0.10924270749092102,
    -0.2196042686700821,
    -0.1813918650150299,
    -0.12898513674736023,
    0.007815183140337467,
    -0.05522254854440689,
    0.2610514163970947,
    0.1355210244655609,
    -0.2530525326728821,
    -0.09581341594457626,
    0.25684043765068054,
    0.11935101449489594,
    -7.78175660798297e-07,
    0.2741980254650116,
    -0.11429969221353531,
    -0.03770926967263222,
    0.08398263901472092,
    -0.0336347334086895,
    0.09708335250616074,
    0.06964650005102158,
    -0.17561668157577515,
    -0.3240510821342468,
    -0.20893239974975586,
    0.09821421653032303,
    0.015455400571227074,
    0.20700499415397644,
    -0.14347417652606964,
    0.31328076124191284,
    -1.1930089272027544e-07,
    -0.03479962423443794,
    0.11703412234783173,
    -0.13751615583896637,
    -0.4227418303489685,
    0.11263395845890045,
    0.26110154390335083,
    -0.4085075855255127,
    0.1606454700231552,
    -0.2678445279598236,
    0.24865379929542542,
    -0.24728940427303314,
    0.06637822091579437,
    0.040581293404102325,
    -0.01889808475971222,
    0.19463013112545013,
    2.7086539375886787e-06,
    -0.01860550045967102,
    0.06460796296596527,
    -0.07403590530157089,
    -0.005157490726560354,
    0.08237974345684052,
    0.13292166590690613,
    -0.0018692093435674906,
    -0.040372513234615326,
    -0.06678631901741028,
    0.009788612835109234,
    -0.10187536478042603,
    -0.07620914280414581,
    0.07781735062599182,
    0.0404418483376503,
    -0.18374639749526978,
    2.9314080052245117e-07,
    -0.16691982746124268,
    0.0384686179459095,
    0.03692255914211273,
    0.05999640002846718,
    -0.1207990050315857,
    -0.009199456311762333,
    0.08094757050275803,
    0.11033622920513153,
    0.11511830985546112,
    -0.011984536424279213,
    -0.14210431277751923,
    -0.029896706342697144,
    -0.039589621126651764,
    -0.0032145632430911064,
    -0.045455072075128555,
    1.0972963536914904e-05,
    -0.003249059896916151,
    -0.02119833417236805,
    0.017663225531578064,
    0.040205225348472595,
    0.0015286867273971438,
    -0.04030713438987732,
    0.05458665266633034,
    -0.022118886932730675,
    0.029842212796211243,
    -0.010376950725913048,
    0.030803484842181206,
    0.08356457203626633,
    -0.029111625626683235,
    0.08568308502435684,
    -0.10621322691440582,
    1.054934159583354e-06,
    0.10184799879789352,
    -0.15751023590564728,
    0.0441974475979805,
    -0.060843534767627716,
    0.003393112914636731,
    -0.11129946261644363,
    -0.047187354415655136,
    0.020063770934939384,
    -0.06518784910440445,
    -0.044758666306734085,
    -0.009665317833423615,
    0.16290749609470367,
    -0.13581936061382294,
    0.3215636909008026,
    -0.04338441044092178,
    -8.700757462065667e-06,
    0.21389207243919373,
    -0.22789984941482544,
    0.011244609951972961,
    0.08496107161045074,
    -0.07395748049020767,
    -0.24015800654888153,
    0.021371033042669296,
    -0.003404217306524515,
    -0.25257423520088196,
    -0.2621365785598755,
    0.07582855969667435,
    0.04161686450242996,
    -0.05160835385322571,
    -0.002214613603428006,
    0.03105040080845356,
    1.7212103102792753e-06,
    -0.006495331879705191,
    -0.036905437707901,
    0.005781994201242924,
    0.060316383838653564,
    0.007725976407527924,
    -0.03424501046538353,
    0.037521351128816605,
    -0.05627952888607979,
    0.037043485790491104,
    -0.050921350717544556,
    0.0031867087818682194,
    0.07899103313684464,
    0.12984058260917664,
    -0.1307605355978012,
    0.14264245331287384,
    1.0198478776146658e-05,
    -0.12513622641563416,
    0.03377404063940048,
    -0.04114079102873802,
    -0.11919216811656952,
    0.1419530212879181,
    0.09648661315441132,
    -0.10804498940706253,
    0.07173801213502884,
    0.08357539772987366,
    0.07419034093618393,
    -0.1212303638458252,
    0.051418520510196686,
    0.07689793407917023,
    -0.10552205890417099,
    0.1338447779417038,
    -7.609052659063309e-07,
    -0.0862041711807251,
    0.01746162213385105,
    -0.04374260827898979,
    -0.14799481630325317,
    0.10986755788326263,
    0.10990280658006668,
    -0.13659770786762238,
    0.04699748381972313,
    0.056536123156547546,
    0.03859732300043106,
    -0.08994880318641663,
    -0.04280078783631325,
    -0.0027645800728350878,
    -0.0536976158618927,
    0.0024044374004006386,
    -1.8486367991954467e-07,
    0.026745358482003212,
    -0.02074815146625042,
    0.008913785219192505,
    -0.03400081768631935,
    0.031587980687618256,
    0.015644509345293045,
    -0.02108861319720745,
    -0.006730135530233383,
    0.0028890338726341724,
    -0.003691301215440035,
    0.01535786408931017,
    0.04821955785155296,
    0.05999312177300453,
    -0.10439610481262207,
    0.10717834532260895,
    3.161369932058733e-06,
    -0.08962690085172653,
    0.005752084776759148,
    -0.03924693912267685,
    -0.1493110954761505,
    0.08821219950914383,
    0.10763180255889893,
    -0.15200203657150269,
    0.0236943531781435,
    0.03595535829663277,
    0.026826152577996254,
    -0.11197952926158905,
    0.010273752734065056,
    0.013702237978577614,
    -0.0035375829320400953,
    0.0028047319501638412,
    9.850740752881393e-06,
    -0.006755124311894178,
    0.009368113242089748,
    -0.004072666168212891,
    -0.011094982735812664,
    0.013773872517049313,
    0.0035559548996388912,
    -0.006242513190954924,
    -0.002896962920203805,
    0.009406653232872486,
    0.008431424386799335,
    -0.019128892570734024,
    -0.9163414835929871,
    0.5964869260787964,
    0.8287379741668701,
    -0.852802574634552,
    -1.2388304639898706e-06,
    -0.3017786145210266,
    0.5649572610855103,
    0.05680236592888832,
    0.8127806782722473,
    -0.887095034122467,
    0.0962526947259903,
    0.7558326721191406,
    0.5105949640274048,
    0.4439242482185364,
    0.48570647835731506,
    -0.43633246421813965,
    0.06912782788276672,
    -0.08113192021846771,
    -0.1740783005952835,
    -0.4411873519420624,
    7.300658353415201e-07,
    -0.2981291711330414,
    -0.257311075925827,
    0.18252144753932953,
    0.48829466104507446,
    -0.03046238049864769,
    -0.38757002353668213,
    0.3913724422454834,
    -0.0943378284573555,
    0.5847755074501038,
    -0.09061284363269806,
    0.09936096519231796,
    -0.0006368393078446388,
    0.013644060119986534,
    -0.05939501151442528,
    0.028418269008398056,
    1.4152395806377172e-06,
    0.008085601031780243,
    0.02535543218255043,
    -0.014561249874532223,
    -0.02810334973037243,
    0.009098435752093792,
    0.03152739256620407,
    -0.0502941831946373,
    -0.0026113137137144804,
    -0.0269326139241457,
    -0.009324226528406143,
    -0.013525301590561867,
    -0.21673235297203064,
    -0.0999053418636322,
    -0.09409800171852112,
    0.02391042746603489,
    -8.743566468183417e-06,
    0.22569912672042847,
    -0.09993636608123779,
    0.05139385163784027,
    -0.09438465535640717,
    0.07323596626520157,
    0.16553817689418793,
    -0.06841109693050385,
    -0.12777157127857208,
    -0.16212254762649536,
    -0.08688946068286896,
    0.17579267919063568,
    0.22508348524570465,
    -0.09848988056182861,
    0.20109722018241882,
    -0.3926854133605957,
    4.393657036416698e-06,
    0.1836952269077301,
    -0.45666366815567017,
    0.19222451746463776,
    -0.14435698091983795,
    0.06579958647489548,
    -0.47413840889930725,
    -0.27397680282592773,
    0.14181622862815857,
    -0.14206361770629883,
    -0.34383758902549744,
    0.06245395541191101,
    -0.3163279891014099,
    -0.12298187613487244,
    -0.12901052832603455,
    -0.2803855240345001,
    -3.090147799866827e-07,
    0.008809597231447697,
    -0.25242146849632263,
    0.20238348841667175,
    0.14127954840660095,
    0.03687603026628494,
    0.0123587092384696,
    0.159405916929245,
    -0.12321998178958893,
    0.11119437962770462,
    -0.1982748806476593,
    0.19531618058681488,
    0.11550261080265045,
    -0.0695529505610466,
    0.08049064874649048,
    0.006062327418476343,
    2.7650125957734417e-06,
    0.04834591969847679,
    -0.15323449671268463,
    0.05659826099872589,
    0.15746355056762695,
    -0.051624082028865814,
    -0.13806115090847015,
    0.13777945935726166,
    -0.13105975091457367,
    0.05314011499285698,
    -0.18928183615207672,
    0.06658715009689331,
    0.010342645458877087,
    -0.01702393777668476,
    0.009938620962202549,
    0.0065299649722874165,
    9.246219633496366e-06,
    0.020516786724328995,
    -0.0017786141252145171,
    -0.017648346722126007,
    0.03757582604885101,
    -0.021045412868261337,
    -0.00023141931160353124,
    0.025969941169023514,
    -0.01668628677725792,
    -0.014541581273078918,
    0.00031189530272968113,
    0.009223994798958302,
    0.3892531096935272,
    0.7820507884025574,
    -0.9109267592430115,
    0.9760929942131042,
    -4.278756478015566e-06,
    -0.517480731010437,
    0.2799587845802307,
    -0.2378438413143158,
    -0.9551470279693604,
    1.0981520414352417,
    0.8185348510742188,
    -0.8042573928833008,
    0.3841986656188965,
    0.38002821803092957,
    0.47302502393722534,
    -0.6092864871025085,
    -0.03475911170244217,
    0.08208028227090836,
    -0.004815481603145599,
    -0.05174991488456726,
    9.047153980645817e-06,
    0.08972533792257309,
    -0.06658215820789337,
    0.02481015771627426,
    -0.23099540174007416,
    0.08249374479055405,
    0.021553294733166695,
    -0.23598891496658325,
    0.14057771861553192,
    -0.10299709439277649,
    0.06764813512563705,
    -0.08069760352373123,
    0.013661419972777367,
    -0.13226619362831116,
    -0.4085661768913269,
    0.03625877574086189,
    2.1906822667006054e-07,
    -0.16551882028579712,
    -0.2360217422246933,
    0.023020416498184204,
    -0.04863644391298294,
    0.3006688058376312,
    0.08570986241102219,
    -0.0384344607591629,
    -0.1866913139820099,
    0.16419082880020142,
    -0.19084660708904266,
    0.014592231251299381,
    0.24526479840278625,
    0.6986312866210938,
    -0.339842289686203,
    0.5417338609695435,
    2.7739192276499125e-08,
    -0.5287595987319946,
    0.44852399826049805,
    -0.23706655204296112,
    -0.32120245695114136,
    0.4281097650527954,
    0.5400765538215637,
    -0.24933813512325287,
    0.46661725640296936,
    0.46663111448287964,
    0.4341496527194977,
    -0.6247987747192383,
    0.2186768501996994,
    -0.1862230896949768,
    0.08949305862188339,
    0.39544227719306946,
    4.277480002201628e-06,
    0.039603471755981445,
    0.22155152261257172,
    -0.17513391375541687,
    0.10885317623615265,
    -0.10496511310338974,
    -0.022555023431777954,
    0.12762904167175293,
    -0.2389775812625885,
    -0.12863756716251373,
    -0.08579698950052261,
    0.015931563451886177,
    0.029117567464709282,
    0.05374995246529579,
    -0.061334505677223206,
    0.07039626687765121,
    -8.209110092138872e-06,
    -0.02915758639574051,
    0.00625267531722784,
    -0.01703154481947422,
    -0.06246935948729515,
    0.10162246972322464,
    0.046576377004384995,
    -0.0669466108083725,
    0.013188126496970654,
    0.04389174282550812,
    0.030880048871040344,
    -0.0503203384578228,
    0.03698909282684326,
    -0.023273255676031113,
    0.02141808159649372,
    0.035466037690639496,
    5.783362212241627e-06,
    0.01022274512797594,
    0.007810799404978752,
    -0.019729094579815865,
    0.031230522319674492,
    0.003577471012249589,
    -0.010471787303686142,
    0.010545511730015278,
    -0.02271021343767643,
    -0.03093675896525383,
    -0.034802794456481934,
    0.011780494824051857,
    0.10290341824293137,
    -0.12934032082557678,
    -0.18442393839359283,
    -0.30573466420173645,
    -1.7145881656688289e-06,
    -0.04075400531291962,
    -0.009670009836554527,
    0.0716884657740593,
    -0.008457187563180923,
    -0.1547924280166626,
    -0.22939658164978027,
    -0.00871349312365055,
    -0.03377098962664604,
    0.1095198392868042,
    0.10895176976919174,
    0.11700277775526047,
    0.22570063173770905,
    -0.22332188487052917,
    -0.34666743874549866,
    -0.5229936838150024,
    -1.219938212670968e-06,
    0.09602261334657669,
    -0.26398053765296936,
    0.18370996415615082,
    -0.29510968923568726,
    -0.004862995818257332,
    -0.41506052017211914,
    -0.2826848328113556,
    -0.055050063878297806,
    0.04503731057047844,
    0.05628928169608116,
    0.2828235626220703,
    -0.17974893748760223,
    -0.09490083158016205,
    0.06295379996299744,
    -0.1884545236825943,
    -3.4756239983835258e-06,
    0.08255676925182343,
    -0.12699680030345917,
    0.04942993074655533,
    -0.022004855796694756,
    0.03384845331311226,
    -0.03559844195842743,
    0.01766117848455906,
    -0.02914547733962536,
    -0.07749197632074356,
    -0.111906036734581,
    0.08173178881406784,
    -0.08059081435203552,
    0.07674206793308258,
    0.09638169407844543,
    -0.12445196509361267,
    2.25701546696655e-06,
    -0.03674860671162605,
    0.05717112869024277,
    0.014139803126454353,
    0.10398104041814804,
    -0.13051700592041016,
    0.03206193074584007,
    0.0838664323091507,
    0.06318553537130356,
    0.06972899287939072,
    0.10923431813716888,
    -0.0950385257601738,
    -0.48118916153907776,
    0.07841914892196655,
    0.6342014670372009,
    0.15052960813045502,
    -9.445627711102134e-07,
    0.1196034848690033,
    0.39728179574012756,
    -0.08707184344530106,
    0.581238329410553,
    -0.319137841463089,
    0.1435701847076416,
    0.5136038661003113,
    0.04151405021548271,
    -0.09158854186534882,
    0.08535297960042953,
    -0.15679265558719635,
    -0.4805638790130615,
    0.25276464223861694,
    0.39224663376808167,
    -0.14932873845100403,
    -3.7976658404659247e-06,
    -0.03015834651887417,
    0.30473607778549194,
    -0.06479119509458542,
    0.08832722157239914,
    -0.3218327462673187,
    0.15788231790065765,
    0.1261029988527298,
    0.2897479832172394,
    -0.028392374515533447,
    0.2697714567184448,
    -0.3831333816051483,
    0.43026605248451233,
    -0.22307828068733215,
    0.3879133462905884,
    -0.23504313826560974,
    3.2444550015497953e-06,
    0.1690770834684372,
    -0.44847390055656433,
    0.09227128326892853,
    0.10766534507274628,
    -0.09563914686441422,
    -0.541373610496521,
    -0.007647784426808357,
    0.022832008078694344,
    -0.18650661408901215,
    -0.3926338851451874,
    0.08704271167516708,
    0.0821029394865036,
    -0.8453946113586426,
    -0.6462664008140564,
    -0.318264901638031,
    1.9511958271323238e-06,
    0.8456954956054688,
    0.19849815964698792,
    0.020178381353616714,
    -0.49730297923088074,
    -0.8901827335357666,
    -0.48550793528556824,
    -0.33647236227989197,
    -0.9187765717506409,
    -0.8705214858055115,
    0.47194454073905945,
    1.2876038551330566,
    -0.14945554733276367,
    0.13116455078125,
    0.07878797501325607,
    -0.05701180547475815,
    -6.555777645189664e-07,
    -0.06165642291307449,
    0.09660077840089798,
    0.00424185860902071,
    -0.021786797791719437,
    -0.05434565618634224,
    0.0672176256775856,
    0.023046394810080528,
    0.13441409170627594,
    0.08389419317245483,
    0.10124893486499786,
    -0.13347265124320984,
    0.001523765386082232,
    -0.006659087259322405,
    -0.008331471122801304,
    -0.011799557134509087,
    -5.5435066315112635e-06,
    0.002513630548492074,
    0.003391220001503825,
    0.0008561268332414329,
    -0.006245043594390154,
    -0.014232145622372627,
    -0.012023532763123512,
    -0.0012895771069452167,
    -0.002097533317282796,
    -0.0072779241017997265,
    0.00817155186086893,
    0.0023270074743777514,
    -0.2926698327064514,
    0.11347778886556625,
    0.3984861671924591,
    -0.2907826900482178,
    -9.887617125059478e-06,
    0.0034959884360432625,
    0.13130159676074982,
    0.0392504520714283,
    0.34302836656570435,
    -0.2509036958217621,
    -0.026956839486956596,
    0.2828824520111084,
    0.05859795957803726,
    0.027080753818154335,
    0.031194420531392097,
    -0.032712679356336594,
    0.3522424101829529,
    0.14104020595550537,
    -0.3219199478626251,
    0.5912847518920898,
    1.7346393406114657e-06,
    -0.16468751430511475,
    0.09284210950136185,
    -0.17743843793869019,
    -0.3342149555683136,
    0.3623688220977783,
    0.16248509287834167,
    -0.20503562688827515,
    0.058646295219659805,
    -0.08407347649335861,
    -0.05815627798438072,
    -0.3155657947063446,
    -0.05721057206392288,
    -0.1918114572763443,
    0.45013561844825745,
    0.26528289914131165,
    1.548367094983405e-06,
    0.24230729043483734,
    0.14577268064022064,
    -0.11586190015077591,
    0.36668187379837036,
    -0.25251901149749756,
    0.02281908318400383,
    0.34714651107788086,
    -0.254925012588501,
    -0.3530333638191223,
    -0.17015235126018524,
    0.17361611127853394,
    0.03291729465126991,
    -0.005074759013950825,
    0.008583354763686657,
    -0.005460340529680252,
    -6.865237764941412e-07,
    0.02325059287250042,
    0.02592056803405285,
    -0.0008616180275566876,
    -0.035112276673316956,
    -0.02205224148929119,
    -0.019123315811157227,
    -0.0228275153785944,
    -0.0013743310701102018,
    -0.03017735294997692,
    0.029101429507136345,
    0.020090650767087936,
    0.0433625690639019,
    0.001005083555355668,
    -0.0013670342741534114,
    0.04620371758937836,
    4.6779332478763536e-06,
    -0.06097015365958214,
    0.022098101675510406,
    -0.014655237086117268,
    0.07167971879243851,
    -0.009363081306219101,
    -0.06740815192461014,
    0.08183591067790985,
    -0.048381902277469635,
    0.021928315982222557,
    -0.030388591811060905,
    -0.007614892907440662,
    0.005774283781647682,
    0.025997919961810112,
    -0.023284975439310074,
    -0.0013185386778786778,
    7.535874715358659e-07,
    -0.06697971373796463,
    0.007392793893814087,
    -0.01091061718761921,
    0.006137223448604345,
    -0.012218392454087734,
    0.008852068334817886,
    -0.0035161871928721666,
    0.028141159564256668,
    0.03929205611348152,
    0.030697833746671677,
    -0.04131167754530907,
    0.06484311074018478,
    -0.009221740998327732,
    0.037632595747709274,
    -0.07193298637866974,
    -5.627446626021992e-06,
    0.0393606573343277,
    -0.048739783465862274,
    0.0010179993696510792,
    0.008041653782129288,
    -0.04424716904759407,
    -0.05596364662051201,
    -0.0019628878217190504,
    0.02793414704501629,
    -0.031175989657640457,
    -0.044859226793050766,
    0.003398965811356902,
    0.014826402068138123,
    0.005883306730538607,
    0.009327423758804798,
    -0.00025268722674809396,
    3.684527527525461e-08,
    0.01703586056828499,
    -0.008232940919697285,
    -0.0011070106411352754,
    -0.021023759618401527,
    0.0047927130945026875,
    -0.002203631214797497,
    -0.00013243520515970886,
    0.013517336919903755,
    -0.0011344056110829115,
    0.0028149986173957586,
    -0.00977593008428812,
    -0.002799354726448655,
    -0.11470380425453186,
    0.05465247854590416,
    0.06570495665073395,
    2.9389914288913133e-06,
    0.040747638791799545,
    0.01180148497223854,
    -0.026126684620976448,
    0.11616026610136032,
    -0.0063397870399057865,
    0.027322812005877495,
    0.10174962133169174,
    -0.10835990309715271,
    -0.02664685621857643,
    -0.024321552366018295,
    0.03806774318218231,
    -0.13742710649967194,
    -0.032849013805389404,
    -0.08461340516805649,
    0.010581202805042267,
    -4.182623342785519e-06,
    0.0633983165025711,
    -0.08478174358606339,
    0.020938731729984283,
    -0.11710517108440399,
    0.08198635280132294,
    0.11712814122438431,
    -0.07229086011648178,
    -0.04195425286889076,
    -0.06651931256055832,
    -0.041016340255737305,
    0.05334961786866188,
    -0.0063148485496640205,
    0.054323237389326096,
    -0.00370993884280324,
    0.010253329761326313,
    -3.7809345485584345e-06,
    -0.05113370344042778,
    0.03265167772769928,
    0.0014258547453209758,
    0.015924949198961258,
    -0.015086068771779537,
    -0.03170750290155411,
    0.07495380192995071,
    0.009109877981245518,
    0.04986890032887459,
    0.01829199306666851,
    -0.024508817121386528,
    0.0017706104554235935,
    -0.0011148416670039296,
    -5.875528586329892e-05,
    -0.0010484688682481647,
    3.9364572330669034e-06,
    0.0005257847369648516,
    0.002793962834402919,
    0.00017533183563500643,
    -0.0010649641044437885,
    -0.0039304220117628574,
    -0.0023263373877853155,
    -0.0002515105006750673,
    -0.0005189477233216166,
    -0.0013802647590637207,
    -0.0007634249632246792,
    0.0005171466036699712,
    -0.19574125111103058,
    -0.19001637399196625,
    -0.10999622941017151,
    0.03729711472988129,
    -2.472546839271672e-06,
    0.17757971584796906,
    -0.16136434674263,
    0.022385597229003906,
    -0.15601395070552826,
    0.14525087177753448,
    0.09907129406929016,
    -0.09472868591547012,
    -0.20832769572734833,
    -0.22367224097251892,
    -0.14987890422344208,
    0.20476162433624268,
    -0.08764798939228058,
    -0.01430516131222248,
    -0.06381240487098694,
    -0.031443726271390915,
    -1.3374789887166116e-05,
    0.03936903923749924,
    0.00963388942182064,
    0.013397597707808018,
    -0.08937762677669525,
    0.039929430931806564,
    0.03705685958266258,
    -0.05677676200866699,
    -0.010152836330235004,
    -0.0036155369598418474,
    0.007079846691340208,
    0.016189325600862503,
    0.0016995908226817846,
    0.055209022015333176,
    0.004526388365775347,
    0.0009590921108610928,
    2.7390665309212636e-06,
    -0.03159858286380768,
    0.04058832675218582,
    -0.014016940258443356,
    -0.008380433544516563,
    -0.0019579180516302586,
    0.011581916362047195,
    0.011585762724280357,
    0.02430468611419201,
    0.03221932798624039,
    0.03257489576935768,
    -0.026215942576527596,
    0.01273162942379713,
    0.07142694294452667,
    -0.009391346015036106,
    0.13259759545326233,
    -7.975689186423551e-06,
    -0.029553666710853577,
    0.02583465725183487,
    -0.061596088111400604,
    -0.015695469453930855,
    0.05072936788201332,
    0.07734882831573486,
    0.022422699257731438,
    0.01886080764234066,
    0.010927452705800533,
    0.020269695669412613,
    -0.026225287467241287,
    0.19231368601322174,
    0.01245937030762434,
    0.1345580518245697,
    0.055136073380708694,
    1.4243597661334206e-06,
    0.14014452695846558,
    0.09733117371797562,
    -0.03948647901415825,
    0.12116964161396027,
    -0.21703504025936127,
    -0.1103786751627922,
    0.049474481493234634,
    -0.06386493146419525,
    0.048629481345415115,
    -0.052151598036289215,
    0.08131453394889832,
    0.05260937660932541,
    0.00589216873049736,
    -0.024997157976031303,
    -0.036325421184301376,
    5.364488515624544e-07,
    -0.019487090408802032,
    -0.02663559280335903,
    0.027224328368902206,
    -0.004591302014887333,
    0.007999143563210964,
    -0.00920313410460949,
    -0.028980402275919914,
    0.03354311361908913,
    0.005083597730845213,
    -0.007095937617123127,
    -0.06442470848560333,
    0.006156939081847668,
    0.0023387535475194454,
    0.019217707216739655,
    0.08208385109901428,
    -6.9737657213408966e-06,
    0.028883710503578186,
    0.005604896228760481,
    -0.02234807051718235,
    -0.03591937944293022,
    0.02703271247446537,
    0.03276582062244415,
    -0.02130849100649357,
    -0.008317247033119202,
    -0.005357848014682531,
    -0.04463186860084534,
    -0.0044738552533090115,
    0.15674635767936707,
    0.03478173166513443,
    -0.05516412854194641,
    0.010401574894785881,
    -3.93471145798685e-06,
    -0.06029583886265755,
    0.05364370718598366,
    -0.06441300362348557,
    -0.0287766270339489,
    -0.026844073086977005,
    -0.10504390299320221,
    -0.07092321664094925,
    0.06771111488342285,
    0.0180380679666996,
    0.09937627613544464,
    -0.10283046960830688,
    0.08161380887031555,
    0.06367793679237366,
    0.10356193780899048,
    -0.0990627110004425,
    1.0875388397835195e-05,
    -0.005764439236372709,
    -0.01341588981449604,
    0.026365455240011215,
    0.004859241656959057,
    0.0051531135104596615,
    -0.11705166101455688,
    -0.025602970272302628,
    0.10683820396661758,
    0.048635270446538925,
    -0.01018969900906086,
    -0.05801369249820709,
    0.04307778552174568,
    0.021051745861768723,
    -0.1793641895055771,
    0.08946371078491211,
    -5.62318746233359e-06,
    -0.0454370491206646,
    0.007650183513760567,
    0.007563330233097076,
    -0.02864728681743145,
    0.0763896256685257,
    0.09037397056818008,
    -0.0041813054122030735,
    -0.09720747172832489,
    0.12555021047592163,
    0.01774187572300434,
    0.022410061210393906,
    -0.22783038020133972,
    -0.0081832529976964,
    0.22975654900074005,
    0.07080744951963425,
    9.168966812467261e-07,
    0.059913720935583115,
    0.11901350319385529,
    -0.02068512700498104,
    0.17722731828689575,
    -0.16504697501659393,
    0.13922558724880219,
    0.2083870768547058,
    -0.024532152339816093,
    -0.032133691012859344,
    -0.09088858962059021,
    -0.03940701484680176,
    -0.06750320643186569,
    0.16109934449195862,
    0.41500991582870483,
    0.030391177162528038,
    -7.41626365652337e-07,
    -0.12523910403251648,
    0.26305896043777466,
    -0.15279553830623627,
    0.41971391439437866,
    -0.20540624856948853,
    0.02566824108362198,
    0.44112876057624817,
    0.05833938345313072,
    0.1185501217842102,
    0.03135190159082413,
    -0.11454325169324875,
    -0.1299527883529663,
    -0.02559085004031658,
    0.2543906569480896,
    -0.07481595873832703,
    -1.6854601199156605e-06,
    0.22335292398929596,
    0.10177065432071686,
    0.007366785313934088,
    0.15863610804080963,
    -0.277731329202652,
    0.006630136631429195,
    0.16673429310321808,
    -0.09220205992460251,
    -0.10990072041749954,
    -0.013879082165658474,
    0.15047836303710938,
    -0.003757104044780135,
    -0.05024980381131172,
    0.0320797897875309,
    0.07396294176578522,
    -1.9523774881236022e-06,
    0.021136600524187088,
    0.024384334683418274,
    -0.029464956372976303,
    0.03325576335191727,
    -0.019288452342152596,
    0.03516145050525665,
    0.04521843418478966,
    -0.02769768051803112,
    -0.028343480080366135,
    -0.027072202414274216,
    0.016137834638357162,
    0.20510633289813995,
    0.3516002595424652,
    -0.24063518643379211,
    0.3340262770652771,
    -1.6795333976915572e-06,
    -0.396304726600647,
    0.20271649956703186,
    -0.15438807010650635,
    -0.26423630118370056,
    0.28940704464912415,
    0.220137357711792,
    -0.22719065845012665,
    0.3029848635196686,
    0.2466769516468048,
    0.25423768162727356,
    -0.41732916235923767,
    -0.36145123839378357,
    0.25655919313430786,
    0.30301111936569214,
    -0.2982720732688904,
    -3.039045850528055e-07,
    -0.16960613429546356,
    0.22093984484672546,
    0.02595439739525318,
    0.2699979543685913,
    -0.2769244611263275,
    0.06735476851463318,
    0.2541055679321289,
    0.2155219316482544,
    0.1860998123884201,
    0.16124176979064941,
    -0.2016485184431076,
    0.2629639506340027,
    -0.09551625698804855,
    -0.21509839594364166,
    0.10426266491413116,
    -2.810513137774251e-07,
    -0.22401562333106995,
    -0.13831429183483124,
    -0.07389990985393524,
    0.05236845090985298,
    0.10619530081748962,
    -0.07349615544080734,
    0.007607746869325638,
    -0.13335807621479034,
    0.19984900951385498,
    -0.14800672233104706,
    0.02775711752474308,
    -0.11860206723213196,
    0.2991233766078949,
    0.2703799605369568,
    0.06855171173810959,
    -1.104465172829805e-05,
    -0.10504075884819031,
    0.37931132316589355,
    -0.09261463582515717,
    0.219062939286232,
    -0.2807057201862335,
    0.07730872184038162,
    0.26325297355651855,
    0.1420438438653946,
    0.11322958022356033,
    0.22135531902313232,
    -0.22770965099334717,
    0.19177313148975372,
    -0.12420886754989624,
    -0.8306981921195984,
    0.906589925289154,
    9.839282938628457e-06,
    -0.14781242609024048,
    -0.24549251794815063,
    -0.16258998215198517,
    -0.8049089908599854,
    0.8793442249298096,
    0.28827619552612305,
    -0.6092583537101746,
    -0.3528854250907898,
    -0.17176802456378937,
    -0.18678320944309235,
    0.000223534123506397,
    0.05304209887981415,
    -0.010909088887274265,
    0.030220700427889824,
    -0.004512938670814037,
    -8.083653483481612e-06,
    0.07945878058671951,
    0.20211893320083618,
    -0.06586196273565292,
    -0.031137635931372643,
    -0.2002170830965042,
    -0.06964220106601715,
    -0.03851490840315819,
    0.01505851000547409,
    -0.09536349028348923,
    0.17391684651374817,
    -0.006074956618249416,
    0.03639579564332962,
    -0.046989765018224716,
    -0.1120055764913559,
    0.0038962140679359436,
    8.27387430035742e-06,
    -0.05222867429256439,
    -0.021793866530060768,
    0.0017575346864759922,
    -0.010877728462219238,
    0.021543975919485092,
    -0.003916373010724783,
    -0.0006973785348236561,
    -0.03888515383005142,
    0.04710632190108299,
    -0.028994128108024597,
    0.011068230494856834,
    -0.3518141210079193,
    0.6807544231414795,
    0.1495910882949829,
    -0.1707693189382553,
    -5.087806130177341e-06,
    -0.5908043384552002,
    0.4267885982990265,
    -0.12462018430233002,
    0.21103011071681976,
    0.006180495489388704,
    0.3643325865268707,
    0.291703462600708,
    0.4251490533351898,
    0.47762003540992737,
    0.2656225562095642,
    -0.6011548042297363,
    0.24638083577156067,
    0.513197660446167,
    -0.360732764005661,
    0.5195033550262451,
    -4.1145171962853055e-06,
    -0.41180193424224854,
    0.2254745364189148,
    -0.16661179065704346,
    -0.45593366026878357,
    0.5029280781745911,
    0.4235154390335083,
    -0.4281085729598999,
    0.29389244318008423,
    0.2713835835456848,
    0.34848976135253906,
    -0.4242158532142639,
    0.09115417301654816,
    0.04139446094632149,
    -0.12988600134849548,
    0.09423775970935822,
    -1.5900667449386674e-06,
    -0.009047430008649826,
    -0.02730933018028736,
    -0.018125655129551888,
    -0.1374037265777588,
    0.11483373492956161,
    0.009609656408429146,
    -0.09586817026138306,
    0.019851816818118095,
    0.014024846255779266,
    0.030315035954117775,
    -0.03861948475241661,
    0.010237513110041618,
    0.061763912439346313,
    -0.08055801689624786,
    0.045468565076589584,
    -3.1255697763299395e-07,
    -0.0445220060646534,
    0.018889745697379112,
    -0.03015163727104664,
    -0.0754866823554039,
    0.08780170977115631,
    0.038426753133535385,
    -0.0721423402428627,
    0.029094967991113663,
    0.0426727831363678,
    0.03594181686639786,
    -0.05634709820151329,
    0.01311745960265398,
    0.09257423877716064,
    0.08230995386838913,
    0.0181865431368351,
    5.652569257108553e-07,
    0.07666075974702835,
    -0.041600994765758514,
    0.004276210907846689,
    -0.15263327956199646,
    0.06465251743793488,
    0.056026071310043335,
    -0.13037459552288055,
    0.13915550708770752,
    -0.07424826920032501,
    0.031022945418953896,
    -0.08435463160276413,
    0.5233194231987,
    -0.6968735456466675,
    -0.5288711190223694,
    -0.6149051189422607,
    1.8315336092200596e-06,
    1.047315001487732,
    0.6514869332313538,
    0.086607426404953,
    -0.572879433631897,
    -1.1099833250045776,
    -1.0475668907165527,
    -0.5781623721122742,
    -0.33715716004371643,
    -0.5183748602867126,
    1.2281866073608398,
    1.0947099924087524,
    0.032702624797821045,
    -0.0313887894153595,
    0.011278174817562103,
    -0.021658893674612045,
    5.415530267782742e-06,
    0.031857334077358246,
    -0.008847437798976898,
    -0.004038325976580381,
    0.008205791004002094,
    -0.04013369604945183,
    -0.05367416888475418,
    0.006837045308202505,
    -0.010644203051924706,
    -0.02768521010875702,
    0.015762396156787872,
    0.03303852677345276,
    0.011777994222939014,
    -0.13817301392555237,
    -0.054103754460811615,
    0.030705321580171585,
    -4.990947218175279e-06,
    0.12018799036741257,
    0.041531603783369064,
    -0.005117073189467192,
    -0.07854213565587997,
    0.016864130273461342,
    -0.052989259362220764,
    -0.05053224042057991,
    -0.090571828186512,
    -0.16080372035503387,
    0.0456308089196682,
    0.08480361104011536,
    0.1800394207239151,
    0.1431485265493393,
    -0.16687671840190887,
    0.0998542383313179,
    -8.69523955771001e-06,
    -0.24120551347732544,
    0.014197400771081448,
    -0.0432627871632576,
    -0.12716664373874664,
    0.09620493650436401,
    0.06499791145324707,
    -0.10414692759513855,
    0.09266167134046555,
    0.1436152458190918,
    0.0781891867518425,
    -0.20935088396072388,
    -0.019404571503400803,
    -0.011217202991247177,
    -0.018680527806282043,
    0.009084224700927734,
    -2.20356969293789e-06,
    0.01873890869319439,
    -0.015273786149919033,
    -0.0009619513293728232,
    -0.013493004254996777,
    0.019723527133464813,
    0.011059298180043697,
    -0.007188358344137669,
    -0.025642862543463707,
    -0.0025152424350380898,
    -0.023864276707172394,
    0.01802099496126175,
    0.08194288611412048,
    -0.08587048202753067,
    0.08471117913722992,
    0.0462675578892231,
    1.7944960291060852e-06,
    0.100285604596138,
    -0.03271264210343361,
    -0.010212517343461514,
    -0.0036351438611745834,
    -0.00042589232907630503,
    -0.03953436762094498,
    -0.013949626125395298,
    -0.058077163994312286,
    -0.1003032922744751,
    -0.10806785523891449,
    0.023999668657779694,
    0.1025766134262085,
    0.26711714267730713,
    0.056666743010282516,
    0.3521899878978729,
    -1.0491539796930738e-05,
    -0.06951922923326492,
    0.22496652603149414,
    -0.1554071307182312,
    -0.07107765227556229,
    0.10716081410646439,
    0.18260817229747772,
    -0.09184635430574417,
    0.16183923184871674,
    0.048954036086797714,
    0.1375139057636261,
    -0.07885690778493881,
    0.06271055340766907,
    -0.011978809721767902,
    0.028681684285402298,
    -0.09429376572370529,
    -6.558703717018943e-06,
    -0.0259288027882576,
    -0.08381249010562897,
    0.04992370307445526,
    -0.03418974578380585,
    -0.02731088176369667,
    -0.15648163855075836,
    -0.06233694404363632,
    0.044229403138160706,
    0.01814214512705803,
    -0.032558321952819824,
    0.00425285380333662,
    0.053391262888908386,
    -0.04643285647034645,
    -0.0733785331249237,
    -0.01845456287264824,
    4.653710220736684e-06,
    0.02503531239926815,
    0.034280627965927124,
    -0.014496506191790104,
    -0.07188329845666885,
    -0.007509963121265173,
    -0.047040268778800964,
    -0.06117476150393486,
    -0.012143827974796295,
    -0.030477754771709442,
    0.05846263840794563,
    -0.0033979688305407763,
    -0.37440094351768494,
    0.012947573326528072,
    -0.0452253594994545,
    0.11234918236732483,
    4.202521267870907e-06,
    0.19693583250045776,
    -0.14074952900409698,
    -0.011892530135810375,
    -0.2070503979921341,
    0.15674689412117004,
    0.49620503187179565,
    -0.11761873960494995,
    -0.14489980041980743,
    -0.29916828870773315,
    -0.20664770901203156,
    0.02104380540549755,
    0.11594819277524948,
    0.15871599316596985,
    -0.1612798571586609,
    0.0992768257856369,
    1.2593369547175826e-06,
    -0.22013090550899506,
    0.11037403345108032,
    -0.0531429648399353,
    -0.09124347567558289,
    0.1050558015704155,
    0.053698357194662094,
    -0.09836670756340027,
    0.13541045784950256,
    0.10410405695438385,
    0.16100803017616272,
    -0.15939760208129883,
    -0.4334836006164551,
    0.11024938523769379,
    0.17276877164840698,
    -0.1223752349615097,
    3.5973082503915066e-06,
    -0.018033508211374283,
    0.0872563049197197,
    0.006741622928529978,
    0.121612049639225,
    -0.1701757311820984,
    0.12709678709506989,
    0.1265784054994583,
    0.06875655800104141,
    -0.11462809145450592,
    0.07125354558229446,
    -0.07318633794784546,
    -0.03642641007900238,
    -0.04427216574549675,
    -0.05045115202665329,
    -0.04458095133304596,
    -1.3238676501714508e-06,
    0.07883455604314804,
    -0.09794899821281433,
    0.07340198010206223,
    -0.044608861207962036,
    0.1372079849243164,
    0.02767152152955532,
    -0.047704312950372696,
    -0.029404353350400925,
    0.02044408954679966,
    -0.03708801046013832,
    0.07195059210062027,
    -0.026853233575820923,
    0.07731535285711288,
    0.03612695634365082,
    -0.3005754351615906,
    4.6573422878282145e-06,
    -0.1526675969362259,
    -0.05657747760415077,
    0.10761627554893494,
    0.2147204726934433,
    -0.06133028864860535,
    -0.11394581943750381,
    0.1673332154750824,
    0.08130430430173874,
    0.2808719873428345,
    0.007228858768939972,
    -0.05135837569832802,
    0.011256994679570198,
    -0.11365979164838791,
    -0.07391577214002609,
    0.06538636237382889,
    -5.373175554268528e-06,
    0.005873680580407381,
    -0.02885238267481327,
    0.0042693535797297955,
    0.08265160024166107,
    -0.03526463359594345,
    -0.04345905780792236,
    0.09031515568494797,
    -0.13029980659484863,
    -0.0039226640947163105,
    -0.06343401968479156,
    0.0927252471446991,
    -0.024118715897202492,
    0.07742094993591309,
    -0.114535391330719,
    -0.009368199855089188,
    -1.1249063618379296e-06,
    -0.050149913877248764,
    0.08328018337488174,
    -0.016271619126200676,
    -0.1758873611688614,
    0.07132845371961594,
    0.027482176199555397,
    -0.11111480742692947,
    0.0588672049343586,
    0.052932582795619965,
    0.09650097787380219,
    -0.0637415423989296,
    0.08519637584686279,
    -0.09851407259702682,
    0.08860906213521957,
    0.14058953523635864,
    -9.442626833333634e-06,
    0.1364622712135315,
    -0.04299511760473251,
    -0.033044710755348206,
    -0.02950846031308174,
    -0.026982510462403297,
    0.010094025172293186,
    -0.040484488010406494,
    -0.04807201772928238,
    -0.15858817100524902,
    -0.10265765339136124,
    0.026852533221244812,
    -0.03320813924074173,
    0.4087337255477905,
    -0.10738278925418854,
    0.07817316800355911,
    1.4114896202954696e-06,
    -0.1709042638540268,
    -0.01340163592249155,
    -0.04094626009464264,
    -0.3864275813102722,
    0.23590020835399628,
    0.31727543473243713,
    -0.2834407389163971,
    0.34694552421569824,
    0.1234249621629715,
    0.15589825809001923,
    -0.39791709184646606,
    0.08092188090085983,
    -0.1230630874633789,
    0.07802764326334,
    -0.08040144294500351,
    2.949950896891096e-07,
    -0.013750893995165825,
    -0.07135544717311859,
    0.0043547567911446095,
    0.08909714967012405,
    -0.06685834378004074,
    -0.10280775278806686,
    0.028111610561609268,
    -0.016928400844335556,
    -0.03436092659831047,
    -0.060741618275642395,
    0.10747216641902924,
    0.09071657806634903,
    -0.12657345831394196,
    0.0784216970205307,
    -0.08148570358753204,
    -1.2566464647534303e-05,
    -0.014272481203079224,
    -0.07139265537261963,
    0.018549462780356407,
    0.08394352346658707,
    -0.06673423945903778,
    -0.10106170922517776,
    0.028009774163365364,
    -0.005419905763119459,
    -0.03466855734586716,
    -0.061026398092508316,
    0.10582412779331207,
    0.09140568971633911,
    0.20224277675151825,
    -0.21903687715530396,
    0.1627451330423355,
    1.6381532077502925e-06,
    -0.16918905079364777,
    0.04998749494552612,
    -0.050479382276535034,
    -0.24426713585853577,
    0.16969084739685059,
    0.13640961050987244,
    -0.17979542911052704,
    0.10313406586647034,
    0.11493586003780365,
    0.13290102779865265,
    -0.2021239846944809,
    0.05639165639877319,
    0.0573047436773777,
    -0.08412191271781921,
    0.23208682239055634,
    1.8254090718983207e-06,
    -0.06459705531597137,
    0.05891510099172592,
    -0.07249278575181961,
    0.03043190948665142,
    0.12032951414585114,
    0.05810721218585968,
    0.06401162594556808,
    -0.06507501751184464,
    0.12273885309696198,
    0.010153540410101414,
    -0.05260714516043663,
    0.07951948791742325,
    0.07100269943475723,
    -0.05176914110779762,
    0.18355026841163635,
    -1.1152235856570769e-05,
    0.03223966434597969,
    0.027332264930009842,
    -0.055541254580020905,
    -0.11584442853927612,
    0.05672239139676094,
    0.08415113389492035,
    -0.07158476859331131,
    -0.01162432599812746,
    0.00337873469106853,
    -0.0026973511558026075,
    -0.008447006344795227,
    -0.00016852970293257385,
    -0.003911866340786219,
    -0.0038885215763002634,
    -0.006739089265465736,
    -6.079495960875647e-06,
    0.001220019767060876,
    0.0015743833500891924,
    0.0005771613796241581,
    -0.00291708717122674,
    -0.009128383360803127,
    -0.005931188352406025,
    -0.0006304446142166853,
    -0.0006536188302561641,
    -0.003669832134619355,
    0.004836479667574167,
    0.004682661034166813,
    -0.0339636355638504,
    0.03349706530570984,
    0.040582362562417984,
    -0.03249788656830788,
    1.0445296538819093e-07,
    -0.014659554697573185,
    0.038104671984910965,
    -3.059120354009792e-05,
    0.031782153993844986,
    -0.006147370673716068,
    0.006150863599032164,
    0.027683058753609657,
    0.01599014177918434,
    0.01860641874372959,
    0.022965671494603157,
    -0.013090957887470722,
    -0.00157748197671026,
    -0.06196628138422966,
    0.12510904669761658,
    0.1802034229040146,
    6.484015102614649e-06,
    0.08522989600896835,
    0.012857232242822647,
    -0.02672787569463253,
    0.06812787055969238,
    -0.04246540740132332,
    0.032845109701156616,
    0.06955277919769287,
    -0.07586139440536499,
    -0.11229392886161804,
    -0.0756656602025032,
    0.040218695998191833,
    -0.0016398032894358039,
    0.033344753086566925,
    -0.013476087711751461,
    0.02222772315144539,
    5.284973667585291e-06,
    -0.0266058798879385,
    0.009168390184640884,
    -0.00985920149832964,
    -0.010715140029788017,
    0.014309026300907135,
    0.018971242010593414,
    -0.02324984036386013,
    0.03608999028801918,
    0.01710781641304493,
    0.033866044133901596,
    -0.02294951304793358,
    0.12056839466094971,
    -0.014287837781012058,
    -0.09646263718605042,
    0.06283126026391983,
    -1.1636531098702108e-06,
    -0.009074331261217594,
    0.07512548565864563,
    -0.03031204640865326,
    -0.13225266337394714,
    0.07360552996397018,
    -0.046073783189058304,
    -0.0664592906832695,
    -0.00536043057218194,
    -0.0010621058754622936,
    0.137406587600708,
    -0.0053441403433680534,
    -0.47920677065849304,
    0.17339766025543213,
    -0.10547350347042084,
    -0.4984327554702759,
    1.0689474265745957e-06,
    0.2143731415271759,
    -0.11170513927936554,
    0.20373395085334778,
    -0.2813771069049835,
    0.2272518128156662,
    0.2626957893371582,
    -0.26219335198402405,
    0.3287036418914795,
    -0.1350635290145874,
    0.16895288228988647,
    0.0035225609317421913,
    0.18843792378902435,
    -0.032965973019599915,
    -0.28555813431739807,
    -0.06695268303155899,
    -1.5305529359466163e-06,
    -0.37109360098838806,
    -0.20227739214897156,
    0.0417327918112278,
    0.15021410584449768,
    0.1801779568195343,
    -0.11286140233278275,
    0.08671867847442627,
    -0.048128578811883926,
    0.29903873801231384,
    -0.1787022352218628,
    -0.03391371667385101,
    -0.0011152854422107339,
    -0.01689118519425392,
    0.07062771916389465,
    0.020919745787978172,
    -1.9253641880823125e-07,
    0.004856937564909458,
    0.021100511774420738,
    -0.0053030941635370255,
    0.04009604454040527,
    -0.043695420026779175,
    -0.0545601025223732,
    0.08492277562618256,
    -0.04331884905695915,
    -0.03901298716664314,
    0.017275217920541763,
    0.036940645426511765,
    0.1928265243768692,
    0.17780855298042297,
    -0.3083433508872986,
    0.22878243029117584,
    1.8333417983740219e-06,
    -0.062168288975954056,
    0.0440031923353672,
    -0.07551422715187073,
    -0.3557746410369873,
    0.23533189296722412,
    0.16027577221393585,
    -0.29288995265960693,
    0.08098579943180084,
    0.10275903344154358,
    0.11485736072063446,
    -0.10981922596693039,
    -0.20203441381454468,
    0.10085099935531616,
    0.4015795588493347,
    -0.11685770004987717,
    1.8446162357577123e-06,
    0.02784940041601658,
    0.19902245700359344,
    -0.0031143336091190577,
    0.319000780582428,
    -0.20332710444927216,
    0.02381354756653309,
    0.3266851007938385,
    0.0730840191245079,
    -0.01364194042980671,
    0.04638449102640152,
    -0.037201907485723495,
    -0.1777147799730301,
    -0.29389747977256775,
    -0.19651706516742706,
    -0.17645159363746643,
    -1.254231119673932e-05,
    0.2205798625946045,
    -0.6170406341552734,
    0.27465876936912537,
    -0.11822547018527985,
    0.19565217196941376,
    -0.07970096170902252,
    -0.21740061044692993,
    -0.2025870382785797,
    -0.08996351808309555,
    -0.47486475110054016,
    0.25019270181655884,
    0.013569374568760395,
    0.010130389593541622,
    -0.013766970485448837,
    0.010416431352496147,
    1.2072803201590432e-08,
    -0.019158389419317245,
    -0.014105185866355896,
    -0.004487931728363037,
    -0.012807917781174183,
    0.00888922717422247,
    -0.004967792425304651,
    -0.03350308537483215,
    0.014741780236363411,
    0.003629234153777361,
    -0.0005210040835663676,
    -0.022851387038826942,
    0.07594481855630875,
    0.058151520788669586,
    -0.01601475663483143,
    0.14041171967983246,
    -2.536940428399248e-06,
    -0.003771964693441987,
    0.0258124191313982,
    -0.07358470559120178,
    -0.11706355959177017,
    0.10712621361017227,
    0.09609580785036087,
    -0.07228073477745056,
    0.01780918799340725,
    0.08590853214263916,
    0.02981509640812874,
    -0.08117751032114029,
    -0.22803914546966553,
    0.1968599110841751,
    -0.6864351034164429,
    0.3495105803012848,
    -2.803823463182198e-06,
    -0.043809324502944946,
    -0.1899387687444687,
    -0.09224031865596771,
    -0.8195115327835083,
    0.9013763666152954,
    0.7251070141792297,
    -0.6368818283081055,
    0.04447498172521591,
    -0.11460945755243301,
    0.011078543029725552,
    -0.16735675930976868,
    0.2520618140697479,
    -0.057830389589071274,
    -0.18621650338172913,
    0.22196298837661743,
    3.6579226616595406e-06,
    -0.0006549720419570804,
    -0.038567282259464264,
    -0.05411364883184433,
    -0.024534033611416817,
    0.2276218682527542,
    -0.007883117534220219,
    -0.006533041596412659,
    -0.1259087324142456,
    -0.050890181213617325,
    -0.13649961352348328,
    0.02898876741528511,
    -0.25987371802330017,
    0.04333896562457085,
    0.0809205174446106,
    -0.1924535185098648,
    4.935438028041972e-06,
    0.06423785537481308,
    0.05249986797571182,
    0.02248307690024376,
    0.06454908102750778,
    -0.11031246930360794,
    0.02477702870965004,
    0.04674684628844261,
    0.028600897639989853,
    0.00315941427834332,
    0.06868687272071838,
    0.021945727989077568,
    0.11571861058473587,
    -0.10022108256816864,
    -0.05928780138492584,
    -0.11166394501924515,
    -3.5283135275676614e-06,
    -0.16155698895454407,
    0.047338828444480896,
    -0.0194754209369421,
    0.11146295815706253,
    -0.25636082887649536,
    -0.2583376169204712,
    0.07434096187353134,
    -0.08029001206159592,
    0.09568021446466446,
    0.014684358611702919,
    -0.02227342315018177,
    0.006243960000574589,
    0.0005661476752720773,
    0.013754376210272312,
    0.0036454573273658752,
    7.63200023357058e-06,
    0.00504263024777174,
    0.0007547079003416002,
    -0.0009273777832277119,
    0.008985882624983788,
    -0.0032197667751461267,
    -0.005072114523500204,
    0.009051665663719177,
    0.0025692239869385958,
    -0.005226186942309141,
    -0.00568197388201952,
    0.0018098971340805292,
    -0.11766171455383301,
    0.035099051892757416,
    0.1542702615261078,
    -0.16778209805488586,
    -2.1849741642654408e-06,
    0.0009028025669977069,
    0.06698360294103622,
    0.012065112590789795,
    0.10734284669160843,
    -0.1396956741809845,
    -0.01718216761946678,
    0.13375931978225708,
    0.035183556377887726,
    0.03349751979112625,
    0.05592498183250427,
    -0.022766634821891785,
    0.14180684089660645,
    -0.03134096413850784,
    -0.3033875524997711,
    -0.017090661451220512,
    -3.4273432447662344e-06,
    -0.17260392010211945,
    -0.20390363037586212,
    0.06214616447687149,
    -0.049122512340545654,
    0.21624357998371124,
    -0.04094726964831352,
    -0.08478327840566635,
    -0.048052895814180374,
    0.25692877173423767,
    -0.058337848633527756,
    -0.03444986790418625,
    -0.012057708576321602,
    0.0012736577773466706,
    0.004183783195912838,
    -0.0024686441756784916,
    -2.9697730496991426e-06,
    0.0042366208508610725,
    -0.0007308443309739232,
    0.003165791742503643,
    0.007439611945301294,
    -0.009117328561842442,
    0.0015803249552845955,
    0.0040308148600161076,
    0.00125277996994555,
    -0.0023129265755414963,
    -0.0007389381062239408,
    0.0022720256820321083,
    -0.02084232307970524,
    -0.1525491178035736,
    0.057720985263586044,
    0.171466663479805,
    3.5501773254509317e-06,
    0.21242910623550415,
    -0.020940015092492104,
    -0.010170448571443558,
    0.025616854429244995,
    0.022679463028907776,
    0.09405971318483353,
    0.028570201247930527,
    -0.10124532878398895,
    -0.17225322127342224,
    -0.14171147346496582,
    0.12567812204360962,
    -0.01100245863199234,
    0.0023655719123780727,
    0.0009587884414941072,
    -0.021460115909576416,
    -1.0055618986370973e-06,
    -0.018523968756198883,
    0.0068551586009562016,
    0.0047688852064311504,
    0.025923483073711395,
    -0.007130814716219902,
    -0.010767027735710144,
    0.019889598712325096,
    0.0025737122632563114,
    0.015220774337649345,
    0.006151152774691582,
    -0.0026190918870270252,
    -0.0586315281689167,
    -0.04647023230791092,
    -0.08581974357366562,
    0.04383023828268051,
    -7.3502901614119764e-06,
    -0.046591971069574356,
    -0.02098497375845909,
    -0.0005883941194042563,
    0.0957246944308281,
    0.058547455817461014,
    0.03888552263379097,
    0.06213662773370743,
    -0.08261312544345856,
    0.0622183233499527,
    -0.043533600866794586,
    0.04777972027659416,
    -0.41279566287994385,
    -0.4142870306968689,
    -0.5654757618904114,
    -0.34147730469703674,
    -6.808515081502264e-06,
    -0.20462282001972198,
    -0.36001813411712646,
    0.18460676074028015,
    0.2554897367954254,
    0.12914542853832245,
    -0.024780986830592155,
    0.23630426824092865,
    -0.4254763722419739,
    0.11841434240341187,
    -0.14835909008979797,
    0.3957693576812744,
    0.5447891354560852,
    -0.07393115758895874,
    0.6793901920318604,
    -0.348869651556015,
    -3.6539128700496804e-07,
    0.4257728159427643,
    -0.24449026584625244,
    0.17853203415870667,
    0.01850546896457672,
    -0.2355719357728958,
    -0.5262925624847412,
    -0.16192017495632172,
    0.4434739053249359,
    -0.28182247281074524,
    -0.2257920652627945,
    -0.011119347997009754,
    0.04061385616660118,
    0.05675998330116272,
    -0.04536409303545952,
    0.05607128515839577,
    -5.4675938372383825e-06,
    -0.03395839035511017,
    0.013509562239050865,
    -0.029923532158136368,
    -0.05043407902121544,
    0.060346197336912155,
    0.035767506808042526,
    -0.03946978598833084,
    0.035977575927972794,
    0.03929213806986809,
    0.03315136954188347,
    -0.05652478709816933,
    0.09308408945798874,
    -0.10838830471038818,
    -0.08343775570392609,
    -0.09069979935884476,
    -1.10488326754421e-05,
    -0.03351280465722084,
    -0.15373606979846954,
    0.06443792581558228,
    0.005486517213284969,
    0.014812207780778408,
    -0.12909328937530518,
    -0.004314803052693605,
    -0.038619618862867355,
    0.035290129482746124,
    -0.1462409645318985,
    0.03754246234893799,
    0.2854941487312317,
    -0.26477426290512085,
    0.08394060283899307,
    -0.4139801263809204,
    -3.613684157244279e-06,
    0.484468549489975,
    0.2307141274213791,
    0.1405651569366455,
    -0.1756010800600052,
    -0.49733278155326843,
    -0.4677968919277191,
    -0.2368350625038147,
    0.06217482313513756,
    -0.25214019417762756,
    0.44601520895957947,
    0.40950343012809753,
    0.12364646792411804,
    -0.12287861108779907,
    -0.34212684631347656,
    -0.14414818584918976,
    -6.236870717657439e-07,
    -0.09593915939331055,
    0.06278471648693085,
    0.008765030652284622,
    -0.04513496160507202,
    -0.1590411216020584,
    -0.2392892986536026,
    -0.06173107028007507,
    -0.03210125118494034,
    0.19184432923793793,
    0.14368052780628204,
    0.10335765033960342,
    0.03000985085964203,
    -0.0019741447176784277,
    -0.00628033559769392,
    -0.04357417672872543,
    -2.547342319303425e-06,
    0.02320718951523304,
    0.061861369758844376,
    0.002892815973609686,
    -0.013669246807694435,
    -0.059275757521390915,
    -0.047482773661613464,
    -0.0006846516043879092,
    0.009032348170876503,
    -0.012720311991870403,
    0.06906332820653915,
    0.027652665972709656,
    -0.07540139555931091,
    0.07794750481843948,
    -0.12434950470924377,
    0.051860664039850235,
    -1.5109994819795247e-06,
    -0.059221573173999786,
    0.04791240394115448,
    -0.02765463851392269,
    -0.14467114210128784,
    0.03561391681432724,
    0.14552660286426544,
    -0.058654800057411194,
    -0.0388282872736454,
    0.011169598437845707,
    0.047108136117458344,
    -0.09082674980163574,
    -0.06944133341312408,
    -0.00017721200129017234,
    0.1332017332315445,
    0.05993695557117462,
    -7.64307060308056e-06,
    -0.03512546420097351,
    0.09428407996892929,
    -0.06287357211112976,
    0.1469288319349289,
    -0.13840258121490479,
    0.008770703338086605,
    0.14572860300540924,
    -0.06405457854270935,
    -0.047271955758333206,
    -0.017865212634205818,
    -0.016907334327697754,
    -0.2051319181919098,
    -0.19890207052230835,
    -0.03625636175274849,
    0.005316401366144419,
    4.758253908221377e-06,
    0.009130523540079594,
    -0.34285879135131836,
    0.06076278164982796,
    0.09401608258485794,
    0.0773254930973053,
    -0.040809597820043564,
    0.09183239191770554,
    -0.2606075704097748,
    -0.08327580243349075,
    -0.4527228772640228,
    0.07515283674001694,
    0.028433015570044518,
    -0.03529173880815506,
    0.011414294131100178,
    -0.012701093219220638,
    -5.249071364232805e-07,
    0.029649484902620316,
    -0.015665601938962936,
    -0.004229280631989241,
    0.019359340891242027,
    -0.01963604986667633,
    -0.03637251630425453,
    0.02317122370004654,
    -0.008559664711356163,
    -0.03357686474919319,
    -0.04423893243074417,
    0.028020458295941353,
    0.04412243887782097,
    0.14541393518447876,
    -0.06589486449956894,
    0.06693781167268753,
    -1.485377538301691e-06,
    -0.10287176072597504,
    0.05435550957918167,
    -0.054636869579553604,
    -0.07473181933164597,
    0.06217852607369423,
    0.027708720415830612,
    -0.06905201822519302,
    0.11888842284679413,
    0.10941910743713379,
    0.1250384896993637,
    -0.14731253683567047,
    0.07887857407331467,
    0.1427980363368988,
    -0.10588027536869049,
    0.07641991227865219,
    -1.3933261016063625e-06,
    -0.11616554856300354,
    0.037938620895147324,
    -0.04561249166727066,
    -0.11375721544027328,
    0.08895445615053177,
    0.023140868172049522,
    -0.09960374981164932,
    0.11811576038599014,
    0.10991005599498749,
    0.12571196258068085,
    -0.14211522042751312,
    0.10686102509498596,
    0.005339601077139378,
    0.023896152153611183,
    -0.09162869304418564,
    -7.805281711625867e-06,
    0.02525530382990837,
    -0.08523525297641754,
    0.026227135211229324,
    0.0330810472369194,
    -0.02874751389026642,
    -0.11218568682670593,
    0.022441955283284187,
    0.08189339935779572,
    0.024941489100456238,
    -0.05370113626122475,
    -0.033909521996974945,
    0.04197700694203377,
    0.054199691861867905,
    -0.05180585756897926,
    0.08935753256082535,
    1.0623942898746463e-06,
    -0.05933293327689171,
    0.008445575833320618,
    -0.025690345093607903,
    -0.0840616300702095,
    0.07686077058315277,
    0.04966965690255165,
    -0.07890505343675613,
    0.029262803494930267,
    0.04271269962191582,
    0.022548608481884003,
    -0.06649117916822433,
    0.0654018297791481,
    -0.02398763597011566,
    0.13135027885437012,
    -0.0372854545712471,
    6.384261723724194e-07,
    0.08270283788442612,
    -0.07109180837869644,
    0.023050162941217422,
    0.06352712213993073,
    -0.02114296890795231,
    -0.11045434325933456,
    0.026006555184721947,
    0.03406956419348717,
    -0.0504784993827343,
    -0.051867224276065826,
    0.03608221188187599,
    -0.1987524777650833,
    0.10143565386533737,
    -0.26257428526878357,
    -0.026803895831108093,
    2.405428176643909e-07,
    0.2196168303489685,
    0.35844460129737854,
    -0.05145375058054924,
    -0.5628006458282471,
    -0.11948003619909286,
    0.16650022566318512,
    -0.39918264746665955,
    0.1114184707403183,
    -0.2549430727958679,
    0.4563712179660797,
    -0.02922646701335907,
    0.11439891159534454,
    -0.14797349274158478,
    -0.04963570088148117,
    -0.45709049701690674,
    -2.041904508587322e-06,
    -0.41101279854774475,
    -0.4414956271648407,
    0.11641523987054825,
    0.274565190076828,
    0.015772240236401558,
    -0.19091998040676117,
    0.1317172348499298,
    0.010440598241984844,
    0.35186171531677246,
    -0.3973362147808075,
    -0.025944337248802185,
    0.3393552005290985,
    -0.12084260582923889,
    0.5344595909118652,
    0.4223841428756714,
    -2.3904387944639893e-06,
    0.09921523928642273,
    -0.11649690568447113,
    -0.1842874139547348,
    0.21102510392665863,
    0.08973238617181778,
    -0.12784646451473236,
    0.04709312692284584,
    -0.12939801812171936,
    -0.3770368993282318,
    -0.2544657588005066,
    -0.053107261657714844,
    0.009631294757127762,
    -0.010339428670704365,
    -0.002334573771804571,
    -0.010479126125574112,
    5.612391760223545e-06,
    0.03329484909772873,
    -0.017800822854042053,
    0.0025664258282631636,
    -0.010060973465442657,
    0.01298852451145649,
    -0.018588000908493996,
    0.008377269841730595,
    -0.02431432344019413,
    -0.01737345941364765,
    0.014610073529183865,
    0.03057365119457245,
    -0.011260965839028358,
    0.022629423066973686,
    -0.09752207249403,
    0.048010386526584625,
    -2.4302560177602572e-06,
    0.03220682218670845,
    -0.06116916611790657,
    0.012969997711479664,
    -0.12818081676959991,
    0.15654700994491577,
    0.04931754618883133,
    -0.11694958060979843,
    -0.006631353870034218,
    -0.0017059475649148226,
    -0.03734385967254639,
    -0.01598310098052025,
    0.017711089923977852,
    0.1561574935913086,
    -0.17755679786205292,
    0.5490983724594116,
    3.044686764042126e-06,
    -0.09850826859474182,
    0.13690893352031708,
    -0.16995003819465637,
    -0.17375166714191437,
    0.2509274184703827,
    0.40873271226882935,
    -0.1373504400253296,
    -0.004894064739346504,
    -0.08850120007991791,
    0.11305039376020432,
    -0.19121944904327393,
    -0.1223355233669281,
    -0.025290964171290398,
    -0.07200312614440918,
    -0.0010097901104018092,
    2.840950628524297e-06,
    0.06732410192489624,
    -0.07004459202289581,
    0.030630355700850487,
    -0.06269994378089905,
    0.0791565477848053,
    0.09968869388103485,
    -0.02417634427547455,
    -0.05221822112798691,
    -0.02919052727520466,
    -0.05080781877040863,
    0.048922017216682434,
    -0.02613667957484722,
    0.009265118278563023,
    -0.10405247658491135,
    -0.046549227088689804,
    8.689357855473645e-06,
    -0.05266180261969566,
    -0.0656307265162468,
    0.03906746953725815,
    0.01881556585431099,
    0.06903226673603058,
    0.029524320736527443,
    0.0014918308006599545,
    -0.03398378565907478,
    0.061959248036146164,
    -0.06666462123394012,
    0.007925140671432018,
    -0.4109736382961273,
    -0.17259818315505981,
    0.793810248374939,
    0.47580447793006897,
    7.341556738538202e-06,
    0.601969838142395,
    -0.11953987181186676,
    -0.0486888587474823,
    0.23026616871356964,
    0.07860690355300903,
    0.25908252596855164,
    0.3065485954284668,
    -0.17971599102020264,
    -0.5038757920265198,
    -0.4340476095676422,
    0.2701762020587921,
    -0.47864586114883423,
    0.1522478312253952,
    0.27562984824180603,
    -0.10563523322343826,
    -4.42451437265845e-07,
    0.09399263560771942,
    0.050944309681653976,
    0.03785489499568939,
    0.1193288192152977,
    -0.05870109796524048,
    0.2558290958404541,
    0.16091664135456085,
    0.06368739902973175,
    -0.06650815904140472,
    0.0028503520879894495,
    -0.03889808431267738,
    0.2191859632730484,
    -0.19568738341331482,
    -0.17514866590499878,
    -0.15651799738407135,
    5.559584678849205e-06,
    0.06918570399284363,
    -0.024944625794887543,
    0.0688442587852478,
    -0.0820242166519165,
    -0.06490690261125565,
    -0.2993176579475403,
    -0.11439771950244904,
    -0.0451168492436409,
    -0.0050615305081009865,
    0.08046454191207886,
    0.10575023293495178,
    -0.030596289783716202,
    -0.10443594306707382,
    -0.00952164176851511,
    0.06622578203678131,
    1.1684529681588174e-06,
    0.16781777143478394,
    0.102345310151577,
    -0.028420021757483482,
    -0.014735524542629719,
    -0.032244473695755005,
    0.057249799370765686,
    0.02396545000374317,
    -0.11903000622987747,
    -0.07408911734819412,
    -0.03379768878221512,
    0.10627610236406326,
    0.11246137320995331,
    -0.03263513743877411,
    0.11876935511827469,
    -0.1268310248851776,
    3.0251462703745347e-06,
    0.07813451439142227,
    -0.14050410687923431,
    0.043787695467472076,
    -0.03510977700352669,
    -0.020834894850850105,
    -0.13972020149230957,
    -0.06960222870111465,
    0.07180935889482498,
    -0.07207667082548141,
    -0.12186704576015472,
    0.004562793765217066,
    0.08325188606977463,
    0.13850626349449158,
    -0.07448538392782211,
    0.15785013139247894,
    -7.823118721717037e-07,
    -0.10968689620494843,
    0.03903468698263168,
    -0.08806733042001724,
    -0.2091503143310547,
    0.13258536159992218,
    0.12019527703523636,
    -0.1694319099187851,
    0.09557589888572693,
    0.08909212052822113,
    0.08335714787244797,
    -0.16389308869838715,
    0.091341033577919,
    0.15294131636619568,
    -0.23091937601566315,
    0.23546476662158966,
    -7.364754310401622e-06,
    -0.20111443102359772,
    0.028532981872558594,
    -0.10885223001241684,
    -0.24451769888401031,
    0.1638513058423996,
    0.10894282162189484,
    -0.194513738155365,
    0.14465592801570892,
    0.06537187099456787,
    0.11062921583652496,
    -0.2467605322599411,
    0.10594582557678223,
    0.0330740362405777,
    -0.18513409793376923,
    0.07716724276542664,
    -9.522455911792349e-06,
    -0.024596767500042915,
    -0.0022165796253830194,
    -0.018721165135502815,
    -0.12538282573223114,
    0.14780594408512115,
    0.06382378190755844,
    -0.12438911199569702,
    0.021556496620178223,
    0.033724475651979446,
    0.015955545008182526,
    -0.03585423529148102,
    -0.06471028178930283,
    -0.015439391136169434,
    -0.11835844069719315,
    0.02150581404566765,
    -6.403633506124606e-06,
    0.06683715432882309,
    -0.020324023440480232,
    0.013940359465777874,
    -0.12623493373394012,
    0.06882023811340332,
    0.06843501329421997,
    -0.10375284403562546,
    -0.04825231805443764,
    -0.05486113205552101,
    0.02924547903239727,
    0.06557055562734604,
    -0.0388886034488678,
    -0.004502667114138603,
    -0.1293087750673294,
    0.033718809485435486,
    -6.643048209298286e-07,
    0.05579308420419693,
    -0.011040912941098213,
    0.0055749500170350075,
    -0.1289866715669632,
    0.0909181609749794,
    0.07830178737640381,
    -0.11251389235258102,
    -0.04176633059978485,
    -0.055849697440862656,
    0.038385968655347824,
    0.04484265670180321,
    0.17529302835464478,
    0.03485120087862015,
    0.07360810041427612,
    -0.1688656359910965,
    1.2201124945931952e-06,
    0.020970521494746208,
    -0.11273536086082458,
    0.03700844943523407,
    -0.11815652251243591,
    -0.010794947855174541,
    -0.23197002708911896,
    -0.1855691373348236,
    0.23198820650577545,
    -0.027871977537870407,
    -0.041648540645837784,
    -0.11436720937490463,
    -0.25534650683403015,
    0.1412346065044403,
    0.23869353532791138,
    -0.08065874129533768,
    5.4297443057294e-06,
    -0.12961672246456146,
    0.145377054810524,
    -0.041015319526195526,
    0.19894355535507202,
    -0.1551162153482437,
    0.06914807856082916,
    0.12459234148263931,
    0.15915443003177643,
    0.06392143666744232,
    0.08267253637313843,
    -0.22082097828388214,
    0.17130813002586365,
    -0.16613538563251495,
    -0.17319715023040771,
    -0.1824067085981369,
    1.1881584214279428e-05,
    -0.2150495946407318,
    -0.25527334213256836,
    0.07374957948923111,
    0.1363854855298996,
    0.029664969071745872,
    -0.132821723818779,
    0.08338580280542374,
    -0.13433194160461426,
    0.21863867342472076,
    -0.22400891780853271,
    0.12143060564994812,
    0.172925665974617,
    0.10757023841142654,
    -0.24712848663330078,
    0.0060373516753315926,
    3.458940227574203e-06,
    -0.09477592259645462,
    -0.07595572620630264,
    0.00024034749367274344,
    -0.3018151521682739,
    0.13459613919258118,
    -0.08855033665895462,
    -0.2768230736255646,
    0.09330420196056366,
    0.09968027472496033,
    0.09065992385149002,
    -0.07736998796463013,
    -0.04062001407146454,
    0.06274659186601639,
    0.004116135649383068,
    -0.3292196989059448,
    1.854332936090941e-06,
    0.04946906119585037,
    0.39356115460395813,
    -0.016622405499219894,
    -0.05511507764458656,
    -0.43570205569267273,
    -0.19263820350170135,
    -0.03041170723736286,
    0.11854739487171173,
    0.0012538385344669223,
    0.40067654848098755,
    -0.01025996170938015,
    0.05992601811885834,
    -0.061075661331415176,
    -0.011371073313057423,
    -0.07556071877479553,
    -1.3147005120117683e-06,
    -0.10437839478254318,
    -0.078160360455513,
    0.016731208190321922,
    0.15054340660572052,
    -0.05315060541033745,
    -0.10216857492923737,
    0.14205756783485413,
    -0.06819373369216919,
    0.08685596287250519,
    -0.041009705513715744,
    0.050203148275613785,
    -0.01023595966398716,
    0.014278173446655273,
    -0.010554630309343338,
    0.009128467179834843,
    -9.532156582281459e-06,
    -0.019463978707790375,
    0.0055023254826664925,
    -0.006171834655106068,
    -0.005060228053480387,
    -0.009056411683559418,
    0.012761391699314117,
    -0.008661594241857529,
    0.011662254109978676,
    0.014966447837650776,
    0.002007738221436739,
    -0.016306456178426743,
    0.14167767763137817,
    -0.2565496563911438,
    0.48263147473335266,
    -0.29019996523857117,
    -5.5475279623351526e-06,
    0.4174177348613739,
    -0.5256524085998535,
    0.18711087107658386,
    0.11666275560855865,
    0.0029908232390880585,
    -0.4351567327976227,
    -0.04070185497403145,
    0.020972708240151405,
    -0.2941724359989166,
    -0.47382208704948425,
    0.20574428141117096,
    0.007455083075910807,
    0.04081006720662117,
    0.0294575784355402,
    0.09514528512954712,
    -7.559715413663071e-06,
    -0.15313127636909485,
    0.04338373243808746,
    -0.04601995274424553,
    0.009609589353203773,
    0.010309909470379353,
    0.036819424480199814,
    0.008624298498034477,
    0.038625914603471756,
    -0.02629464864730835,
    0.013134089298546314,
    -0.10811060667037964,
    0.031398955732584,
    0.0053156279027462006,
    -0.5045462846755981,
    -0.1923447996377945,
    7.264626447067712e-07,
    -0.25799205899238586,
    0.09763692319393158,
    0.038432855159044266,
    -0.222965270280838,
    0.006248283665627241,
    -0.10083194077014923,
    -0.15372329950332642,
    -0.004385433159768581,
    0.29031166434288025,
    0.2912241816520691,
    -0.01784508489072323,
    0.3021296262741089,
    -0.05505729094147682,
    -0.05344991385936737,
    -0.18117959797382355,
    6.469859727076255e-06,
    -0.13252601027488708,
    -0.2823959290981293,
    0.07208766788244247,
    -0.048217616975307465,
    0.1207212284207344,
    -0.16285230219364166,
    -0.10864602774381638,
    0.051729656755924225,
    0.10965405404567719,
    -0.2226971983909607,
    0.044581230729818344,
    0.016499469056725502,
    0.003599267452955246,
    0.012600164860486984,
    0.0051993876695632935,
    9.708049901746563e-07,
    0.011646028608083725,
    0.030334996059536934,
    -0.008919131010770798,
    -0.009670862928032875,
    -0.0002316156169399619,
    0.0023562952410429716,
    0.003504915628582239,
    -0.002342016203328967,
    0.0006713733309879899,
    0.006243858952075243,
    0.0030370994936674833,
    0.22183586657047272,
    -0.0878230556845665,
    -0.15004415810108185,
    -0.08126133680343628,
    5.968803179712268e-06,
    0.3217100203037262,
    0.21808822453022003,
    -0.015698017552495003,
    -0.34212562441825867,
    -0.24498999118804932,
    -0.31044813990592957,
    -0.3215683400630951,
    0.08208921551704407,
    -0.2865559160709381,
    0.3343437612056732,
    0.19672130048274994,
    0.5904987454414368,
    -0.5315274000167847,
    -0.5541941523551941,
    -0.5372582674026489,
    1.8230201703772764e-06,
    -0.5824747085571289,
    -0.46169883012771606,
    0.18409131467342377,
    0.408100426197052,
    -0.09066417068243027,
    -0.8158716559410095,
    0.22143793106079102,
    -0.22882407903671265,
    0.4933473765850067,
    -0.2144404947757721,
    0.23184576630592346,
    0.058657534420490265,
    -0.07131674885749817,
    -0.10320430994033813,
    -0.09943892061710358,
    8.757850196161598e-07,
    0.026094848290085793,
    0.021800890564918518,
    0.01929931715130806,
    -0.11293918639421463,
    -0.1373281478881836,
    -0.13991042971611023,
    -0.10679270327091217,
    0.020711418241262436,
    -0.030459249392151833,
    0.07356857508420944,
    0.05350697413086891,
    -0.021359261125326157,
    -0.017768245190382004,
    -0.0050687026232481,
    -0.08729976415634155,
    -7.361763323388004e-07,
    -0.058203939348459244,
    -0.03317209705710411,
    0.00970262847840786,
    0.07974336296319962,
    -0.026169240474700928,
    -0.04621212184429169,
    0.05390647053718567,
    0.004082345403730869,
    0.08070475608110428,
    -0.002824991475790739,
    -0.00935063511133194,
    -0.14885468780994415,
    0.03600619360804558,
    -0.030228257179260254,
    0.2053132951259613,
    8.855771739035845e-06,
    0.12525583803653717,
    -0.10016839951276779,
    -0.05690665915608406,
    -0.16745299100875854,
    0.18608038127422333,
    0.24460802972316742,
    -0.08407305926084518,
    -0.06741374731063843,
    -0.11788787692785263,
    -0.1072668582201004,
    -0.031152920797467232,
    0.01916317827999592,
    1.118983507156372,
    -0.31694743037223816,
    0.4094572365283966,
    3.6351709695736645e-06,
    -0.9207691550254822,
    0.8056719899177551,
    -0.2683145999908447,
    -0.3235139548778534,
    0.24015440046787262,
    0.6871601939201355,
    -0.13813847303390503,
    0.7368496060371399,
    0.7766507863998413,
    0.7841672301292419,
    -1.0244942903518677,
    -0.034697696566581726,
    -0.010956262238323689,
    -0.03180209919810295,
    -0.003661018330603838,
    3.4333277199039003e-06,
    0.028318092226982117,
    -0.020579276606440544,
    0.016566723585128784,
    -0.031362999230623245,
    0.046983882784843445,
    0.028663091361522675,
    -0.0070463852025568485,
    -0.01818062737584114,
    0.008234075270593166,
    -0.02009422890841961,
    0.042191971093416214,
    0.022574245929718018,
    -0.028153780847787857,
    -0.04762524366378784,
    0.009225033223628998,
    2.4626324375276454e-06,
    0.17198322713375092,
    0.014738885685801506,
    -0.011114755645394325,
    -0.1455991417169571,
    -0.03690021112561226,
    0.04551437869668007,
    -0.10340310633182526,
    -0.06711719185113907,
    -0.09001677483320236,
    0.11972182244062424,
    0.11568350344896317,
    0.027440523728728294,
    0.04327021539211273,
    -0.08167985826730728,
    0.0732913687825203,
    3.4218945188513317e-07,
    0.021169019863009453,
    -0.015824753791093826,
    -0.027285249903798103,
    -0.14690780639648438,
    0.04459526017308235,
    0.06433858722448349,
    -0.06190104782581329,
    0.007991854101419449,
    0.012940055690705776,
    0.007498196791857481,
    0.004710494540631771,
    0.013984659686684608,
    -0.031243542209267616,
    -0.005316944792866707,
    -0.027292877435684204,
    4.916374791719136e-07,
    0.0010974721517413855,
    -0.0147338742390275,
    0.00962989404797554,
