{
  "gc1.weight": [
    -0.05313339312589669,
    0.06883952124058948,
    0.05481279699491469,
    -0.23103902094435336,
    -1.0727499516633143e-07,
    -0.22395493357267246,
    0.09234229322779221,
    0.042331864370962625,
    0.13937969008113263,
    -0.14502445501643213,
    -0.10315250793034327,
    0.16888516622459604,
    0.06831642112975787,
    0.24880820683525573,
    0.05706791420642884,
    -0.1589120957541721,
    0.007352930503550491,
    -0.01567502236536199,
    -0.17001760836433938,
    -0.09585031325832764,
    1.8789767421329582e-06,
    0.15538071173773801,
    -0.1577233293784817,
    0.08118237034640187,
    -0.19717477546962106,
    0.0864156043689691,
    0.0060969760801009515,
    -0.1824690597808515,
    0.04715346968152038,
    -0.036792937272981226,
    0.005093000631036584,
    0.07216893521388941,
    0.01658769389875721,
    -0.18809986392742128,
    0.4508335588387582,
    0.00924772584398858,
    -9.728768742631283e-08,
    0.009215140723766427,
    -0.0854712292792596,
    -0.0167861119900501,
    0.6486909414587377,
    -0.331482462704934,
    -0.3104609588564424,
    0.5525204176267066,
    -0.2633064423456679,
    0.13659142202099653,
    -0.2508744139782864,
    0.16093265036528862,
    -0.5082319123514744,
    0.09172882101376123,
    -0.1578980673288119,
    0.22948297600257966,
    -4.151024834928815e-06,
    0.37408066066166157,
    -0.12426621766853863,
    0.10545818573245945,
    -0.3771767591722123,
    0.6074282795620839,
    0.6449930302394207,
    -0.3128793145833684,
    -0.022868285143488817,
    -0.26941428596065764,
    -0.06608199937756533,
    0.07398246982913993,
    0.5902233532876212,
    -0.7292556514678371,
    -0.8776901423134075,
    -1.0935390135811314,
    2.739178107109479e-06,
    -1.1327974534349716,
    -0.8582185150651682,
    0.5272166683382296,
    1.5010531559558684,
    -0.09024506463664533,
    -1.1390237060761623,
    1.1063709352040687,
    -0.6481519581146605,
    1.6968523022831683,
    -0.704548312746118,
    0.5285920133091275,
    0.06798615361879588,
    0.04818592617244075,
    -0.09220100877307855,
    0.0854297378699748,
    -5.2015318926389036e-06,
    0.0072923761430972464,
    -0.022621825154443904,
    -0.011527829773540568,
    -0.097522835351803,
    0.13814031808221333,
    0.03951558973654184,
    -0.09553814132991773,
    0.022006191976153614,
    0.011714892359859464,
    0.010122908115366635,
    -0.0377150666480934,
    0.15244753078016446,
    -0.06118570548343971,
    -0.07300241512525119,
    -0.0766403883726028,
    -3.8175092849000535e-06,
    0.0921757311955873,
    0.14066710680975295,
    -0.011958817373469202,
    -0.14588088499925933,
    -0.15162307718264406,
    -0.15827947364900097,
    -0.11897819058899838,
    0.002398193225201606,
    -0.0822718864354244,
    0.26478536341930853,
    0.06431369376851342,
    -0.11138442950869447,
    -0.10463274328041629,
    -0.2869028341428332,
    -0.07174389200928588,
    1.4064261425611105e-07,
    0.2710217314072185,
    0.0373040070161722,
    0.0754130563369606,
    -0.3350259713571219,
    0.13343486208608732,
    0.1736033142182412,
    -0.2467583952445903,
    -0.07538998875821838,
    -0.09068280169565408,
    0.14281941625533506,
    0.2508017709890585,
    0.3758409656957551,
    0.18498097358307963,
    -0.5495592028507185,
    0.16512688170919346,
    1.112221750810671e-05,
    -0.4212322382002165,
    -0.08407937714902472,
    -0.06956276298226681,
    -0.209811942554361,
    0.32325570628564076,
    0.031819616878845165,
    -0.19887075096504642,
    0.05117007966331038,
    0.38392426240326705,
    0.03999014132425776,
    -0.15472407387527123,
    0.03295318075368185,
    0.04150908626151159,
    -0.054244277015438325,
    0.05283279747366149,
    -2.260251203390432e-06,
    -0.03699700754245275,
    0.03088985461876701,
    -0.03221642620484945,
    0.002997436564154209,
    0.012547111654253821,
    0.0042051296194419545,
    0.00472620002755016,
    0.01788812348705394,
    0.04462706889034396,
    0.042537241779931775,
    -0.04311304107644819,
    0.07795373415995156,
    0.08561273715435959,
    -0.21334068580828364,
    0.13238012468102692,
    4.609153999736205e-06,
    -0.030450807627249044,
    -0.011294636147937468,
    -0.02534343356289269,
    -0.24727681223567624,
    0.2417887642588315,
    0.10254537774101286,
    -0.18498558374820845,
    0.015620531030583024,
    0.011201560771824088,
    0.054796502930818385,
    -0.0453177378914428,
    -0.053020341571168514,
    0.067618272253373,
    0.05480938083812485,
    -0.09557059452968847,
    2.1539703479943287e-06,
    -0.06138506512128546,
    0.03418444668542827,
    0.003343747120043155,
    0.10305788282293107,
    -0.05095524471115307,
    -0.019984271531443887,
    0.10119497553227698,
    0.031464630753803326,
    0.1602415495647162,
    0.08004066491046015,
    -0.05858945485260572,
    0.2500341554810476,
    0.018419033253214867,
    0.1300116183627656,
    -0.10928692009641625,
    -5.658755617275769e-07,
    -0.0025343815841901724,
    0.06757061003469342,
    0.04015240530016741,
    0.09510159036860054,
    -0.10173187493050656,
    -0.16609168234982194,
    0.0021377880035636605,
    0.16344993502452101,
    0.09267004461178059,
    0.0767159202196747,
    -0.07748945290995012,
    0.03173967460287564,
    0.09580610714614719,
    -0.24831055217897335,
    0.17095341229639446,
    8.112063735440819e-06,
    0.05528045253239427,
    -0.057900159789880216,
    -0.02328940166419192,
    -0.3074393788751069,
    0.22814766942132306,
    0.1841792696046323,
    -0.2679611086035806,
    0.011315113489138521,
    -0.025951059789687564,
    0.030347725030169557,
    0.0144527737909558,
    -0.11573470621468596,
    0.014477870288013688,
    0.03294100024201907,
    -0.031950249946715324,
    -5.4676442427014315e-06,
    0.01755969859197947,
    -0.009548831234076523,
    -0.0009693525519843194,
    0.022496766226604615,
    -0.03434979083180647,
    0.06223342030241342,
    0.039221986979470394,
    -0.009635300411817219,
    -0.01141871535544276,
    -0.022451348131729033,
    -0.02653587970679652,
    -0.015683859873098525,
    -0.00014504931737552515,
    0.050102049561106844,
    0.005610478385381627,
    5.705903461961931e-07,
    0.023314432669000722,
    0.02189841672519839,
    -0.01019586080273846,
    0.034374387613298474,
    -0.0318862082624561,
    0.0033700028395454162,
    0.047604794626800014,
    -0.005688237028927765,
    -0.0016680147969443631,
    0.00457154818654402,
    0.009380917716723558,
    -0.20374294765340362,
    0.17453044245743657,
    0.2787058472262664,
    -0.1733252527161929,
    8.283383466354724e-06,
    -0.048126575528566674,
    0.1724928941563816,
    0.018268198515253447,
    0.2038154066676823,
    -0.21061474413331466,
    0.022718772220319945,
    0.18619888695467385,
    0.14216795428198636,
    0.105706780835256,
    0.18491238719042435,
    -0.061700643512706134,
    0.01502728988822247,
    0.007109820064758931,
    -0.02282730471366203,
    0.0033076266868298813,
    8.60958421545314e-06,
    -0.011069090025010532,
    0.00523818163904847,
    -0.002963870617365585,
    -0.028783632580724607,
    -0.017085380117154134,
    -0.009619660536900417,
    -0.01013610711611236,
    0.005584994239535883,
    0.006249268077604763,
    0.0189357691065723,
    -0.0016376098317769715,
    0.13773046471899028,
    0.007248652520697505,
    0.052072383914554286,
    -0.11583274730496275,
    4.170343389092389e-06,
    -0.040349236588282766,
    0.12050416494746917,
    0.06666885973727525,
    -0.1533846532445835,
    -0.20260934708155529,
    -0.12441350992644383,
    -0.14701898955859588,
    0.2500792691900106,
    -0.03969116479912038,
    0.26138340696274576,
    -0.14330613040838636,
    0.3119127007070108,
    1.4275289251916268,
    -1.4525425669208452,
    1.040545218122395,
    -2.5817524270486594e-06,
    -1.1104760573076662,
    1.5241321217003794,
    -0.43524790757826415,
    -1.5934080041765895,
    0.7465358384626647,
    1.1012566504700603,
    -1.305183509731224,
    1.1888966022792162,
    0.8910722618275441,
    1.7944488914094718,
    -1.2440104042643179,
    -0.003372721509095875,
    0.01723376992582558,
    0.004936528562403695,
    0.0034575732985053526,
    7.659533254727558e-06,
    -0.005670674241287712,
    0.003233768525625448,
    -0.0008398529093798189,
    -0.0003576744456169221,
    -0.0008982493780508571,
    0.004353615193537934,
    0.0031814668900226172,
    0.005682032704230797,
    0.00641707388342162,
    0.004943697513197188,
    -0.004044358013309724,
    -0.07230446002198015,
    -0.10580504519836423,
    0.031242548527221976,
    0.21466378705280467,
    6.328120106892927e-07,
    0.10446268888295053,
    -0.04538296257277325,
    -0.031742033386588965,
    0.023622887784279786,
    0.043399394020590065,
    0.12932771596859197,
    0.047246588175061374,
    -0.16640278220592458,
    -0.16051748300035037,
    -0.13855863311301647,
    0.07263913864507646,
    0.01527619488338592,
    0.015321541729595255,
    -0.026604869159574832,
    0.007493017080312723,
    -4.758236060689862e-06,
    -0.011428336976984555,
    0.012699691559438484,
    -0.005321251124945554,
    -0.015199723000152078,
    0.024852551817529284,
    0.007986944063060079,
    -0.008950036372699942,
    0.010575421952198006,
    0.008283018504046698,
    0.0005541959738035929,
    -0.02502625516841345,
    0.07145552350115018,
    0.0447202387458598,
    -0.09982628613778805,
    -0.060625516271479496,
    -1.39003167010201e-06,
    -0.05527775478632398,
    0.2125696859740868,
    -0.033637181843007215,
    -0.19102090675765804,
    -0.07469527104410281,
    -0.0755502145762317,
    -0.12310196250523182,
    0.10662143662500324,
    0.01212521195936545,
    0.3341329767990041,
    -0.041294223994344605,
    0.00906257248509388,
    0.01851744048470912,
    -0.010999868201980477,
    0.017954051726500882,
    1.1477750902401623e-06,
    -0.04055293651158917,
    -0.00033806458411464777,
    -0.0024686668513317542,
    -0.0162164321807116,
    0.012237056836132493,
    0.017770904898375007,
    -0.012694254557044293,
    0.01021627338069015,
    0.010959192862387035,
    0.013784497476384041,
    -0.014201729729616832,
    0.3584232848950254,
    -0.2649688188535855,
    0.276877065588202,
    -0.5118767550545026,
    2.3418910901928555e-06,
    0.019875762485047545,
    -0.4190768275499989,
    0.15878798674725572,
    0.3185931285470922,
    -0.12261004308445568,
    -0.5031507117755362,
    0.1296850765596033,
    -0.0114358480328764,
    0.07043450761172428,
    -0.3289881385888695,
    0.2115032009584157,
    -0.1769427520560653,
    -0.10251902828777906,
    0.2691725440144578,
    -0.19284434860293723,
    1.6388439987628828e-07,
    0.11992070687106907,
    -0.0006681983711763776,
    0.05712506220041162,
    0.4333748145028617,
    -0.3449347946870251,
    -0.09815285576871488,
    0.3946317878025916,
    -0.12004092339689275,
    0.017581935135186345,
    -0.12842088632386084,
    0.13698223376465218,
    0.11296845998817324,
    -0.21821615354505886,
    -0.13151955222662773,
    -0.18841150977375454,
    3.865943365616718e-06,
    -0.06913762424131473,
    -0.11478472735756728,
    0.07510742569790925,
    0.23533098715845502,
    -0.06758421851128754,
    -0.23879683021251724,
    0.17860837610100433,
    -0.16838384521718022,
    0.12367587357003124,
    -0.09604344313561146,
    0.14040425425918596,
    -0.0803517799430537,
    -0.02641158200933835,
    -0.08105442361319425,
    0.028316968510816196,
    8.080861924426225e-06,
    0.01562105257200104,
    -0.06886410752966707,
    0.015966703418577897,
    -0.01697997272713133,
    0.08244901585663647,
    0.07876851216743082,
    -0.0367153156075614,
    -0.055231878535961336,
    0.018743797092018972,
    -0.028006637833677323,
    0.03268009366497375,
    0.03187226013816507,
    -0.1564513008567075,
    0.2017434451296828,
    0.37110274729283593,
    1.0265495372668608e-05,
    0.18895246116193407,
    0.06564426696346633,
    -0.12232502011175415,
    0.10216845428350804,
    -0.055112068518190956,
    0.1178641963613989,
    0.1410181566802552,
    -0.19678325036067193,
    -0.16440925364451114,
    -0.112701431177073,
    0.11683132770684253,
    0.20281307207310087,
    -0.02757170939615734,
    0.21996684861707566,
    -0.19199551331815443,
    5.635260754577174e-07,
    0.18104517806849935,
    -0.13251206372592636,
    0.061444549226706204,
    0.04186003255961768,
    -0.10866915600247286,
    -0.22877436795559863,
    -0.015388362598285455,
    0.19806300049207695,
    -0.11708529010712884,
    -0.12394626760410035,
    -0.0016332244028294763,
    0.0013908359897814868,
    0.023414990862661342,
    -0.054670877531798286,
    -0.17030450186673518,
    5.881949857543491e-07,
    -0.20631739309761477,
    -0.039054636742655253,
    0.033467078153249764,
    0.11591960592321819,
    -0.028735236181225064,
    -0.08169091850994421,
    0.13217926087860152,
    0.0056898632444056,
    0.20834655318006842,
    0.02930362288630119,
    -0.011930533386372615,
    0.07718121940681136,
    0.02922672453593036,
    0.058030061081753126,
    -0.01862750635904302,
    -9.951430038150616e-06,
    -0.010309593063045104,
    -0.05749117358319289,
    0.018720752930778527,
    0.008801192551104448,
    -0.009486641440002701,
    -0.02718029803323532,
    -0.06250886653673937,
    0.05344406329267408,
    -0.03830269534167412,
    -0.04519283370611649,
    -0.07390137650470051,
    -0.08178755080846058,
    0.047633696296069644,
    0.17700279687404358,
    -0.08050633368345006,
    1.4523240245652807e-06,
    -0.0056473920671021305,
    0.07584828409718959,
    -0.00419792073004344,
    0.12034330008876903,
    -0.08040418454545924,
    0.00914183882982325,
    0.12199322046423637,
    0.020772500722105118,
    0.014581218105379351,
    0.05749024364693557,
    -0.025451327787791894,
    -0.10042432436864679,
    0.01793363377983657,
    -0.10771524191706348,
    0.024625026960922402,
    -5.744795398447331e-06,
    0.06907209444008831,
    -0.11258154160639765,
    0.023861373425384108,
    -0.08634075505710301,
    0.1233600222711692,
    0.1312309999901353,
    -0.050427081894697516,
    -0.05868027594786425,
    -0.012091339178261364,
    -0.04349385580042019,
    0.03359701668688836,
    0.10307967010477266,
    0.017907556794046302,
    -0.16393551882471036,
    0.04805293860823497,
    -5.940881010397452e-06,
    -0.16039265198210753,
    -0.0368107196078127,
    -0.02148648470576003,
    -0.005829801700220425,
    0.08749405458391588,
    -0.005765256566475894,
    -0.002365928983728342,
    0.015935718812965412,
    0.17339064083246852,
    0.022576906923762248,
    -0.05532660437545604,
    -0.012220411547635621,
    0.029073167399736536,
    -0.014103349262222113,
    0.00011308389150732303,
    -6.63981474475165e-06,
    -0.012562735294644594,
    0.01225552547390663,
    -0.008446184097026185,
    -0.0310078319501953,
    0.08272698498480184,
    0.02382054772148293,
    -0.03286757903051354,
    0.014468269531471569,
    0.0162100214976937,
    0.015644081491733863,
    -0.03965956015822119,
    0.004281393695768458,
    0.016502636236682206,
    -0.014761590087316097,
    0.01923724068712981,
    -8.454016672710857e-07,
    -0.015800374848898787,
    0.04333406968574359,
    -0.010338754399442934,
    0.008605738420963968,
    -0.024024556912651655,
    0.00017174105864006779,
    0.005440787454720177,
    0.00765557596381203,
    -0.001463300700418559,
    0.011248205017686802,
    -0.01620311674383772,
    -0.4116440991859472,
    -0.07022979665029117,
    0.04399368821334269,
    0.19311106784052004,
    5.210316893127619e-06,
    0.20451475023489718,
    -0.06295158012356525,
    -0.029224406545666597,
    -0.06275234643927596,
    0.05103474951106843,
    0.3833030360860221,
    0.03626360230031503,
    -0.1883173440631237,
    -0.20876041903961848,
    -0.1732469161247276,
    0.08672650787816988,
    0.025656399772177207,
    0.021633443612097816,
    0.020614710367939222,
    0.15118431092257478,
    -1.2173932046711193e-05,
    -0.0070268353641418976,
    -0.17252609378839948,
    -0.042884528542981255,
    -0.20308434368027536,
    0.08395294811579757,
    0.010648096200936444,
    -0.17776056721415515,
    -0.0012905209535670297,
    -0.25065974563636106,
    -0.0616079711153136,
    -0.14563551874997552,
    0.3688025007257033,
    -0.3348126046837147,
    -0.5047057140976144,
    -0.1807362558619074,
    -1.2395121726120703e-05,
    -0.2870190433491634,
    -0.41089661280510004,
    0.10384577015611053,
    0.507065490131366,
    0.1708210071483998,
    -0.4193240682607516,
    0.2940525587198315,
    -0.30301373799054787,
    0.721782730370117,
    -0.3220528176995189,
    0.17197651605750097,
    -0.06675280077191884,
    -0.04776026672656135,
    -0.029522115220006032,
    -0.04773631517434138,
    -8.480051698183371e-06,
    -0.09146816160246997,
    0.19612565417362302,
    -0.0178383763087917,
    0.1875755432341918,
    -0.2942456235410411,
    -0.13021811538340403,
    0.18844399331579054,
    -0.01851771909290036,
    0.03018996972718205,
    0.14250955927995737,
    0.07138828975223174,
    0.11070584658765552,
    -0.04072735003127564,
    -0.02815769773273942,
    0.09480069032990478,
    -1.2515554617942028e-06,
    0.08803495812880277,
    0.040550577697266464,
    -0.023044200693219153,
    -0.08863698967670765,
    0.07997627079488905,
    0.017748617578614848,
    -0.07909179605188593,
    -0.09189696126166111,
    -0.03677657023213606,
    -0.0011206644628756568,
    0.046917999842441195,
    0.0015145931144657874,
    0.08439328701519676,
    0.029844001495307717,
    0.027845039695409142,
    4.878563807157916e-07,
    0.021781318691877993,
    0.08168549419611408,
    -0.031243081373477078,
    -0.08591345364115298,
    0.008647016498114035,
    0.005824637502993038,
    -0.08615527153052867,
    0.07475251454326606,
    0.039629376057888736,
    0.0808969366271268,
    -0.0071331845687108,
    -0.05275474046558263,
    -0.1399908463464672,
    -0.08995082364835254,
    -0.3325313520986049,
    1.02427560801956e-05,
    -0.09480084367164199,
    -0.23305818020512295,
    0.1574629660645164,
    0.2045066676578826,
    0.019576579867891547,
    -0.19064611610035007,
    0.17968794535873664,
    -0.07404488920923788,
    0.20470296266164298,
    -0.1967085162046593,
    0.1472024368406215,
    -0.002974619413755285,
    -0.017113422129448545,
    -0.18834881733560038,
    0.14769077552863205,
    3.763587813947073e-06,
    0.013910977286639096,
    0.02478619525839111,
    -0.031549721345425726,
    -0.17890755205943606,
    0.10183858217019447,
    0.12626779475242864,
    -0.11830078107355294,
    -0.014831094219009428,
    0.02572857713173349,
    0.050968869123444886,
    0.04758502365618582,
    0.13217436135280525,
    0.07658890253937821,
    -0.09817892481736935,
    0.046957469426779176,
    -2.952407978140824e-06,
    0.018727681887046366,
    0.09478800694582264,
    -0.033520163963682,
    -0.08467195678111435,
    0.05405163371511426,
    -0.02107696443747875,
    -0.10811777506717313,
    0.031142584716768944,
    0.03704588128782835,
    0.15286385118567233,
    -0.06023792882480309,
    -0.15391939112057162,
    0.039775044769903276,
    0.273188057982414,
    -0.10436158481936658,
    -7.81726518292709e-07,
    0.019743089843936145,
    0.05769691952383748,
    0.0010030500561211784,
    0.1487303124704479,
    -0.1100442801455287,
    -0.006632898585097214,
    0.11786459618188633,
    0.09626195112778084,
    -0.021699782413112913,
    0.06812105033439966,
    -0.034448660328109185,
    0.09017753743985822,
    0.12332342442677621,
    -0.038002792141234906,
    0.009952808825039254,
    2.736397819922639e-06,
    -0.1585270338749751,
    0.02759429213054851,
    -0.090836283586941,
    -0.016872255170892827,
    0.0384983998185122,
    0.013149897458614737,
    -0.02600939185940944,
    0.07552175187127011,
    0.1712945384943023,
    0.09632399530092316,
    -0.19730233657947116,
    0.04093496345281197,
    -0.09002569031918606,
    0.15365287772120312,
    0.3367522801919547,
    1.7830905079143694e-06,
    0.1384357122756764,
    0.06932892371076886,
    -0.10594586128182201,
    0.18585083139257663,
    -0.07216407835986503,
    0.07959581078773856,
    0.10030952238932923,
    -0.1646947446493652,
    -0.16801817422263063,
    -0.1144709005641831,
    0.08998614096765616,
    0.060271016697765745,
    -0.038662161596802615,
    0.13641696521301303,
    -0.009543157138466646,
    3.1757925705280366e-06,
    0.0654041947571789,
    -0.06992130326546515,
    -0.00526167934996573,
    0.0464537201317833,
    -0.03847399145644398,
    -0.054369745219684414,
    0.03508297723883093,
    0.0067487807241786634,
    -0.08185777592634236,
    -0.07138697981783253,
    0.028496425206045742,
    -0.6237875172259154,
    0.42530795576442815,
    0.40784379302185786,
    -0.4142119030566499,
    -5.40090264060419e-06,
    -0.30461703192380835,
    0.35582856916663524,
    0.0024248040755296876,
    0.29900919604755366,
    -0.3531413387621135,
    0.1427410641700116,
    0.3543755128506019,
    0.3559512705323342,
    0.30326885086328426,
    0.3199741545924872,
    -0.3403335592779317,
    0.1467918120855279,
    -0.22446356955338856,
    0.2852365623977409,
    0.5152534837025501,
    1.4782087064826613e-06,
    0.09066339660881244,
    -0.23036998076094112,
    -0.1282487549003966,
    0.36915071961627066,
    0.10082870620880101,
    0.0595455915218562,
    0.3005496054721399,
    -0.38069895224362293,
    -0.13840071950440647,
    -0.5740154235279327,
    0.12779672480271392,
    0.0002452840584539557,
    0.030300294792148165,
    0.056922664173707095,
    0.033198535076454795,
    -4.186452446626661e-06,
    -0.04337339524776065,
    0.01995435642139004,
    -0.030710295206478104,
    0.006645411956339726,
    0.018221283327822618,
    0.03292812280834566,
    -0.006011588642161222,
    0.012826441125722333,
    0.013229180963574418,
    -0.0010795677961220331,
    -0.031045256617777614,
    0.07819678471507188,
    -0.07025254419166974,
    0.3461884945041738,
    -0.15625418852900627,
    4.1507691854705355e-07,
    0.3418988821605242,
    -0.07015284602056385,
    0.051236343964173134,
    0.010294408061877494,
    -0.12377901247464411,
    -0.2913099988644443,
    -0.11142034566565152,
    0.11285645098346202,
    -0.24099650495278768,
    -0.09534288722409513,
    0.11144006933227756,
    -0.11935098775835545,
    0.07156966920835864,
    0.07754687655437395,
    -0.04767290341618676,
    -7.379088776974932e-06,
    0.011352109897887184,
    -0.0014575353828149157,
    0.043551703723870586,
    0.04804576604047244,
    -0.05282524331518309,
    0.015002689259041024,
    0.07269480455244608,
    0.06227736876187571,
    0.024491501539132605,
    0.031182633049705828,
    -0.0450466656518468,
    0.055192563373272746,
    -0.24870552417591887,
    0.33414441305735815,
    0.4475397301786256,
    -5.026745951549233e-06,
    0.2809102157016361,
    0.10744562899859794,
    -0.1659068847243015,
    0.2502085359174806,
    -0.1345134144421433,
    0.04962818418716693,
    0.26366920779227226,
    -0.26186394958574327,
    -0.23570489341187803,
    -0.13935082319077893,
    0.18760826278216206,
    -0.05481288216804445,
    0.10102064011323333,
    -0.18925097964044343,
    -0.12750074684798327,
    2.193567509647941e-06,
    0.018035388401801824,
    0.2799008085796149,
    0.0017558097500140714,
    -0.2653387093684977,
    -0.1399292747312018,
    0.12389467319549703,
    -0.14215230480397786,
    0.06309707973990171,
    0.024291435742433677,
    0.453027049775893,
    0.026601060675081886,
    -0.8872588984243442,
    0.7021819846496791,
    0.5012803362560971,
    -0.5128236100526615,
    -8.565879426297166e-06,
    -0.5567386920474982,
    0.5749872746908898,
    -0.005346298883243671,
    0.499391201082914,
    -0.4522501110643331,
    0.3032964962201923,
    0.5274061748134616,
    0.5741007646665314,
    0.4815648188930907,
    0.4987120379596177,
    -0.7818618034012066,
    -0.11018717637342698,
    -0.04977063276966113,
    -0.028883778227229474,
    0.13473934169005636,
    7.84069404419271e-06,
    0.02182242659878955,
    -0.09540100930673945,
    -0.018839987250672856,
    -0.047980112991483886,
    0.06067143806918602,
    0.1340230935748593,
    -0.02328132824238628,
    -0.09624576272938316,
    -0.09056695273874678,
    -0.11551945143486916,
    0.03208599756701272,
    0.011521821187193162,
    -0.018275684988319416,
    -0.0011203948925621401,
    -0.0019246631241182737,
    -2.9349591840831897e-06,
    -0.016603149593133255,
    -0.017210654577179428,
    0.0008665863368579567,
    0.007913422628514362,
    -0.004746403959824729,
    -0.02134569777175051,
    0.01558965509035929,
    -0.016200288041225284,
    0.01788590475701542,
    -0.0008565456660183231,
    0.008914062556959628,
    -0.11507543535374849,
    0.29930049585729884,
    0.19324281216943381,
    -0.06024911156844619,
    -2.387885728655451e-06,
    -0.21925289892297337,
    0.5876889117025703,
    -0.13035973305011714,
    0.04340942646176938,
    -0.3921501809894415,
    -0.05483614064263209,
    0.1610779512455589,
    0.18102771329735984,
    0.03217602382107123,
    0.5177414861871124,
    -0.2978875046741989,
    -0.16382354684738343,
    0.002166040537639928,
    -0.04148767589567308,
    -0.13305745064713356,
    1.5112778658726903e-07,
    -0.07422073138516887,
    0.14246517427922617,
    0.0027376514382304075,
    0.015750165015250176,
    -0.07460743835255478,
    -0.06748190743017504,
    -0.01258718022964948,
    0.09587480347086248,
    0.005533486736414894,
    0.18288826384452758,
    -0.09470463056970645,
    0.131296186020533,
    -0.09069366999524146,
    -0.10974623779680179,
    -0.0756767154636049,
    4.668352246303638e-06,
    0.04951542555812827,
    0.21234694297695866,
    -0.021458181673975583,
    -0.10924376584079429,
    -0.21960383009954496,
    -0.18139075005910618,
    -0.12898497824188138,
    0.007818067042786873,
    -0.05522021937732305,
    0.26105195163729256,
    0.13551975671763164,
    -0.2530535453295265,
    -0.09580752285825174,
    0.25683776663232155,
    0.11934856165205997,
    -7.782113895635467e-07,
    0.27419425275714926,
    -0.11429590023030854,
    -0.03776255042214618,
    0.08397726681245074,
    -0.03363126192460129,
    0.09708773929218692,
    0.06964187206333448,
    -0.1756091890378651,
    -0.3240459675204889,
    -0.20892554716054376,
    0.09820848389624565,
    0.015454088508953634,
    0.20701188483716534,
    -0.14347879514122633,
    0.313275589298304,
    -1.192380094824253e-07,
    -0.03480470048403369,
    0.11703214393791699,
    -0.13759232485371856,
    -0.42274748890574076,
    0.11263949257864177,
    0.2611050798380685,
    -0.40851439368329145,
    0.1606525536694432,
    -0.2678409049174072,
    0.2486568506290525,
    -0.2472962503111132,
    0.06637731372459747,
    0.040586466701291,
    -0.018899492096364014,
    0.19463176557107342,
    2.708542816694863e-06,
    -0.018611887179727626,
    0.06460737255438707,
    -0.07405692243325301,
    -0.005161152141925242,
    0.08238284476868955,
    0.13292292851221552,
    -0.001873673419286495,
    -0.04036839356912348,
    -0.06678489683941337,
    0.00979176828825808,
    -0.1018815211444933,
    -0.07620898833707171,
    0.07781954145185034,
    0.040436113460903526,
    -0.18375078576108314,
    2.931809495155007e-07,
    -0.16692244411346302,
    0.03846999737172065,
    0.03693341866417269,
    0.05999370674907233,
    -0.12079795093948105,
    -0.009196792060833759,
    0.08094404350326528,
    0.11034104157356751,
    0.11512181808718629,
    -0.011983929935134585,
    -0.14210626142059443,
    -0.029897208575367065,
    -0.03958775939971601,
    -0.003213407954989502,
    -0.0454561495146147,
    1.097299799985962e-05,
    -0.003248953125981587,
    -0.021197998631968584,
    0.01768433087523816,
    0.04020389758239497,
    0.0015287278987115027,
    -0.040305155691154095,
    0.05458476119173286,
    -0.022118152225511164,
    0.02983996156694337,
    -0.010376281420157864,
    0.03080237142863285,
    0.08356603825592666,
    -0.02910810321100271,
    0.08567902891866992,
    -0.10621967302774651,
    1.0549659744853015e-06,
    0.10184768028125639,
    -0.15751706978206004,
    0.044195234723549026,
    -0.06084974779991693,
    0.003396387258566295,
    -0.111301251209486,
    -0.04719286579929106,
    0.020066809608967978,
    -0.06518618115907245,
    -0.044757606610521396,
    -0.009668414921201613,
    0.16290723847442345,
    -0.13581285686481176,
    0.3215623973889649,
    -0.04338470062327577,
    -8.700715919468673e-06,
    0.21389399682093702,
    -0.22790291145889813,
    0.011217422343232857,
    0.08495172665358744,
    -0.07395250535754369,
    -0.24015642302740114,
    0.02136241086929758,
    -0.0033949350666783347,
    -0.2525743274498908,
    -0.26213317979046774,
    0.075823784200805,
    0.041615553598110436,
    -0.05160689450467052,
    -0.0022153029906662866,
    0.031048479369680762,
    1.7212134036393607e-06,
    -0.006496661751874285,
    -0.03690533829376782,
    0.0057935373375191815,
    0.060310870981004,
    0.007726832175413717,
    -0.03424408276377436,
    0.03751919244072483,
    -0.05627490370414719,
    0.03704344324674735,
    -0.05091873189644111,
    0.0031844141957880177,
    0.07899497130123297,
    0.12984337279565042,
    -0.13076144099461198,
    0.14264294897078642,
    1.0198393430153515e-05,
    -0.12513917281643888,
    0.03377439992500693,
    -0.041152620498623414,
    -0.11919279653244381,
    0.141954727369219,
    0.09648919867495652,
    -0.10804596790998366,
    0.07174024028154964,
    0.08357690675822559,
    0.07419127501976656,
    -0.12123190648694683,
    0.05142439407113484,
    0.07689945326000193,
    -0.10552366673755442,
    0.13384642302064398,
    -7.608672299091217e-07,
    -0.08620847274134645,
    0.01746273617324248,
    -0.043768610969241714,
    -0.14799491948720384,
    0.10986893280138411,
    0.10990662436838156,
    -0.1365986497670527,
    0.04700137089891227,
    0.056539505139199885,
    0.038600847477663035,
    -0.08994912646788907,
    -0.04280072127424576,
    -0.002762844604184245,
    -0.05369640210296301,
    0.00240744061619486,
    -1.8489336350803075e-07,
    0.026745810694834123,
    -0.020749190342868602,
    0.008912370524768991,
    -0.03400176609131539,
    0.03158864183585482,
    0.015645038675663813,
    -0.02108939092391697,
    -0.006729266098742939,
    0.0028889120338175213,
    -0.0036908531579080113,
    0.015356442113535563,
    0.048226444678205804,
    0.059994886610476014,
    -0.10439829323410403,
    0.10718085016879654,
    3.1613409420684714e-06,
    -0.08963191398810295,
    0.00575407469640702,
    -0.03929754859461459,
    -0.1493116539191958,
    0.08821434959456755,
    0.10763682763275559,
    -0.1520034727200411,
    0.0236991587382617,
    0.03595898136490481,
    0.02682968297274765,
    -0.11198091913904687,
    0.010274308544967968,
    0.013703815689527938,
    -0.0035379256674019583,
    0.0028051389697249574,
    9.850781481139285e-06,
    -0.006756543135622168,
    0.009369517698692181,
    -0.004074555889978396,
    -0.011096383022727621,
    0.013774407688297699,
    0.0035558946404085916,
    -0.006242693506346285,
    -0.0028962058207930835,
    0.009407465509570728,
    0.008432474574769325,
    -0.019130983777866192,
    -0.9163415079563991,
    0.5964894158248571,
    0.8287384909071243,
    -0.852805294139481,
    -1.2388075912627405e-06,
    -0.3017806674664079,
    0.5649586186381285,
    0.05687955535757069,
    0.8127804721846209,
    -0.887096272929665,
    0.09625241939094042,
    0.7558332441574857,
    0.5105987759795174,
    0.44392740472070363,
    0.48571155792878995,
    -0.4363346646002628,
    0.0691255895309222,
    -0.08112836284645172,
    -0.1740772603582598,
    -0.44118990668240327,
    7.301005477066867e-07,
    -0.2981287733706657,
    -0.2573142100042672,
    0.18260122653933406,
    0.488291071796699,
    -0.030461525447393858,
    -0.38756822280040665,
    0.39137031300347613,
    -0.0943313300810079,
    0.5847739914367056,
    -0.0906105619634514,
    0.0993590704318913,
    -0.0006357572287784557,
    0.013646442020550991,
    -0.05939636491513248,
    0.02842018613612734,
    1.4152366581200343e-06,
    0.008083963304877383,
    0.025357109555761866,
    -0.014571320995467076,
    -0.028105591419478288,
    0.009099771646512376,
    0.03152893858763052,
    -0.0502963307310901,
    -0.0026095157695385364,
    -0.026931275659000668,
    -0.009321280767993377,
    -0.01352651804043398,
    -0.21673618284156715,
    -0.09989724567326301,
    -0.09410311431631323,
    0.02390942050692005,
    -8.74360128673467e-06,
    0.22569755359297583,
    -0.09993771456571937,
    0.05139094974949669,
    -0.09439064325289352,
    0.07324237262086378,
    0.1655448146614194,
    -0.06841673204594019,
    -0.12776881699814144,
    -0.16212128035852322,
    -0.08688788477592964,
    0.17578847668768705,
    0.2250842469655096,
    -0.09848253205162644,
    0.20109547010199505,
    -0.3926890011049196,
    4.3936893175269494e-06,
    0.18369439142963606,
    -0.45666712914938723,
    0.19217598250427934,
    -0.14436737388246892,
    0.0658054517573095,
    -0.4741390325118078,
    -0.2739872469716987,
    0.1418253303170112,
    -0.1420619414089297,
    -0.34383538858943985,
    0.06244865251204626,
    -0.3163341307759456,
    -0.12297863219605099,
    -0.1290081856164126,
    -0.2803890653567183,
    -3.0906833535782483e-07,
    0.008812857363711185,
    -0.25242287328517526,
    0.20247633499689185,
    0.14127820978243855,
    0.036877048715466446,
    0.012359777026853853,
    0.1594048083934545,
    -0.12321605286205342,
    0.11119442649066469,
    -0.19827402554397333,
    0.19531646537536837,
    0.11550316053193133,
    -0.06954987771281541,
    0.08049233144326377,
    0.006061996530488305,
    2.7649723713196025e-06,
    0.048345922578420346,
    -0.15323512969577727,
    0.05663312015341943,
    0.15746183945625813,
    -0.05162263303175839,
    -0.13805940177789433,
    0.13777555376330924,
    -0.13105541166826665,
    0.053140382444674714,
    -0.18927965418013926,
    0.06658407464381397,
    0.010341073721020385,
    -0.01702332575320891,
    0.00993870851796987,
    0.006530184545287609,
    9.24629237083257e-06,
    0.020515890804472334,
    -0.0017781887675762968,
    -0.017652672427057023,
    0.037574539558047834,
    -0.021045512053452346,
    -0.00023140345863681844,
    0.025969167574368183,
    -0.016685633704199704,
    -0.014541480805221066,
    0.0003119774102793664,
    0.009223369403613138,
    0.38926146928283417,
    0.7820544954442165,
    -0.9109291398777852,
    0.9760947669527549,
    -4.2787894339999534e-06,
    -0.5174849132343199,
    0.2799612627691113,
    -0.2379029048688703,
    -0.9551481039075151,
    1.0981536866145623,
    0.8185365577725844,
    -0.8042589265513911,
    0.3842018766156154,
    0.3800312343905943,
    0.4730295716302283,
    -0.609287231449843,
    -0.03475672207782385,
    0.08208769798080176,
    -0.004817205848134964,
    -0.051745195867934,
    9.047146141010902e-06,
    0.08972113265370071,
    -0.06658104568037904,
    0.024784718884046753,
    -0.2310013960768047,
    0.08250114290274249,
    0.021560226211400246,
    -0.23599467465844898,
    0.14058584031121066,
    -0.10299360786601386,
    0.06765664191039253,
    -0.0807062722774289,
    0.01366009092632868,
    -0.1322560503117325,
    -0.4085705904952949,
    0.0362579503266003,
    2.1906804650353819e-07,
    -0.1655202794076263,
    -0.23602120846585717,
    0.023020973238401368,
    -0.048642856610691024,
    0.30067208057206746,
    0.08571446671264552,
    -0.03844059159321356,
    -0.18668395616005257,
    0.16419217297847852,
    -0.19084184960418266,
    0.014586574777296869,
    0.24527020331580215,
    0.6986344106674377,
    -0.3398438668907653,
    0.5417336563225458,
    2.771169248461506e-08,
    -0.5287645335925448,
    0.4485264445221633,
    -0.23712997726417867,
    -0.3212032226091461,
    0.4281097481167064,
    0.5400793409615031,
    -0.2493391455135858,
    0.4666221651684675,
    0.4666345877282309,
    0.4341553569502551,
    -0.6248009011947984,
    0.21866808199266471,
    -0.18622751160107057,
    0.08950113682408369,
    0.3954257857560609,
    4.277487594080251e-06,
    0.03961483210837577,
    0.22154801195925183,
    -0.17651972551155765,
    0.10885798445519558,
    -0.10496955803440021,
    -0.022563388473727276,
    0.12763894328749134,
    -0.2389782884913796,
    -0.1286425706866253,
    -0.08579751307491068,
    0.015930272538022924,
    0.029119811094268408,
    0.05375346069537807,
    -0.06133889104737619,
    0.07039803375085918,
    -8.209033237455969e-06,
    -0.029158706986312143,
    0.0062546694974127525,
    -0.016954050597167033,
    -0.06247099284050541,
    0.10162791376847728,
    0.046580246974946664,
    -0.06694854114583643,
    0.013191011525830632,
    0.04389418997716216,
    0.03088503992162383,
    -0.05032149452352833,
    0.03698694740526474,
    -0.02326826321294072,
    0.02141798385720495,
    0.035464768510096646,
    5.783456054779087e-06,
    0.010222486553124677,
    0.007813073939845486,
    -0.019740684235644738,
    0.031225080405594775,
    0.0035785794581405686,
    -0.01047239112824816,
    0.01054236887227787,
    -0.02270642741435131,
    -0.030935844757262815,
    -0.034801548977894385,
    0.011773600133808201,
    0.10290234910090093,
    -0.12933705546602103,
    -0.18442376508253,
    -0.3057330596214982,
    -1.7145916712583832e-06,
    -0.04075379911694583,
    -0.009671357970451705,
    0.0717558337374729,
    -0.008461078887484551,
    -0.1547916012218284,
    -0.22939257553047357,
    -0.008716298686113618,
    -0.033765005767628246,
    0.10951915368966537,
    0.10895425767039929,
    0.1169995580895261,
    0.22568774415053122,
    -0.22341680581532172,
    -0.3466651443057454,
    -0.5230111541505897,
    -1.2200034784606825e-06,
    0.09602580309807032,
    -0.2639892452745901,
    0.18377527880459535,
    -0.2951111751977858,
    -0.004864437059948332,
    -0.4150630518934484,
    -0.2826875993694618,
    -0.05504500569913005,
    0.04503554240872856,
    0.056283007231271144,
    0.2828242422681534,
    -0.1797484985004387,
    -0.09489864623543232,
    0.06295376584647987,
    -0.18845595515481434,
    -3.4756351219050217e-06,
    0.08255754520827369,
    -0.12699812184461473,
    0.049435219713557126,
    -0.022007444539750183,
    0.03385080046588217,
    -0.03559780998355383,
    0.017659849474096958,
    -0.029142752575383676,
    -0.07749104857491755,
    -0.11190516353354037,
    0.08173181520098313,
    -0.0805903457181255,
    0.0767425290798475,
    0.09638140529155322,
    -0.12445415268489293,
    2.2569988857261624e-06,
    -0.036749632645233135,
    0.05717108242524787,
    0.014158349587597483,
    0.10398091003502959,
    -0.1305175273620772,
    0.032061874416764,
    0.08386548832227078,
    0.06318627557801133,
    0.06972987399321735,
    0.10923710093779429,
    -0.09503937725860248,
    -0.4811889743192691,
    0.07842225976449947,
    0.6341987885728076,
    0.15052237063484686,
    -9.446217138934459e-07,
    0.11960010776872869,
    0.3972826484359321,
    -0.08707001979127373,
    0.5812350149278207,
    -0.31913692270852295,
    0.14356707276224207,
    0.5136029519419153,
    0.04151876699443857,
    -0.09158436526042525,
    0.0853559207989452,
    -0.15679532818718805,
    -0.4805648431021856,
    0.25276844754961697,
    0.39224222613493204,
    -0.14933157262964405,
    -3.7976691993759097e-06,
    -0.030161408880566214,
    0.30473531362256656,
    -0.06480505227714736,
    0.08832132185631787,
    -0.321830041357291,
    0.15788264037933172,
    0.12609725515859546,
    0.2897537293867349,
    -0.028390334543932645,
    0.2697742915742305,
    -0.38313565726650906,
    0.4302683574609795,
    -0.22306833303180873,
    0.38791058614909785,
    -0.2350489655778032,
    3.2444316299620012e-06,
    0.16907564172353792,
    -0.4484784961248069,
    0.09222298704016779,
    0.1076511950100981,
    -0.0956314863434997,
    -0.5413761021111833,
    -0.00765809666611115,
    0.02284262378000054,
    -0.1865042244641148,
    -0.39263177713559655,
    0.08702912381714877,
    0.08209588950763806,
    -0.845396817918427,
    -0.6462685141301883,
    -0.31827939596412985,
    1.9511641487987796e-06,
    0.8456986308454042,
    0.19849519810861885,
    0.019843622812827335,
    -0.4973031830811056,
    -0.8901816189868242,
    -0.48550699667379993,
    -0.3364711470356044,
    -0.9187755863888618,
    -0.8705215764824444,
    0.4719417252386568,
    1.2876030895794197,
    -0.14945584823859515,
    0.13116765885117834,
    0.07879056893135232,
    -0.05701329170359139,
    -6.555812850288256e-07,
    -0.0616578683068513,
    0.09659965783333228,
    0.004254203434396772,
    -0.02178518996317573,
    -0.05434659704274009,
    0.06721549596064079,
    0.023047240650834504,
    0.13441508136747304,
    0.08389515497411931,
    0.10125304693939267,
    -0.13347202823659807,
    0.0015237654924056543,
    -0.006658096773572228,
    -0.008331419868822899,
    -0.011798345949800412,
    -5.543623889094397e-06,
    0.0025132751903485227,
    0.0033913874030105356,
    0.0008569508208481661,
    -0.006245030734615695,
    -0.014231160653305899,
    -0.012022962205683458,
    -0.0012895736660324935,
    -0.0020970301349345476,
    -0.0072772555231369555,
    0.008171454800567537,
    0.0023267210893482817,
    -0.29266984464069595,
    0.11347965455132013,
    0.3984855948654761,
    -0.29078423604159254,
    -9.887577957902559e-06,
    0.003493362728580704,
    0.13130326650358418,
    0.039300718786867896,
    0.34302777946853236,
    -0.25090471978501755,
    -0.026955792050160975,
    0.2828819973582734,
    0.058600208517850215,
    0.027083261389654775,
    0.03119824899712775,
    -0.03271554775970201,
    0.3522427574209558,
    0.14104507680035425,
    -0.3219212003534075,
    0.5912850690505694,
    1.7346139455655577e-06,
    -0.16469037618366583,
    0.0928460189897604,
    -0.17747938961476822,
    -0.3342137737468777,
    0.362368519561878,
    0.16248697003778653,
    -0.2050358557950852,
    0.05864934700269246,
    -0.08406973599130425,
    -0.05815236614940305,
    -0.3155698589946943,
    -0.05721442717277122,
    -0.19180704356864214,
    0.4501351046393752,
    0.2652812469715152,
    1.5483821506523118e-06,
    0.24230563825432827,
    0.14577052094378617,
    -0.11589431595553987,
    0.36667723300146043,
    -0.25251693328422814,
    0.02281805432731379,
    0.3471424133705211,
    -0.2549230149595131,
    -0.3530316392844772,
    -0.17014949956799788,
    0.17361369848733235,
    0.03291605530001033,
    -0.0050741330255542295,
    0.008583191986133465,
    -0.005460909313741258,
    -6.865590056639619e-07,
    0.023250670937476736,
    0.025920279602383255,
    -0.0008616819190117995,
    -0.03511291956855638,
    -0.022051725943307385,
    -0.019122701667143433,
    -0.022827994657300326,
    -0.001373962038909327,
    -0.030177060351635848,
    0.029101283735898736,
    0.02008987379364172,
    0.043360005527874064,
    0.0010090407604460931,
    -0.0013667823188796599,
    0.046204534327596906,
    4.677992988720686e-06,
    -0.060969828687164176,
    0.022098835421229684,
    -0.014656365698648444,
    0.07167810617900301,
    -0.009362003175749473,
    -0.06740875948434526,
    0.08183358578428068,
    -0.04838115657357346,
    0.021927995802213485,
    -0.030388153892974577,
    -0.0076156540240751806,
    0.005776643662382327,
    0.026003241339976085,
    -0.02328498154956195,
    -0.0013180465679339158,
    7.536180114928207e-07,
    -0.06698537366254544,
    0.007395965342498223,
    -0.010913120101462497,
    0.006137905961857479,
    -0.012219589801953925,
    0.008854072252763088,
    -0.003516159445522822,
    0.02814391599563255,
    0.039295272989932135,
    0.03070090747394712,
    -0.04131544094580449,
    0.06484357921681429,
    -0.009221179184772025,
    0.03763333893705155,
    -0.07193456394626212,
    -5.627446051920181e-06,
    0.03936236876338875,
    -0.048740203256210764,
    0.001017526678669985,
    0.008040671079371038,
    -0.044245320032147345,
    -0.05596347267419936,
    -0.001963764633259099,
    0.027935521655205107,
    -0.03117608296810569,
    -0.04485995139587074,
    0.003398531404792068,
    0.014828968905365758,
    0.005886898962686176,
    0.009326543152951084,
    -0.0002521458179099633,
    3.685515282677227e-08,
    0.01703243201778957,
    -0.008231935663010548,
    -0.001109888297232279,
    -0.0210275337890938,
    0.0047936092710943465,
    -0.002200972059818054,
    -0.00013400913741559565,
    0.013517967731721878,
    -0.0011323457347947646,
    0.0028160937904953267,
    -0.00977873788037348,
    -0.0027991760378808174,
    -0.11469943552356367,
    0.054652287299255226,
    0.06570766733072739,
    2.939072337964161e-06,
    0.04074729778810891,
    0.011800172948378184,
    -0.026122433931444974,
    0.11615629145600292,
    -0.006335164260342468,
    0.02732406984499537,
    0.10174607955811422,
    -0.10835913653695822,
    -0.026646555079352385,
    -0.024321066974367086,
    0.03806514331409816,
    -0.1374292788542648,
    -0.032846661584313576,
    -0.08461522791375596,
    0.010581511282257185,
    -4.182534858831017e-06,
    0.06339813601921673,
    -0.08478425522198926,
    0.02093096978107415,
    -0.1171079926330889,
    0.08198851037475972,
    0.11713080200594331,
    -0.07229295895799613,
    -0.04195230514839488,
    -0.06651995314122677,
    -0.041014986816184484,
    0.05334967378331193,
    -0.0063179708217474635,
    0.05432506275457035,
    -0.0037072420158136303,
    0.010249772904957856,
    -3.780944302065262e-06,
    -0.05113472798210247,
    0.03265148382124006,
    0.0014392155300800367,
    0.015923700608977628,
    -0.015087709275315758,
    -0.03170635908784749,
    0.07495201737336399,
    0.009113046084565705,
    0.049868781333285477,
    0.01829232293304909,
    -0.024512440766912696,
    0.001770606928184896,
    -0.0011147412279818609,
    -5.871054711273762e-05,
    -0.0010483881511922702,
    3.936409185809988e-06,
    0.0005257989430612033,
    0.0027939818784955737,
    0.00017539584098778387,
    -0.0010649382565461147,
    -0.00393028441353015,
    -0.002326234202176477,
    -0.00025151006239586195,
    -0.0005189104481412576,
    -0.0013801499759075906,
    -0.0007633920300717166,
    0.0005170216679053025,
    -0.19573814362524927,
    -0.19001371323308675,
    -0.10999723541796264,
    0.03729794336167893,
    -2.472590590141481e-06,
    0.17757632443770788,
    -0.16136310018988326,
    0.022372316760079395,
    -0.15601443892458006,
    0.14525302032907794,
    0.0990738142416281,
    -0.09472987510979283,
    -0.20832656907579503,
    -0.22367036675353277,
    -0.14987729303973765,
    0.20476100305342357,
    -0.08764463204374041,
    -0.014301145257609246,
    -0.0638138440766698,
    -0.03144276960837863,
    -1.3374768024471507e-05,
    0.03936574477862017,
    0.009633913393050782,
    0.013389103956426616,
    -0.08937823010371197,
    0.039929858311770816,
    0.03705777617729013,
    -0.05677995913743174,
    -0.010151517192497024,
    -0.003614762370689838,
    0.007083721493296953,
    0.01619040122662476,
    0.0016987287299662572,
    0.0552117965840839,
    0.004526543496799242,
    0.0009584731362079373,
    2.739082490409327e-06,
    -0.03160132191368112,
    0.04059208164585559,
    -0.014021062026800918,
    -0.008381488817361072,
    -0.0019573527353238824,
    0.01158230625153573,
    0.011584744493236158,
    0.024306970504505882,
    0.032218516882351805,
    0.03257935328164088,
    -0.026218106376741206,
    0.012732305312461919,
    0.07143121820324796,
    -0.009391833524297429,
    0.13259856911205664,
    -7.975651617550707e-06,
    -0.029555284376788882,
    0.025834930958625647,
    -0.06164037686774243,
    -0.015697766068569697,
    0.05073042149656096,
    0.07735118452666395,
    0.02242051385301792,
    0.018864473456054045,
    0.010928654733622409,
    0.020272257462697594,
    -0.026226971268780017,
    0.19230265113600356,
    0.01245174945563719,
    0.1345640266199367,
    0.0551252910603576,
    1.4244574431914184e-06,
    0.1401463748443958,
    0.09732796218739996,
    -0.03945267652819557,
    0.12117418652622876,
    -0.21703935981666325,
    -0.11038305375638076,
    0.04947848173862321,
    -0.06386535245327543,
    0.04862754531678467,
    -0.052158436515084616,
    0.08131840250088884,
    0.05260823788833987,
    0.005897341143168875,
    -0.02499677265381407,
    -0.03632095601734283,
    5.364014721036964e-07,
    -0.019487849838183146,
    -0.02663392108531282,
    0.02724355270460502,
    -0.004594828005155629,
    0.008000312871036775,
    -0.009199771421255257,
    -0.02898354061310405,
    0.03354736993341692,
    0.005080682473509809,
    -0.007094504904641728,
    -0.06442984006130932,
    0.0061554858915702105,
    0.0023415796314703945,
    0.019216292017180888,
    0.08208069366798428,
    -6.973742406901727e-06,
    0.02888065663583199,
    0.0056049893924264025,
    -0.022365112325367364,
    -0.03592244273644203,
    0.027034682468829896,
    0.03276495894638575,
    -0.021311134208365546,
    -0.008315645145563308,
    -0.005356937129171572,
    -0.044629743786403754,
    -0.0044762239329568234,
    0.156752119782243,
    0.034788937167559604,
    -0.05516640411244204,
    0.010404500616016207,
    -3.9346193208589915e-06,
    -0.06030005609500952,
    0.053648315464684904,
    -0.06444546530316426,
    -0.028782885602563205,
    -0.02683576762606542,
    -0.10503898017290021,
    -0.07092986736113016,
    0.06772134047270224,
    0.018043244160992646,
    0.09938432448304071,
    -0.10283649287530096,
    0.08161546566592322,
    0.06368222472730618,
    0.10356279717671323,
    -0.09906431204272735,
    1.0875415382413192e-05,
    -0.005765603948739137,
    -0.01341868049642346,
    0.026340408137069032,
    0.004858203525226544,
    0.005156820045739997,
    -0.11705133773742461,
    -0.025605697830708464,
    0.10683994948209478,
    0.04863434100820113,
    -0.010187542246087575,
    -0.058014775245925784,
    0.04307843582624597,
    0.0210560380654914,
    -0.17936521396874228,
    0.08946673709519243,
    -5.623149508009986e-06,
    -0.04543965652958021,
    0.007650760358157337,
    0.007598560200770022,
    -0.02865168068854016,
    0.07639316065059382,
    0.09037686197192896,
    -0.004184803627520383,
    -0.09720365785674158,
    0.12555385704892277,
    0.01774273367222234,
    0.0224043534426961,
    -0.22783329027458818,
    -0.008180399620177256,
    0.22975455102810483,
    0.07080249740000692,
    9.169318001119222e-07,
    0.059912293049897744,
    0.11901379469328922,
    -0.020688344590054447,
    0.17722368347467238,
    -0.16504719352395708,
    0.13922492824451668,
    0.20838503563891975,
    -0.024528745608490415,
    -0.032133830405204726,
    -0.0908866740700135,
    -0.039407645748715955,
    -0.06750886763579109,
    0.1610980694901488,
    0.41501266678495835,
    0.03037834774844742,
    -7.416103350355118e-07,
    -0.12524165641660892,
    0.2630581560855205,
    -0.1527759693736821,
    0.41971734512057673,
    -0.20540910403036153,
    0.02566478107137007,
    0.44113247100937075,
    0.05834249923104116,
    0.118552563405441,
    0.031349712199457966,
    -0.11454491782885046,
    -0.1299561187087935,
    -0.02558705836003052,
    0.2543871704728836,
    -0.07482546622694013,
    -1.685496330782685e-06,
    0.22335172842780657,
    0.10176739368041361,
    0.007415395649115512,
    0.15863197591831263,
    -0.2777303543482468,
    0.006630011513725507,
    0.16672823812647947,
    -0.09219770098577666,
    -0.10989899484458183,
    -0.013878461166799038,
    0.15047539981869934,
    -0.003759168672320894,
    -0.05024781016640279,
    0.032078632789512826,
    0.07396129305734696,
    -1.9523468147408206e-06,
    0.021135725285126424,
    0.024384243806449102,
    -0.02947334293189919,
    0.03325227427592154,
    -0.019287103372935533,
    0.03516095511630729,
    0.04521501696776473,
    -0.027696121251226138,
    -0.028342291578886385,
    -0.027071165837370712,
    0.016137276933244165,
    0.20510959343141238,
    0.3516059107496069,
    -0.24063755063126174,
    0.3340279933406994,
    -1.6794842924578496e-06,
    -0.3963094734191501,
    0.20271754690013966,
    -0.1544632525440504,
    -0.26423820494742684,
    0.2894090535920498,
    0.22013954110539166,
    -0.22719387036739966,
    0.3029894369081544,
    0.24668246007130643,
    0.2542411988854211,
    -0.417330959826834,
    -0.36145197831126746,
    0.256561984937875,
    0.303010687707332,
    -0.2982749519019268,
    -3.039432856761313e-07,
    -0.1696104925408066,
    0.2209405619125793,
    0.026006229665807554,
    0.26999799473602176,
    -0.27692529677455013,
    0.0673561282367051,
    0.2541055959919124,
    0.21552651110306434,
    0.18610277116460885,
    0.16124820740337095,
    -0.20165073913457568,
    0.2629619754720445,
    -0.09550893078108616,
    -0.21510010771010482,
    0.10426469620191318,
    -2.81012876986673e-07,
    -0.22401828152185682,
    -0.13831155377348184,
    -0.07337177522993181,
    0.05236188441669773,
    0.10619960745121651,
    -0.07349112377310013,
    0.007600985710232397,
    -0.13334257459353505,
    0.19985219678665617,
    -0.14800101412762132,
    0.027748193352213967,
    -0.11860363189974106,
    0.2991288290157307,
    0.27037852588107014,
    0.06854721815361856,
    -1.1044654351259083e-05,
    -0.10504784039022663,
    0.3793105171734396,
    -0.09262014225955449,
    0.21906035800561346,
    -0.2807041649958684,
    0.07730818679116953,
    0.26324834231842054,
    0.14205211530869488,
    0.1132334382226519,
    0.22135954088204074,
    -0.22771510334744194,
    0.19176726497938634,
    -0.12420434464737257,
    -0.8306963220612676,
    0.9065846601387452,
    9.839251916557085e-06,
    -0.147811962209662,
    -0.24549069807645726,
    -0.1633547963857821,
    -0.8049096598667688,
    0.8793462289576726,
    0.28827555786693826,
    -0.6092578419220805,
    -0.3528806801800688,
    -0.17176684184752744,
    -0.18678086877890912,
    0.00021875936138560683,
    0.05304189829096441,
    -0.010903213768702569,
    0.03021908847834495,
    -0.004515078636585753,
    -8.083714147149406e-06,
    0.07945329137798729,
    0.20211793498357708,
    -0.0658872751477212,
    -0.031142969885975723,
    -0.20021396809075567,
    -0.06964004310793194,
    -0.03851953851275505,
    0.015066585648336201,
    -0.09535981936596497,
    0.17392151505660006,
    -0.006081862984313318,
    0.03639195323736503,
    -0.04698718981782225,
    -0.11200505404239787,
    0.003894864888674034,
    8.273844747078454e-06,
    -0.05222789051189786,
    -0.021792406680438792,
    0.0017608764301314422,
    -0.010880683335973054,
    0.02154417010050595,
    -0.003914519344581523,
    -0.0006995300651382852,
    -0.038882698355723146,
    0.04710502945430183,
    -0.02899249197500039,
    0.011066524041124215,
    -0.35182455230224813,
    0.6807503809211538,
    0.14960278256650214,
    -0.1707825916181693,
    -5.087697782853606e-06,
    -0.5907940440198832,
    0.426787666847948,
    -0.12594635056014064,
    0.21103782025299467,
    0.006173382400691644,
    0.3643261203624482,
    0.2917144587601287,
    0.4251479373137118,
    0.4776172758895467,
    0.2656178234522017,
    -0.6011555073077927,
    0.24638633489195413,
    0.5132018950616297,
    -0.36073466975571505,
    0.5195046808645508,
    -4.1144974019175674e-06,
    -0.41180983542517846,
    0.22547579185967254,
    -0.16665837530241553,
    -0.4559361742952314,
    0.5029293631685046,
    0.4235176128608566,
    -0.4281091513478628,
    0.29389598506121467,
    0.2713866178186477,
    0.3484972372697278,
    -0.4242197876110563,
    0.09115322719854514,
    0.04139616329224952,
    -0.12988398033153556,
    0.09423511662417085,
    -1.5900709841381358e-06,
    -0.009050332322647858,
    -0.02730899533169742,
    -0.018133208673483878,
    -0.1374012278213724,
    0.11483315584260376,
    0.009610536022851716,
    -0.09586539244406446,
    0.019853307356991763,
    0.014027748092181918,
    0.030315784785986292,
    -0.038621925038062256,
    0.010237863031808493,
    0.061767041907636724,
    -0.08055748403846565,
    0.04546791674939544,
    -3.125815892717673e-07,
    -0.044525298601120075,
    0.01889147532090468,
    -0.030166839085690438,
    -0.07548638077732059,
    0.0878006693384143,
    0.038428083496658855,
    -0.07214190096119692,
    0.029097608937667746,
    0.04267313218319258,
    0.03594616312284703,
    -0.05634871853540256,
    0.013115941028232688,
    0.09257876800998936,
    0.08230763956116294,
    0.01818068335588847,
    5.65344429120151e-07,
    0.0766598524809293,
    -0.04160601473708646,
    0.004248418424625252,
    -0.15263983028767658,
    0.06465569556148934,
    0.05602752482499026,
    -0.13038220365443573,
    0.13915942511828505,
    -0.0742482817170365,
    0.031023196047223544,
    -0.08435734158271689,
    0.5233202595412095,
    -0.6968730632927371,
    -0.5288708331814611,
    -0.6149015491273084,
    1.8314927281171123e-06,
    1.0473118782865136,
    0.6514875154339862,
    0.08664142012309073,
    -0.5728803286843416,
    -1.1099817673073475,
    -1.0475648382253575,
    -0.5781625953938423,
    -0.3371557166744656,
    -0.5183734218739976,
    1.2281870815870133,
    1.094707956054503,
    0.03270023998540523,
    -0.03138408795053836,
    0.011278667980125199,
    -0.02165923754770389,
    5.415481887866445e-06,
    0.03185763329286248,
    -0.00884738939733456,
    -0.004042346191424378,
    0.008203639411578877,
    -0.04013201037169284,
    -0.053671957279527886,
    0.006835751718883082,
    -0.010642405186695682,
    -0.027684425174504913,
    0.015763125326176727,
    0.03303649652685692,
    0.011778051375124611,
    -0.13817364743121516,
    -0.05410400432646575,
    0.030701613116839797,
    -4.990838423061859e-06,
    0.1201854916260261,
    0.04153139378715944,
    -0.005119887372464774,
    -0.078543825049088,
    0.016865361816046694,
    -0.052989893560840745,
    -0.0505344530549278,
    -0.0905678747957271,
    -0.1608027344841091,
    0.045631205074779614,
    0.08480259964682779,
    0.18004302393132696,
    0.14315829626115584,
    -0.16687730464701586,
    0.09986399934867976,
    -8.695222448770146e-06,
    -0.24121090099113082,
    0.014208871300412007,
    -0.042885812577021364,
    -0.1271735634654405,
    0.09620648711390037,
    0.06500466225610194,
    -0.10415016275835956,
    0.0926682915607896,
    0.14361870694076204,
    0.07819451968564259,
    -0.20935934830337222,
    -0.019404714131626647,
    -0.011216572984734838,
    -0.01868180200141834,
    0.009084173233479572,
    -2.203547093878548e-06,
    0.01873867626859963,
    -0.015274938681711366,
    -0.0009644845331574613,
    -0.01349421305365318,
    0.01972469522415312,
    0.011060022018068699,
    -0.007188720082047432,
    -0.025642352564083985,
    -0.0025151154419970905,
    -0.023864076994899397,
    0.018021077924718534,
    0.08194228670389869,
    -0.08586734799664968,
    0.08471066606486952,
    0.0462681498950747,
    1.7945857637155578e-06,
    0.1002833301928545,
    -0.0327094838789933,
    -0.010239343090595661,
    -0.0036353057665783903,
    -0.00042517393848074336,
    -0.03953330979158576,
    -0.013951780450441984,
    -0.05807595809156461,
    -0.10030193158131571,
    -0.10806524155763103,
    0.02399637898111998,
    0.10259450039106842,
    0.2671285969106083,
    0.05666467093745982,
    0.35219858453959413,
    -1.0491593313808697e-05,
    -0.0695236566858287,
    0.224975893405692,
    -0.1518821175390968,
    -0.0710822437104593,
    0.10716747906260253,
    0.1826151505108,
    -0.09184823952929397,
    0.16184711160775442,
    0.048959770440923304,
    0.1375332942079784,
    -0.07886251991964736,
    0.06271211795006564,
    -0.011977395044161126,
    0.028681084315356997,
    -0.09429488850540085,
    -6.558749126945821e-06,
    -0.025928161491708335,
    -0.08381496387025487,
    0.0499290034760249,
    -0.034192885498979204,
    -0.027309701424172637,
    -0.1564815602475921,
    -0.062341447506529375,
    0.04423231781840199,
    0.018142560911127818,
    -0.03255727683378913,
    0.004252220608814154,
    0.05339284797966078,
    -0.04643274918763705,
    -0.0733788267153565,
    -0.018455468166304514,
    4.653640638492946e-06,
    0.025032061081559708,
    0.03428119613159124,
    -0.014509473259402154,
    -0.07188367984776614,
    -0.007508516127989375,
    -0.047040554748703105,
    -0.061175436579320154,
    -0.012141379759044642,
    -0.030476573776357017,
    0.05846298635590499,
    -0.0033991171861176145,
    -0.3743994548782561,
    0.012955875165655615,
    -0.045232187243427216,
    0.11234436693577764,
    4.202494721033475e-06,
    0.19693359620460213,
    -0.1407491761616843,
    -0.011935797642186425,
    -0.20705707725140798,
    0.1567534126785568,
    0.4962086942531931,
    -0.11762861575599931,
    -0.1448936275066831,
    -0.2991646609079422,
    -0.20663993394709246,
    0.02103789682664458,
    0.11594995204918436,
    0.15872166930076528,
    -0.16128093138474614,
    0.09928304893374117,
    1.2592760098905364e-06,
    -0.22013829521324246,
    0.11037885143757634,
    -0.05316028697245962,
    -0.09124607058021933,
    0.10506201257753091,
    0.053701447937384725,
    -0.0983694294083372,
    0.13541693680463426,
    0.10410705518760924,
    0.16101140900040725,
    -0.15940463912548167,
    -0.43348529652985796,
    0.11025355303784787,
    0.17277054686527313,
    -0.1223788844924073,
    3.59721519580797e-06,
    -0.01803756474126412,
    0.08725636768450196,
    0.006757677457619874,
    0.12160896495554736,
    -0.17017392052280372,
    0.12709853257465925,
    0.12657757852554824,
    0.06876301023733752,
    -0.11462277765807881,
    0.07125699911063597,
    -0.07319158609776498,
    -0.0364278246023876,
    -0.044271048838350466,
    -0.050452660646709654,
    -0.04458269048162476,
    -1.3238646961305909e-06,
    0.07884005505640108,
    -0.09794958578131684,
    0.07341004176481081,
    -0.04461375502232286,
    0.13721447073636361,
    0.027674512890359607,
    -0.04770750391704612,
    -0.029403307611841404,
    0.020444324526608753,
    -0.037087181883423005,
    0.07195488792962026,
    -0.026848907684351164,
    0.0773202994843861,
    0.03612367182561279,
    -0.3005744301605696,
    4.657389093436231e-06,
    -0.1526671929206198,
    -0.05657629913010575,
    0.10767202649355796,
    0.21471520920405499,
    -0.06132769782407994,
    -0.11394193094370304,
    0.1673285117466478,
    0.08130702897519063,
    0.28087143772815254,
    0.007235778566603456,
    -0.051361560922303276,
    0.011253723322496547,
    -0.11365320686594226,
    -0.07391707841263455,
    0.06538999178380135,
    -5.373242570884379e-06,
    0.0058754959368921425,
    -0.028850053406515846,
    0.004277234775240758,
    0.08264558289325219,
    -0.03526013391536714,
    -0.043454548358134136,
    0.09030998123562385,
    -0.13029513848434482,
    -0.003924030233642759,
    -0.0634314748543469,
    0.09272431332425933,
    -0.02411979700305539,
    0.07742259059923073,
    -0.11453488458762294,
    -0.009375564841728691,
    -1.124966086111559e-06,
    -0.050150601683467425,
    0.083278416373225,
    -0.016271555242259508,
    -0.17588681214056714,
    0.071328006235248,
    0.027481121491726018,
    -0.11111516210544851,
    0.058870497929013464,
    0.052934062036277554,
    0.09650165596332834,
    -0.06374143341849949,
    0.08519413112691371,
    -0.09851113859987906,
    0.08860774972659488,
    0.140587683847555,
    -9.442579041587359e-06,
    0.1364585834527666,
    -0.042992579070016065,
    -0.03308481015999078,
    -0.029509143074081534,
    -0.02698257793410701,
    0.010097152261918027,
    -0.04048664463637701,
    -0.04806789866871523,
    -0.1585855186125615,
    -0.10265460823672459,
    0.02684938612507967,
    -0.033203814217786884,
    0.4087407432312799,
    -0.1073846908354547,
    0.07817251301486787,
    1.4115093078666711e-06,
    -0.17091097725605228,
    -0.013401911876904963,
    -0.04103394197510221,
    -0.3864324038587887,
    0.23590387859875656,
    0.31727838052009505,
    -0.28344473870393844,
    0.34695316166626416,
    0.12342949111220164,
    0.15590092427139163,
    -0.3979234926220555,
    0.08092060640435285,
    -0.12306075850987165,
    0.07802919845396775,
    -0.08039667134134013,
    2.9500925750328564e-07,
    -0.013748202971887783,
    -0.07135071450741605,
    0.004359604659134412,
    0.08909099225759634,
    -0.06685684869390228,
    -0.10280572250095751,
    0.028108744568469127,
    -0.01692501595354593,
    -0.034363260328054895,
    -0.06074184226463971,
    0.10747010871593306,
    0.09071420959993301,
    -0.12657018755482743,
    0.07842304664186918,
    -0.08148065282249943,
    -1.2566429541599595e-05,
    -0.014269845694042332,
    -0.07138791912392113,
    0.018561600561504903,
    0.08393843886919218,
    -0.06673269743580756,
    -0.10105956353306905,
    0.028006955027925055,
    -0.0054150501904700055,
    -0.03467101228472034,
    -0.0610266163885467,
    0.1058214978723654,
    0.09140594448991934,
    0.20224767539522198,
    -0.21903791291269617,
    0.1627446937217486,
    1.6380708671371706e-06,
    -0.1691924499088596,
    0.04998991737180018,
    -0.05049414833802402,
    -0.2442678052069772,
    0.16969242293501338,
    0.13641084501143594,
    -0.1797971993819814,
    0.10313884982504092,
    0.11493805206087757,
    0.13290535145364596,
    -0.2021269206089843,
    0.05638649841348751,
    0.057306345028321076,
    -0.08412462794174268,
    0.2320792323607411,
    1.8253847274285257e-06,
    -0.0645994976629385,
    0.05890994432041541,
    -0.07250774441734296,
    0.030427749900771267,
    0.1203294764417347,
    0.05810549014872255,
    0.06400882356752943,
    -0.06507244665902366,
    0.12274011225075734,
    0.010154999909119618,
    -0.05260984542030141,
    0.07951855753026699,
    0.0710032901537973,
    -0.051769721138791816,
    0.18354589016103395,
    -1.1152247062191692e-05,
    0.032237682900035855,
    0.02733198366046276,
    -0.055581760650930574,
    -0.11584478412847671,
    0.056722986826559046,
    0.08414867387439212,
    -0.0715860102262925,
    -0.01162061468722191,
    0.003379903196355301,
    -0.0026956073346426565,
    -0.008448912060994728,
    -0.0001685144926340146,
    -0.003911345168084763,
    -0.0038884950893489836,
    -0.006738567273308251,
    -6.079443547796689e-06,
    0.0012200556613748898,
    0.0015744595485841157,
    0.0005776611653681526,
    -0.002917079946516758,
    -0.00912799359268137,
    -0.005930575659019226,
    -0.0006304428869857523,
    -0.0006538393799809025,
    -0.003669610101436745,
    0.004836434589107388,
    0.004682317370604318,
    -0.03396278342509633,
    0.03349692889243378,
    0.04058338238852108,
    -0.032498159763188456,
    1.0454776424518039e-07,
    -0.014659294697303375,
    0.038103224687045335,
    -3.15006820372853e-05,
    0.031782546236533565,
    -0.006147456820656596,
    0.006150084845999105,
    0.027683432759621766,
    0.015989361209365092,
    0.01860556995272438,
    0.02296571560363376,
    -0.013090755779237538,
    -0.0015784218328327273,
    -0.061962558957118934,
    0.1251066001113353,
    0.18019869451279244,
    6.4840750574034045e-06,
    0.08522626685347001,
    0.012855928143994215,
    -0.026739900176103303,
    0.06812371338218522,
    -0.04246400070719858,
    0.03284511406899773,
    0.06954916361035823,
    -0.07585760314881654,
    -0.11229130877785751,
    -0.07566354827904585,
    0.04021564617886625,
    -0.0016377917292044373,
    0.03334517619733076,
    -0.01347770387597048,
    0.022228891925798588,
    5.285035074401464e-06,
    -0.02660921058441616,
    0.009169070961115702,
    -0.009863110356411176,
    -0.010716214093095288,
    0.014309706575167884,
    0.018972164231280255,
    -0.02325033915857519,
    0.03609319540948945,
    0.01710843843352225,
    0.033868502582863495,
    -0.02295031395594936,
    0.1205532415993386,
    -0.014300754526437278,
    -0.09645152064761317,
    0.0628148175316484,
    -1.1636564875820391e-06,
    -0.009064538442346951,
    0.07512225636878012,
    -0.030310000289446776,
    -0.13224078845565898,
    0.07359784389646115,
    -0.046082932508266936,
    -0.066446701783994,
    -0.00536689098262662,
    -0.0010679533224116843,
    0.13739309713759765,
    -0.005333248314455901,
    -0.4792059652522774,
    0.1734084309630356,
    -0.10547964658909352,
    -0.49843741082648796,
    1.0689336932480218e-06,
    0.21436919748952843,
    -0.1117068113584378,
    0.2037574279638912,
    -0.2813843629125902,
    0.22725796043712604,
    0.26269671258508953,
    -0.26220048818188774,
    0.32870806832497573,
    -0.13505881346424684,
    0.16895690926175932,
    0.0035143392371251836,
    0.1884423249111932,
    -0.032965654206801816,
    -0.28556254001433906,
    -0.06695778448939,
    -1.5305347379358695e-06,
    -0.3710953256684983,
    -0.20227649709312906,
    0.041759557026014645,
    0.1502136125127667,
    0.18017626167787454,
    -0.11285966848661684,
    0.0867183182158538,
    -0.04812716670103046,
    0.29904165887336154,
    -0.1787038319157409,
    -0.03391574094383977,
    -0.001118099701006746,
    -0.016887722307135013,
    0.07062927001672713,
    0.020922846874497514,
    -1.925476096957221e-07,
    0.0048598237494500585,
    0.021104995328738232,
    -0.0052986887366334645,
    0.04009442016575225,
    -0.04369519588761868,
    -0.054555488069733885,
    0.0849201196503285,
    -0.04331571903571976,
    -0.03901393926072139,
    0.017278943050075275,
    0.03693803855933111,
    0.1928242048437218,
    0.17780741550733475,
    -0.30834197646930567,
    0.22878017203028472,
    1.8333864240190862e-06,
    -0.062167584267311574,
    0.04400208773851674,
    -0.07554474783887999,
    -0.3557729965199762,
    0.2353303943270547,
    0.16027425555898675,
    -0.2928886965291095,
    0.08098805536419365,
    0.10275979443585977,
    0.11485761224316426,
    -0.1098174203775215,
    -0.20203995476066117,
    0.10085330287856228,
    0.4015828073792545,
    -0.11686677994565109,
    1.8444842298476152e-06,
    0.027845990581777762,
    0.19902332793697738,
    -0.003073630721116122,
    0.31900431081739355,
    -0.20332991522663643,
    0.023811578680621164,
    0.32668871557841894,
    0.07308600901623594,
    -0.013640227439311725,
    0.046389153470095486,
    -0.03720485218679156,
    -0.1777159602026462,
    -0.2940181881190379,
    -0.196515626283913,
    -0.17645614218130165,
    -1.2542290025445201e-05,
    0.2205802293732957,
    -0.6170437221254383,
    0.2747293411939993,
    -0.11822930508921183,
    0.1956529035765286,
    -0.07970010377169251,
    -0.21740361557793791,
    -0.20258091831810496,
    -0.08996274053306151,
    -0.47486608187460355,
    0.25018706021861553,
    0.01357266311506767,
    0.010132355387087014,
    -0.01376715839349793,
    0.010416577104622368,
    1.2012475351203293e-08,
    -0.019162058410590505,
    -0.014104345086349047,
    -0.0044933926539434425,
    -0.012808149427440163,
    0.008889611737422988,
    -0.004965659298809502,
    -0.03350441243053891,
    0.014743292687800079,
    0.003630150887832766,
    -0.0005202963588795558,
    -0.02285360749052648,
    0.07594871576944832,
    0.05815863215567394,
    -0.016015937792857503,
    0.14041671336591585,
    -2.5369215102384064e-06,
    -0.003772892012607908,
    0.025814927365660347,
    -0.07361599467676073,
    -0.1170681320976931,
    0.10713196057575408,
    0.09609942193757023,
    -0.07228590722343665,
    0.017816571993376037,
    0.08591613965347701,
    0.029825916806881965,
    -0.08118637214979015,
    -0.22803599186801596,
    0.19686751299557553,
    -0.6864332426367395,
    0.3495127385610315,
    -2.8038570926952562e-06,
    -0.043815582410714815,
    -0.18993800099086808,
    -0.09227551482649551,
    -0.8195091756597885,
    0.901375362485564,
    0.7251078393433149,
    -0.636881570426184,
    0.044477139874865644,
    -0.11460520782659046,
    0.011081396457447242,
    -0.16736069206058637,
    0.2520571677926253,
    -0.05782710402266921,
    -0.18621374440930089,
    0.221957427393754,
    3.6578842852433757e-06,
    -0.0006573659925505772,
    -0.03856502308899547,
    -0.0541253577587599,
    -0.02453253438422369,
    0.22762076039899387,
    -0.007883086189126398,
    -0.006531401121753036,
    -0.12590417828834188,
    -0.0508887923040528,
    -0.13649758302460793,
    0.028983474335242773,
    -0.25987496203991395,
    0.04334063024182179,
    0.08091993002574244,
    -0.19245676119766184,
    4.9354124701491396e-06,
    0.06423666105547186,
    0.05249874590685043,
    0.02250382828965353,
    0.0645493674561326,
    -0.1103118212660074,
    0.024778354410736288,
    0.046746546801496716,
    0.028602560984750815,
    0.0031607547908412293,
    0.0686883044087896,
    0.021945129587075358,
    0.11571856904379522,
    -0.10021236302353576,
    -0.059288473909065616,
    -0.11166444049657583,
    -3.5283669499418776e-06,
    -0.16156041229850646,
    0.04733743134252456,
    -0.019459722248313358,
    0.11145672484174646,
    -0.25635818956136125,
    -0.258334907122485,
    0.07433452769522958,
    -0.08028150897213704,
    0.09568256057650945,
    0.014691066376921764,
    -0.022280120994261274,
    0.006243585392125323,
    0.000566331251723656,
    0.013754195648083464,
    0.0036447867478309665,
    7.631998139540423e-06,
    0.005042562770402534,
    0.0007554629947391339,
    -0.0009277706899533194,
    0.008985048393539294,
    -0.0032199513317477967,
    -0.005071776797293232,
    0.00905111604206773,
    0.0025696362677862464,
    -0.005226667368355446,
    -0.005681252108211599,
    0.0018093241516579457,
    -0.1176579671608687,
    0.035100980442403645,
    0.15426734644606038,
    -0.1677777149114346,
    -2.1850193716220228e-06,
    0.000902198062827416,
    0.06698437854670787,
    0.012077142668285584,
    0.10733778312486184,
    -0.1396938072125014,
    -0.017179201032030165,
    0.13375428246224338,
    0.035183702806490906,
    0.03349726082847108,
    0.05592831413089226,
    -0.022768558789387584,
    0.1418059888564826,
    -0.03164404707752801,
    -0.30338877855562185,
    -0.017091054041804464,
    -3.4274093808231806e-06,
    -0.1726027030240495,
    -0.20390643484962148,
    0.062198052193521716,
    -0.04912844717633867,
    0.2162477638931475,
    -0.04094350998486917,
    -0.08479154489204523,
    -0.048042186925420526,
    0.25692988245768766,
    -0.058332400131831275,
    -0.034455712678479425,
    -0.012057974737045405,
    0.0012737325126316059,
    0.004183539190083296,
    -0.0024679569891043187,
    -2.9696934813091896e-06,
    0.004236861127350876,
    -0.0007309739470725301,
    0.0031675075482666022,
    0.0074396251777501185,
    -0.00911694829692521,
    0.0015806749659781389,
    0.0040306169910654804,
    0.0012528033482135114,
    -0.0023130065787613408,
    -0.0007389761533227534,
    0.002272116698556671,
    -0.02084552096115533,
    -0.15254600382739722,
    0.05771883949362766,
    0.1714621726369818,
    3.5502080941006045e-06,
    0.21242893164298807,
    -0.02093917215090972,
    -0.010181484566255856,
    0.02561362991088512,
    0.022682215886268717,
    0.09406258243296999,
    0.028566624100081782,
    -0.10124304911878847,
    -0.17225235459563976,
    -0.1417097146556612,
    0.12567802531716996,
    -0.01100405183693974,
    0.002366516659957814,
    0.0009596319435701646,
    -0.021460725498366334,
    -1.0055286514437142e-06,
    -0.018523912112108312,
    0.006856124501911872,
    0.004772558804108223,
    0.025923945801270894,
    -0.007131226517578244,
    -0.010766188394074394,
    0.01988979240097426,
    0.0025758051651234345,
    0.01522106031765198,
    0.006151817772919281,
    -0.002620951357361737,
    -0.05863607037644532,
    -0.04646783637651187,
    -0.0858208110980124,
    0.04382713818892656,
    -7.350277532583222e-06,
    -0.04659029552746659,
    -0.020987787018279903,
    -0.0005694266732246638,
    0.0957180714114458,
    0.05855394962552673,
    0.03888801609727711,
    0.06213019665991339,
    -0.08260774783766102,
    0.062219919781353564,
    -0.043531541596672066,
    0.04777999398558285,
    -0.41279948607076267,
    -0.41428321980557403,
    -0.5654780825830151,
    -0.3414800659619696,
    -6.808521059387748e-06,
    -0.20462294122622673,
    -0.3600210341982975,
    0.18472299510470427,
    0.2554818281280893,
    0.12914910203717736,
    -0.024775344708133716,
    0.2362972607312373,
    -0.42547198220536847,
    0.11841484229984424,
    -0.14835741183621454,
    0.3957673893716939,
    0.5447949262110402,
    -0.07392954563095831,
    0.6793908939120265,
    -0.3488710268987815,
    -3.654088792291019e-07,
    0.42577765129443546,
    -0.24449427588846115,
    0.17899096772021938,
    0.01850245532142309,
    -0.23556853446120074,
    -0.5262922983163413,
    -0.16192549233624,
    0.4434793495106368,
    -0.2818242515901963,
    -0.2257934408609018,
    -0.011120250560803383,
    0.040624530681897295,
    0.056766279885155445,
    -0.04536563125771539,
    0.05607465758309361,
    -5.4676824527602795e-06,
    -0.03396351033987485,
    0.013513834413228076,
    -0.029954531312081166,
    -0.050436797714316875,
    0.060347901084107466,
    0.03577092987155766,
    -0.03947025382532294,
    0.03598172663940047,
    0.039298775928179645,
    0.03315669415201748,
    -0.056529521503346516,
    0.09308320488177549,
    -0.10838295487025017,
    -0.08343567178489339,
    -0.09069677737698856,
    -1.1048754977434499e-05,
    -0.033511751126466156,
    -0.15373417378830484,
    0.0644743836523829,
    0.00548240335228258,
    0.01481362488705411,
    -0.12908850988854398,
    -0.0043176372517369655,
    -0.038615219512106634,
    0.035288958417720305,
    -0.1462385201791866,
    0.03753935785114927,
    0.2854954693844793,
    -0.26477177782088135,
    0.08394118584098957,
    -0.41398041902592114,
    -3.613719669052171e-06,
    0.48446914213418,
    0.23071367408530574,
    0.1405864802049338,
    -0.1756044767878139,
    -0.4973311388629955,
    -0.4677966689576682,
    -0.23683694093772073,
    0.062178798785777784,
    -0.25213985755481116,
    0.44601533203681487,
    0.4095001411424059,
    0.12364630686919881,
    -0.12287649538276739,
    -0.34213097938871334,
    -0.14414951196246345,
    -6.236764210305077e-07,
    -0.09594169052287486,
    0.06278463760248572,
    0.00881649952349429,
    -0.0451376469079462,
    -0.1590381056620846,
    -0.23928456109830354,
    -0.06173528819010611,
    -0.03209379998898362,
    0.19184843869458112,
    0.14368112447255194,
    0.10335459557020647,
    0.030008618423269684,
    -0.0019731323583023225,
    -0.006279628593518105,
    -0.04357400768414208,
    -2.54731876758434e-06,
    0.023206531313771962,
    0.0618613132015317,
    0.0028973940459839256,
    -0.013668862078852756,
    -0.05927571846984123,
    -0.04748225222588862,
    -0.000684488038489877,
    0.00903387849177617,
    -0.012719752620607238,
    0.06906338367034545,
    0.0276518448424854,
    -0.0754035798844714,
    0.07795027850106127,
    -0.12435208896985964,
    0.051858359593516555,
    -1.5109606190537934e-06,
    -0.0592241401313663,
    0.04790984032378201,
    -0.027670910662935224,
    -0.14467472274643722,
    0.0356166335368875,
    0.14552773815878012,
    -0.05865913559969719,
    -0.03882557082418788,
    0.01117241307890798,
    0.047108339591239924,
    -0.09082771778057883,
    -0.06944328315618789,
    -0.00017157911721756258,
    0.13319818213665205,
    0.05993469502551365,
    -7.643075127603404e-06,
    -0.035127969218043606,
    0.09428380579727418,
    -0.06289291735938572,
    0.1469240126598281,
    -0.13840150532350037,
    0.008772767968981418,
    0.14572382933569245,
    -0.06404591595814592,
    -0.04726743355847738,
    -0.01786151083751311,
    -0.016909620749360494,
    -0.20513187769252353,
    -0.19889393844056416,
    -0.03625681153248095,
    0.005319729527870308,
    4.758288272622568e-06,
    0.00912827712336492,
    -0.34285808618000696,
    0.06077201430043277,
    0.094010452456703,
    0.07732759071352462,
    -0.04080472229937861,
    0.09182748180430285,
    -0.26060213915585556,
    -0.0832750748235133,
    -0.4527209682184501,
    0.07514393731240362,
    0.02843236350617767,
    -0.03529004184481694,
    0.011414306367857622,
    -0.012702040361566832,
    -5.249548202666339e-07,
    0.029649991415763976,
    -0.015665236418499085,
    -0.004234930206819073,
    0.019354903741945106,
    -0.0196349694458382,
    -0.03637354225633012,
    0.0231690149848793,
    -0.008556819204025045,
    -0.03357641224285035,
    -0.04423857485491803,
    0.028017139688472387,
    0.04412205030699259,
    0.14541648919354566,
    -0.06589723466692826,
    0.0669372334901824,
    -1.4854710335823623e-06,
    -0.102873839177914,
    0.0543559553958059,
    -0.05466738704117192,
    -0.07473522187592406,
    0.06218061335771175,
    0.027710799750054874,
    -0.06905479998287543,
    0.11889145487996397,
    0.10942056612129818,
    0.12504101171988571,
    -0.1473155421203883,
    0.07887798225354842,
    0.14280081053750296,
    -0.1058828893995363,
    0.0764203660884281,
    -1.3933198625353044e-06,
    -0.11616791962113497,
    0.03793864880255635,
    -0.04563099239734909,
    -0.11376013548259735,
    0.08895726227875198,
    0.02314295887453016,
    -0.09960584536969591,
    0.11811836449130325,
    0.1099118924697316,
    0.1257132798074902,
    -0.14211845171614723,
    0.1068612718072034,
    0.005341465689659385,
    0.023898168276053677,
    -0.09163018868463205,
    -7.80521665186387e-06,
    0.025256949694974364,
    -0.08523701133784294,
    0.0262272591207395,
    0.033078519561723654,
    -0.028745409721068708,
    -0.112186249324689,
    0.02243965689203327,
    0.08189677990465778,
    0.024939230981348825,
    -0.05370071639005087,
    -0.03390901172151389,
    0.041980361640361265,
    0.054202502479314775,
    -0.05180718402476896,
    0.08935777881128575,
    1.0624344348725921e-06,
    -0.059336179344679524,
    0.008447835767539375,
    -0.02570006793307886,
    -0.08406219702120879,
    0.07686099124868004,
    0.04967077372543093,
    -0.07890488514678952,
    0.029265202253187718,
    0.042715413144032474,
    0.022552408593601976,
    -0.0664930751271519,
    0.06540124530675187,
    -0.023986299876104327,
    0.13135197792912573,
    -0.03728609023868347,
    6.385050043429238e-07,
    0.08270451345649418,
    -0.07109532092413337,
    0.023042222723576387,
    0.06352398423827556,
    -0.02114102472051927,
    -0.11045376146831037,
    0.026002536287030663,
    0.03407180741581471,
    -0.05047928608019807,
    -0.05186688044365972,
    0.03608025274672391,
    -0.19876241356799468,
    0.10143160150719188,
    -0.262570504230139,
    -0.02682118191145823,
    2.405676451556192e-07,
    0.21962733806289844,
    0.358442059008247,
    -0.0525147840891024,
    -0.5627971095784856,
    -0.11947986159363044,
    0.166497936090581,
    -0.39917699346169383,
    0.11141968564369269,
    -0.254945954787564,
    0.45636861121466316,
    -0.029226530164546932,
    0.11440201616604016,
    -0.14796979031959612,
    -0.0496322292369092,
    -0.45708761255945657,
    -2.041945414701529e-06,
    -0.4110117224999628,
    -0.4414954993954093,
    0.11645184849476158,
    0.27456281789602116,
    0.01577316749342268,
    -0.19091868927252093,
    0.1317132518375461,
    0.010448068023766686,
    0.35186122987262414,
    -0.3973332798712626,
    -0.025949839544328817,
    0.33935476467960224,
    -0.12083774411183648,
    0.5344554820092511,
    0.42237556033076934,
    -2.3904163348903843e-06,
    0.09921362393070098,
    -0.11650315747976249,
    -0.18434465390098825,
    0.21101514437111343,
    0.08974056336490342,
    -0.12785098980295917,
    0.04708269264179619,
    -0.12939079151742264,
    -0.3770350911677002,
    -0.25446409991754604,
    -0.053110154567596525,
    0.009630930986710085,
    -0.010338627846432457,
    -0.00233472461782186,
    -0.010479938351232634,
    5.612396033751722e-06,
    0.03329471975844643,
    -0.01780175460421249,
    0.002567065182947851,
    -0.010062525590143968,
    0.012989130888911748,
    -0.018588157026626313,
    0.008376082831324582,
    -0.024312006696702398,
    -0.017374223728981737,
    0.014610063722466152,
    0.030572855856338888,
    -0.011261191054454802,
    0.02263441289529872,
    -0.09752191988161489,
    0.048009415518027544,
    -2.4302696420215337e-06,
    0.03220464633934473,
    -0.06116914304054201,
    0.012955404563992117,
    -0.12818129716365642,
    0.15654823345125493,
    0.049318674613960174,
    -0.11695054559072242,
    -0.006629744247765087,
    -0.0017052178363394647,
    -0.037342451771135626,
    -0.01598316224019116,
    0.017705903082876128,
    0.1560438402911555,
    -0.1775581373239354,
    0.5490946354460636,
    3.044666990117149e-06,
    -0.09850901927833938,
    0.13690793418036518,
    -0.16968094441172318,
    -0.17375367114785972,
    0.2509307286628898,
    0.40873581797985686,
    -0.13735383501296977,
    -0.004889548229118673,
    -0.0884988969618246,
    0.11305488380840104,
    -0.1912199983825954,
    -0.12233680957507152,
    -0.025286674053806777,
    -0.07200526669884934,
    -0.001009890696911208,
    2.840990069445991e-06,
    0.06732403839404616,
    -0.07004507323003441,
    0.030632334933689595,
    -0.06270162343225995,
    0.0791594528868443,
    0.099690806379828,
    -0.02417803846159919,
    -0.05221615786743351,
    -0.029190265848586923,
    -0.05080721238837197,
    0.04892288312006613,
    -0.02613770071361526,
    0.009265396797088639,
    -0.10405342465309603,
    -0.04655573591763949,
    8.689333754992118e-06,
    -0.05266200844030455,
    -0.06563039620470712,
    0.03908674341546508,
    0.0188138732537144,
    0.06903134776030365,
    0.029525594180563712,
    0.0014905536469763073,
    -0.033981199547087414,
    0.06195969734982328,
    -0.06666514042260953,
    0.007925556555556771,
    -0.4109804949883788,
    -0.1725952674842316,
    0.7938062941450997,
    0.4757956268201307,
    7.341530984259178e-06,
    0.6019682125484973,
    -0.11954283837540813,
    -0.04869700989880231,
    0.23026125189837413,
    0.07861001486029012,
    0.25908119789422257,
    0.3065424138609014,
    -0.179710903164649,
    -0.5038727258131934,
    -0.4340468284056061,
    0.2701735805759629,
    -0.4786493120569395,
    0.15224997849773406,
    0.2756260229957665,
    -0.10564265119061655,
    -4.4246891959935285e-07,
    0.09399216134783653,
    0.050940623479687364,
    0.03786773636870431,
    0.11932611072977922,
    -0.058698336102128025,
    0.2558303957688359,
    0.1609140241471595,
    0.06369144569736211,
    -0.06650416911524938,
    0.0028520548592184903,
    -0.038897131363683,
    0.21918543855469286,
    -0.1956803570057917,
    -0.17514702363022464,
    -0.1565151222552263,
    5.559654195396545e-06,
    0.06918331751285403,
    -0.02494228245833617,
    0.06886969646520749,
    -0.08202596251289022,
    -0.06490507826737112,
    -0.29931196629666246,
    -0.11439953285506495,
    -0.045109850919059065,
    -0.005060557920159364,
    0.08046654840514451,
    0.1057421877554645,
    -0.030599638631202096,
    -0.10443532042511545,
    -0.009524750584823901,
    0.06621572118255513,
    1.1685735622559496e-06,
    0.16781675316108105,
    0.10234124011148166,
    -0.02841903845889069,
    -0.014738972189997796,
    -0.03224497999353811,
    0.05724817988708262,
    0.023963951785094265,
    -0.11902806215061658,
    -0.07408828089484092,
    -0.033796372581763115,
    0.10627623246366809,
    0.11246207747183096,
    -0.0326322437748259,
    0.11876880412639569,
    -0.12683354597600596,
    3.0251431364422323e-06,
    0.07813540987134247,
    -0.14050519974293885,
    0.04376565541190168,
    -0.03511670784966773,
    -0.020832343897612543,
    -0.13972157064933674,
    -0.06960781916702595,
    0.07181327592397777,
    -0.07207646680406618,
    -0.12186685405267832,
    0.004559175031651878,
    0.08325710613305413,
    0.1385122909718856,
    -0.07448628671825086,
    0.15785369907523777,
    -7.823426498387567e-07,
    -0.10969123667740799,
    0.0390338410347633,
    -0.08810177665728053,
    -0.20915151819511682,
    0.1325878690177653,
    0.12019635886790539,
    -0.16943422047058024,
    0.09557722240535321,
    0.08909256675468134,
    0.08336286526719264,
    -0.16389560544084758,
    0.09133882729351164,
    0.15294536856937416,
    -0.23092121490294998,
    0.23546158654388005,
    -7.364723990632078e-06,
    -0.2011154145130856,
    0.028532218807459372,
    -0.10890417024651187,
    -0.24451835030462699,
    0.16385223858961584,
    0.10894296730075521,
    -0.19451666070905763,
    0.14465760101224742,
    0.06537446483455153,
    0.11062944371792684,
    -0.2467615901605836,
    0.10594821323179526,
    0.03307541972783386,
    -0.1851336558379412,
    0.0771660401911752,
    -9.522426438461426e-06,
    -0.024600562668619562,
    -0.002214388597775611,
    -0.018727814335185177,
    -0.1253833024489901,
    0.14780555929276712,
    0.06382384438496784,
    -0.12438937777067172,
    0.021557084118115216,
    0.03372813432042535,
    0.015956864065051223,
    -0.03585515195651111,
    -0.0647105458771933,
    -0.015436103721105638,
    -0.1183594797903059,
    0.021505009036569215,
    -6.4036763500460135e-06,
    0.06683616695477847,
    -0.020325223376752934,
    0.013926034461704397,
    -0.12623772185519674,
    0.06882197732622128,
    0.06843682876222323,
    -0.10375513033403781,
    -0.048250178310276386,
    -0.05486061095732771,
    0.02924640254281322,
    0.0655685230415748,
    -0.038888712267232346,
    -0.0045001595821869975,
    -0.12930966827498047,
    0.03371823765743592,
    -6.643628022656985e-07,
    0.055790958364182186,
    -0.011042135165860011,
    0.005548696817899568,
    -0.12899064746237868,
    0.09092016582438946,
    0.07830376785930494,
    -0.11251752353262844,
    -0.04176304487523625,
    -0.05584862520560267,
    0.03838662468590865,
    0.04484148836449466,
    0.17529398372555596,
    0.03485228201433327,
    0.07360714458775564,
    -0.16887013582792226,
    1.2201402999030417e-06,
    0.02097200830257005,
    -0.11273675772780478,
    0.036975752528096824,
    -0.1181583272330048,
    -0.010793344097206758,
    -0.2319708627550669,
    -0.18557403147040455,
    0.23198832618268603,
    -0.027871779324268608,
    -0.041651785719937155,
    -0.11436477622870356,
    -0.25534622190840645,
    0.14123877020000897,
    0.23869069379629226,
    -0.0806583399624362,
    5.429682850198141e-06,
    -0.12961858887511224,
    0.14537739440905126,
    -0.04055638273523637,
    0.19893872159591705,
    -0.15511379893213825,
    0.06914937517261276,
    0.12458774013240974,
    0.15915875934676643,
    0.06392488663478356,
    0.08267512122893508,
    -0.22082377499862424,
    0.17130922022798586,
    -0.16613393937781926,
    -0.1731930878788249,
    -0.18240482420629475,
    1.1881557826404243e-05,
    -0.21504782885513055,
    -0.25527281063055296,
    0.07379840621067724,
    0.1363843349648526,
    0.029664900777948294,
    -0.1328212330940562,
    0.08338298719887682,
    -0.13432302336077018,
    0.21863752889320823,
    -0.2240074270239065,
    0.12142528276943854,
    0.17292856380578073,
    0.10757469397734301,
    -0.24712916944295554,
    0.006035242554010101,
    3.4589149844506755e-06,
    -0.09477860308485277,
    -0.07595911568311114,
    0.0002205517458604319,
    -0.30181644104786953,
    0.13459890137732144,
    -0.08854975731613327,
    -0.27682468451840875,
    0.09330926658783402,
    0.09968194507245498,
    0.09066278332171787,
    -0.07737348993192057,
    -0.04061576479107685,
    0.06275204373017945,
    0.004113616548079498,
    -0.3292130285236875,
    1.8543183119006489e-06,
    0.04945984856194491,
    0.3935656499114822,
    -0.016620403341629453,
    -0.05511976610241665,
    -0.435699231986694,
    -0.1926319040825275,
    -0.030414492466075214,
    0.11855442711121439,
    0.0012613660253846806,
    0.4006809472394869,
    -0.010270030787552203,
    0.05992405171659413,
    -0.06107274684848855,
    -0.011369877766382198,
    -0.07556125483315924,
    -1.3146080934687926e-06,
    -0.10437818232994893,
    -0.0781580375302229,
    0.016760270531224003,
    0.15054090804289808,
    -0.05315006132634913,
    -0.10216811662387701,
    0.14205450825780708,
    -0.06819126649502712,
    0.08685526797760981,
    -0.041008746211371114,
    0.050201301448534026,
    -0.010233680351221996,
    0.01428054402467593,
    -0.010555130547537511,
    0.009129896976382904,
    -9.532139671103208e-06,
    -0.019466044825740228,
    0.0055034404473664495,
    -0.0061741292567338785,
    -0.005060545110193314,
    -0.009056038691816462,
    0.012762484816678151,
    -0.008662681792769985,
    0.011665437257569604,
    0.014968829348612975,
    0.0020092088170473033,
    -0.016308069849293436,
    0.14167778833410313,
    -0.2565455760707097,
    0.48262577331340456,
    -0.29020994664394406,
    -5.547514105496894e-06,
    0.41741668526799725,
    -0.5256585124755258,
    0.18708569401658678,
    0.11665117334863175,
    0.002999279045436747,
    -0.4351575710936172,
    -0.04071327864702256,
    0.0209801829389077,
    -0.29416846347375736,
    -0.4738199442816398,
    0.20574220863985015,
    0.007456068937967947,
    0.04081105709481315,
    0.02945597516038578,
    0.09514570525128156,
    -7.559707632289272e-06,
    -0.15313384666750035,
    0.04338405167251219,
    -0.04602987346960055,
    0.00960796182797707,
    0.010309714396817733,
    0.03682131459282311,
    0.008622299245418942,
    0.03862792682587568,
    -0.0262928434070986,
    0.01313648617560861,
    -0.108112205041052,
    0.03140287964970767,
    0.005321690114840488,
    -0.504549308925859,
    -0.19233844899095934,
    7.264094376179046e-07,
    -0.25799460806128083,
    0.09763748275561099,
    0.03845219970103213,
    -0.22297159827819524,
    0.006251842876882372,
    -0.10082599798217637,
    -0.15372829530851467,
    -0.004378611201139015,
    0.2903141133905266,
    0.2912297775938378,
    -0.01785017367549103,
    0.302121112956115,
    -0.05505908428183416,
    -0.05344060845065053,
    -0.18118249938048975,
    6.469816655799482e-06,
    -0.1325222747555749,
    -0.2823956699012309,
    0.0720991527083987,
    -0.048213509563915576,
    0.12071554873007538,
    -0.1628546351266149,
    -0.10864226004245772,
    0.05173505435109628,
    0.10965018679038578,
    -0.22269975802010084,
    0.04458084518577591,
    0.01649944368048187,
    0.003599888385533201,
    0.012599924839314236,
    0.005200177362362321,
    9.70794829834918e-07,
    0.011645221910678641,
    0.03033568675085308,
    -0.008920869806954553,
    -0.009671067087937633,
    -0.00023144830299359108,
    0.002356388671714155,
    0.003504563871721019,
    -0.0023414272924815872,
    0.0006713231901598218,
    0.006243915809939944,
    0.0030367806993790085,
    0.22183273074230678,
    -0.08782217780254326,
    -0.15004507786403865,
    -0.08126727271350655,
    5.968873936767632e-06,
    0.32170756259873057,
    0.21808181626945686,
    -0.015734706649084777,
    -0.342130603828184,
    -0.2449830030069745,
    -0.3104487907589289,
    -0.321572873977693,
    0.08209632906434237,
    -0.28655369125722285,
    0.3343429643964985,
    0.1967192522580669,
    0.5904936700825023,
    -0.5315210465861667,
    -0.5541889117595322,
    -0.5372545326759918,
    1.8230493357020799e-06,
    -0.5824727588829595,
    -0.46169506763560914,
    0.18417794373538052,
    0.40809340657910226,
    -0.0906619799291195,
    -0.8158666389821377,
    0.22143178527217305,
    -0.22881328832378345,
    0.4933444642970377,
    -0.21443791225366607,
    0.23183787156599484,
    0.05866165492635001,
    -0.07131174128814427,
    -0.10320512767093473,
    -0.09943783713399203,
    8.758830751663913e-07,
    0.026091844216149077,
    0.02180122460040666,
    0.019754271609437588,
    -0.1129415631102211,
    -0.1373266774953082,
    -0.13990776660724938,
    -0.10679466921568241,
    0.020716561978353133,
    -0.030455741561289353,
    0.07356922443316928,
    0.053501947372514326,
    -0.021359120766038842,
    -0.017766561278035244,
    -0.0050682497588777796,
    -0.08729922739868445,
    -7.36130374194744e-07,
    -0.05820215147897856,
    -0.033171259691608806,
    0.009714253438317293,
    0.07974064218846898,
    -0.026169425769451957,
    -0.04621021500483299,
    0.053904781682092735,
    0.00408360734748292,
    0.08070433979130442,
    -0.002823098400846534,
    -0.009351012486951069,
    -0.14886599503464423,
    0.03600655026876879,
    -0.030227652006951388,
    0.2053034859635183,
    8.855712623517681e-06,
    0.12525440775129743,
    -0.10017392165432092,
    -0.05693043658844385,
    -0.16745237415125422,
    0.18607861020986635,
    0.24460357249181625,
    -0.08407174084869926,
    -0.0674134132944452,
    -0.11788857182258476,
    -0.10726961609923312,
    -0.031152907181759008,
    0.019155514553915322,
    1.1189806072997472,
    -0.3169384107520789,
    0.40944019424406103,
    3.6351189445246313e-06,
    -0.9207618581283491,
    0.8056715376935574,
    -0.26926938317312477,
    -0.3235073271377518,
    0.24014706252958778,
    0.6871556364225765,
    -0.1381253667866004,
    0.7368480357209566,
    0.7766464999798062,
    0.7841674297021302,
    -1.0244958782162947,
    -0.034698764445735,
    -0.010955497134049317,
    -0.03180302027103194,
    -0.0036593199805816236,
    3.433264125312115e-06,
    0.028319441546052045,
    -0.020579465740817943,
    0.016570774856681233,
    -0.03136474833586119,
    0.04698601197809879,
    0.02866533747638347,
    -0.007047646281829629,
    -0.018179468095684402,
    0.008233681273793708,
    -0.020093299699685475,
    0.0421908195508037,
    0.02257184930987225,
    -0.028150621059305127,
    -0.047626949777108,
    0.009226158369800888,
    2.4626384645142143e-06,
    0.17198421234915637,
    0.014735492049213438,
    -0.011123575898848694,
    -0.14560117879406986,
    -0.03689871402411065,
    0.04551711508128426,
    -0.10340413624439808,
    -0.06711677071631086,
    -0.09001593807260057,
    0.11972246987742935,
    0.11568005772006733,
    0.02744010163272747,
    0.043269124025708275,
    -0.08168039570317027,
    0.07329068026754293,
    3.4220651704547324e-07,
    0.021168634554381418,
    -0.015825522415489898,
    -0.02729324124822045,
    -0.1469080520962309,
    0.04459604777156497,
    0.06433911842135275,
    -0.06190244463378937,
    0.007993331048644966,
    0.012940887373123554,
    0.007499720227355537,
    0.004709143475133624,
    0.01398452570959792,
    -0.031241866987436463,
    -0.005315946696382558,
    -0.027291156754201223,
    4.916692423092165e-07,
    0.001097839254119053,
    -0.014732725649490446,
    0.009639829894040648,
    0.031352403332491625,
