{
  "gc1.weight": [
    0.18113568425178528,
    0.19750329852104187,
    -0.04857153445482254,
    0.21965336799621582,
    -0.044779546558856964,
    0.04045163840055466,
    -0.11171440780162811,
    0.13682202994823456,
    0.21038663387298584,
    -0.1734081208705902,
    0.2072998583316803,
    0.0567847304046154,
    0.1747102439403534,
    0.023868680000305176,
    0.11054868251085281,
    -0.045296378433704376,
    0.18272249400615692,
    0.026957638561725616,
    -0.10671169310808182,
    0.053728677332401276,
    -0.10518589615821838,
    -0.019325030967593193,
    -0.1115313470363617,
    0.15584394335746765,
    -0.1873435527086258,
    -0.10525432229042053,
    -0.060600731521844864,
    -0.1403215378522873,
    0.013599423691630363,
    -0.2369205504655838,
    0.2157781571149826,
    -0.2023678570985794,
    0.1830078810453415,
    0.03160959109663963,
    -0.07117859274148941,
    0.16445313394069672,
    0.028967823833227158,
    0.19199183583259583,
    0.017335981130599976,
    -0.06884583085775375,
    0.057173896580934525,
    -0.057797808200120926,
    0.11521290987730026,
    0.23320303857326508,
    0.13451574742794037,
    -0.09929421544075012,
    0.134317547082901,
    0.03473250940442085,
    0.11696033179759979,
    -0.1423775851726532,
    -0.23747792840003967,
    -0.08659052103757858,
    -0.18175674974918365,
    0.195135697722435,
    0.08200647681951523,
    0.09355531632900238,
    0.0690678209066391,
    0.0056052301079034805,
    0.20565174520015717,
    -0.16762936115264893,
    0.0057788146659731865,
    -0.16063621640205383,
    0.06709059327840805,
    -0.09609029442071915,
    0.06660667806863785,
    -0.04208917170763016,
    0.1973489224910736,
    -0.1581752598285675,
    -0.1391008347272873,
    -0.13910983502864838,
    0.21486102044582367,
    0.07331518083810806,
    0.23056350648403168,
    -0.19632002711296082,
    -0.25796830654144287,
    -0.18559108674526215,
    -0.1777755469083786,
    0.09126344323158264,
    0.07952120155096054,
    0.19773127138614655,
    -0.11910788714885712,
    -0.16042912006378174,
    0.1226460412144661,
    -0.09105271100997925,
    0.14173227548599243,
    -0.049328528344631195,
    0.1330130696296692,
    -0.18424302339553833,
    -0.11616402864456177,
    0.06622173637151718,
    0.042912427335977554,
    -0.053745802491903305,
    0.1390189230442047,
    0.15995348989963531,
    -0.1712944358587265,
    -0.1234688013792038,
    0.21891635656356812,
    -0.07436224073171616,
    -0.07863135635852814,
    -0.23189929127693176,
    -0.13316895067691803,
    0.05245411768555641,
    -0.022999174892902374,
    -0.17147259414196014,
    -0.004101836122572422,
    -0.16077154874801636,
    -0.20210044085979462,
    -0.14765837788581848,
    -0.20880380272865295,
    -0.14918574690818787,
    0.2399030178785324,
    0.037222497165203094,
    0.0670425221323967,
    -0.22317193448543549,
    -0.1541946679353714,
    -0.0732157900929451,
    0.029097892343997955,
    -0.20998123288154602,
    -0.11771640181541443,
    -0.13966847956180573,
    -0.009026606567203999,
    -0.08302795141935349,
    -0.007325402460992336,
    -0.15940898656845093,
    -0.16160114109516144,
    -0.13585208356380463,
    -0.07557669281959534,
    -0.18732088804244995,
    0.1996184140443802,
    -0.03961670771241188,
    0.20510011911392212,
    0.08789343386888504,
    -0.20170019567012787,
    0.16300995647907257,
    -0.05878712981939316,
    -0.0858336016535759,
    -0.19751858711242676,
    -0.23854096233844757,
    0.08152735233306885,
    -0.06460972130298615,
    0.10733002424240112,
    -0.19516682624816895,
    0.17560836672782898,
    -0.17351604998111725,
    -0.03317296877503395,
    0.04222125560045242,
    0.11906450241804123,
    0.191828653216362,
    0.21774068474769592,
    -0.18823154270648956,
    0.052920520305633545,
    -0.09753334522247314,
    -0.01740349642932415,
    -0.17712359130382538,
    0.21771563589572906,
    -0.1734888106584549,
    0.12361407279968262,
    0.07786217331886292,
    0.07124144583940506,
    -0.1251630336046219,
    0.21723875403404236,
    0.044941239058971405,
    0.022166229784488678,
    -0.21031448245048523,
    0.09494902193546295,
    -0.02751048095524311,
    -0.10453219711780548,
    0.2047375738620758,
    0.04574078321456909,
    -0.12832054495811462,
    -0.11653540283441544,
    -0.02193330228328705,
    0.1295996904373169,
    -0.05388656258583069,
    -0.1326451152563095,
    -0.09560453146696091,
    -0.17676977813243866,
    0.07916036248207092,
    0.18351109325885773,
    -0.22536110877990723,
    0.048066116869449615,
    0.11914949119091034,
    0.03533550724387169,
    -0.07903340458869934,
    0.12048706412315369,
    0.12137981504201889,
    0.08348514884710312,
    -0.0339328870177269,
    -0.05620252341032028,
    0.01680886000394821,
    -0.0341680534183979,
    -0.08446104824542999,
    0.14980296790599823,
    0.2048506736755371,
    -0.014757413417100906,
    -0.045977942645549774,
    -0.006297403015196323,
    -0.004940439946949482,
    0.05010388046503067,
    0.0600612610578537,
    -0.21706506609916687,
    -0.08226160705089569,
    0.20053325593471527,
    0.08739160001277924,
    -0.02243245579302311,
    -0.14072775840759277,
    -0.1429525762796402,
    -0.2139427661895752,
    -0.07149305939674377,
    0.09442374110221863,
    0.14940667152404785,
    0.1254221796989441,
    -0.2109869122505188,
    -0.14034195244312286,
    -0.029457610100507736,
    0.23183821141719818,
    0.026169899851083755,
    -0.05474577471613884,
    0.11342836916446686,
    -0.10521802306175232,
    -0.1518145203590393,
    0.17247292399406433,
    -0.10367720574140549,
    -0.04012422636151314,
    -0.23870186507701874,
    0.1573188602924347,
    0.1794097125530243,
    0.0811145082116127,
    -0.1643196940422058,
    -0.23673579096794128,
    -0.19304566085338593,
    0.17642612755298615,
    0.11002810299396515,
    0.20037706196308136,
    0.12096920609474182,
    0.05327833071351051,
    -0.012435950338840485,
    -0.1801275610923767,
    -0.20419397950172424,
    -0.22383804619312286,
    0.09234244376420975,
    -0.11274362355470657,
    -0.0403171181678772,
    -0.1338777095079422,
    -0.035560280084609985,
    -0.16595986485481262,
    -0.15335501730442047,
    0.07293011248111725,
    -0.06430178880691528,
    0.14433708786964417,
    -0.0702044889330864,
    -0.1733928918838501,
    -0.034117575734853745,
    -0.11118850111961365,
    -0.06648801267147064,
    -0.2279997617006302,
    0.12987415492534637,
    -0.16405227780342102,
    0.11565601825714111,
    0.10344669222831726,
    0.16860929131507874,
    -0.18176405131816864,
    0.1897980272769928,
    -0.10818959772586823,
    0.08276945352554321,
    0.22477951645851135,
    -0.025258779525756836,
    0.008066114038228989,
    -0.047558169811964035,
    -0.1987469643354416,
    0.10997737944126129,
    -0.23818089067935944,
    0.14520126581192017,
    0.17705734074115753,
    0.22642743587493896,
    -0.04897284507751465,
    -0.19541145861148834,
    0.0462111234664917,
    0.12810836732387543,
    -0.23882798850536346,
    -0.04674944281578064,
    -0.1398652046918869,
    -0.011872711591422558,
    -0.11305506527423859,
    -0.09219369292259216,
    -0.06936723738908768,
    -0.2275768518447876,
    0.19512780010700226,
    0.1995837539434433,
    -0.029218478128314018,
    -0.018477536737918854,
    -0.0920310914516449,
    -0.21576659381389618,
    -0.23328691720962524,
    0.10291218757629395,
    -0.12726299464702606,
    -0.1507204920053482,
    -0.009516040794551373,
    -0.09325104206800461,
    -0.09086804836988449,
    0.018031207844614983,
    -0.043031878769397736,
    -0.07608042657375336,
    -0.10970515757799149,
    -0.19345782697200775,
    0.21962612867355347,
    -0.09004878252744675,
    0.07624475657939911,
    -0.07674378156661987,
    0.010325155220925808,
    0.24307501316070557,
    0.10518240928649902,
    -0.20665083825588226,
    0.08922771364450455,
    0.24731063842773438,
    0.055770933628082275,
    0.1776060312986374,
    0.23647283017635345,
    -0.02831246703863144,
    0.04188871383666992,
    -0.16375993192195892,
    -0.04152315855026245,
    0.17514702677726746,
    0.11816297471523285,
    -0.14819851517677307,
    -0.19047224521636963,
    -0.16084207594394684,
    -0.2367202341556549,
    -0.18291078507900238,
    -0.05182758718729019,
    0.1587204784154892,
    0.03185076266527176,
    -0.18015237152576447,
    -0.19055697321891785,
    0.1143704280257225,
    -0.1759614199399948,
    -0.02078835852444172,
    0.10992781072854996,
    -0.10570474714040756,
    -0.01726081222295761,
    -0.011770302429795265,
    -0.04914921894669533,
    -0.11676021665334702,
    -0.21286049485206604,
    -0.19209024310112,
    -0.12386690825223923,
    0.23146048188209534,
    -0.11075524985790253,
    -0.17775575816631317,
    0.05060185492038727,
    0.05890548229217529,
    0.12697918713092804,
    0.18003115057945251,
    0.12921997904777527,
    -0.2378760576248169,
    0.012181296944618225,
    0.14143958687782288,
    -0.013115014880895615,
    -0.13732106983661652,
    0.22833579778671265,
    -0.08350910246372223,
    -0.1323375403881073,
    -0.2153896540403366,
    0.0011829808354377747,
    0.10078509151935577,
    0.04534432291984558,
    0.03944147750735283,
    -0.17959797382354736,
    -0.22347266972064972,
    -0.005591250956058502,
    0.21795940399169922,
    0.13423167169094086,
    -0.13555994629859924,
    -0.02245829626917839,
    -0.1742963194847107,
    -0.11060751229524612,
    0.03527900204062462,
    0.12613609433174133,
    0.2170407623052597,
    -0.21952804923057556,
    0.17715102434158325,
    -0.16632407903671265,
    0.08361895382404327,
    0.2015620619058609,
    -0.006432757712900639,
    0.21745312213897705,
    -0.2030138075351715,
    -0.08549176156520844,
    0.1358145922422409,
    -0.04447063431143761,
    -0.04117899388074875,
    -0.09419983625411987,
    0.16232769191265106,
    0.11262743175029755,
    0.07011526823043823,
    -0.1304924339056015,
    -0.19293835759162903,
    0.017047544941306114,
    0.06407240778207779,
    -0.10542979836463928,
    -0.059952277690172195,
    0.15884318947792053,
    0.009924957528710365,
    0.0012808935716748238,
    -0.051528386771678925,
    -0.21639831364154816,
    -0.22506622970104218,
    -0.10950544476509094,
    -0.11708192527294159,
    0.067890964448452,
    -0.06277991831302643,
    -0.08780598640441895,
    0.22835826873779297,
    0.07708199322223663,
    0.1682267040014267,
    -0.11102984100580215,
    -0.09211866557598114,
    0.08188698440790176,
    -0.15656998753547668,
    -0.17342466115951538,
    -0.0020914534106850624,
    -0.08144235610961914,
    -0.17741522192955017,
    0.13829109072685242,
    0.1910417079925537,
    0.03056076541543007,
    -0.03353960067033768,
    -0.22156862914562225,
    -0.08106070756912231,
    0.053649548441171646,
    0.10788442194461823,
    -0.04160335287451744,
    -0.08884023129940033,
    0.1293077915906906,
    -0.1891009360551834,
    0.14800533652305603,
    -0.08699077367782593,
    -0.006121654063463211,
    -0.039405856281518936,
    0.020316332578659058,
    -0.0655522495508194,
    0.17178283631801605,
    -0.016495410352945328,
    0.18515127897262573,
    0.23037093877792358,
    -0.11179938167333603,
    -0.17237837612628937,
    0.19057627022266388,
    0.18590450286865234,
    -0.1808878779411316,
    -0.009336162358522415,
    -0.2365323156118393,
    -0.19465075433254242,
    0.03828977420926094,
    0.05650956183671951,
    0.042999036610126495,
    -0.05804411321878433,
    0.22064530849456787,
    0.02576226368546486,
    -0.13752248883247375,
    -0.024145422503352165,
    0.050039634108543396,
    0.07755044847726822,
    -0.16677135229110718,
    0.083699531853199,
    -0.11772198230028152,
    -0.19773605465888977,
    -0.12655235826969147,
    0.23110316693782806,
    0.20371538400650024,
    0.2138722538948059,
    0.13675417006015778,
    0.17886343598365784,
    -0.02346840873360634,
    -0.12755781412124634,
    0.11491585522890091,
    -0.11954788118600845,
    -0.15871764719486237,
    -0.06983601301908493,
    0.042472388595342636,
    0.11870070546865463,
    -0.08710431307554245,
    -0.13714294135570526,
    0.023725047707557678,
    -0.1373596489429474,
    -0.15276658535003662,
    0.12031382322311401,
    -0.032000914216041565,
    0.21844711899757385,
    0.23319648206233978,
    0.06477770209312439,
    0.07604216784238815,
    0.04757828637957573,
    -0.006033957935869694,
    -0.008194099180400372,
    0.013424018397927284,
    0.08335833251476288,
    0.2224435657262802,
    -0.0547928586602211,
    -0.09568680822849274,
    -0.05054451525211334,
    -0.11078272014856339,
    0.03251492232084274,
    0.17661316692829132,
    0.18549537658691406,
    0.10478311777114868,
    -0.17398379743099213,
    -0.12417708337306976,
    -0.04492935538291931,
    -0.036085374653339386,
    0.01057165116071701,
    -0.2194940447807312,
    0.06781375408172607,
    -0.18071898818016052,
    -0.14818742871284485,
    -0.1978464275598526,
    0.20783083140850067,
    -0.22673580050468445,
    0.1785927712917328,
    0.0015720333904027939,
    -0.01908157393336296,
    0.14637090265750885,
    -0.03309372812509537,
    0.14678992331027985,
    0.17075493931770325,
    -0.20705343782901764,
    0.08619807660579681,
    0.03719773516058922,
    0.043756648898124695,
    0.02650497853755951,
    0.058385662734508514,
    -0.11026979237794876,
    -0.021991532295942307,
    0.227530837059021,
    0.1579638123512268,
    0.0005866382271051407,
    -0.22513356804847717,
    0.0009751627221703529,
    -0.1602441817522049,
    0.19329911470413208,
    -0.14177247881889343,
    -0.008061470463871956,
    -0.045489270240068436,
    0.034490324556827545,
    0.2252577543258667,
    0.013779928907752037,
    0.13479238748550415,
    0.18405678868293762,
    0.19182878732681274,
    -0.07634018361568451,
    -0.06590990722179413,
    0.11048610508441925,
    -0.058219850063323975,
    0.10706770420074463,
    -0.044618405401706696,
    -0.15956424176692963,
    0.09176218509674072,
    0.028332095593214035,
    0.10146388411521912,
    0.23837235569953918,
    0.16068440675735474,
    0.22699612379074097,
    0.0033956309780478477,
    -0.2050543874502182,
    -0.16538295149803162,
    -0.14529472589492798,
    -0.2103128582239151,
    -0.11531347781419754,
    -0.22014281153678894,
    -0.22065469622612,
    -0.13938960433006287,
    -0.23645921051502228,
    -0.14345428347587585,
    0.08532926440238953,
    0.1985141634941101,
    -0.0643707662820816,
    -0.06272244453430176,
    0.12348982691764832,
    -0.11334434151649475,
    -0.10820955038070679,
    0.14403367042541504,
    -0.20782633125782013,
    0.020585326477885246,
    0.21084639430046082,
    0.03287629038095474,
    0.05798889324069023,
    -0.13559885323047638,
    -0.013444753363728523,
    0.003777323290705681,
    0.05136197432875633,
    0.08713855594396591,
    0.2072327733039856,
    -0.18082591891288757,
    -0.002479557879269123,
    -0.11491067707538605,
    -0.187766894698143,
    -0.010029393248260021,
    -0.21006011962890625,
    0.16447606682777405,
    0.018960604444146156,
    -0.12474100291728973,
    0.12064629793167114,
    -0.2266077846288681,
    -0.08670181035995483,
    -0.038708239793777466,
    -0.20243851840496063,
    -0.14897334575653076,
    -0.03080907091498375,
    0.17969220876693726,
    0.23141461610794067,
    0.14906686544418335,
    -0.13928161561489105,
    -0.15355651080608368,
    0.2081742137670517,
    0.07843068242073059,
    -0.0033280551433563232,
    0.023838937282562256,
    -0.19092518091201782,
    -0.07347175478935242,
    0.23065517842769623,
    -0.05171967297792435,
    -0.002708657644689083,
    -0.19758373498916626,
    -0.1298542618751526,
    0.004856076091527939,
    -0.14529059827327728,
    -0.021008849143981934,
    0.1117379441857338,
    -0.23454514145851135,
    0.0642557144165039,
    -0.1553027182817459,
    -0.11201440542936325,
    0.08597950637340546,
    0.18878106772899628,
    -0.05832749232649803,
    -0.09265154600143433,
    -0.2160595804452896,
    -0.11891569942235947,
    -0.20891015231609344,
    -0.06721611320972443,
    0.04101777821779251,
    -0.22421962022781372,
    0.2082792967557907,
    0.14684805274009705,
    -0.23473727703094482,
    -0.10940992832183838,
    0.07153994590044022,
    -0.041368789970874786,
    -0.017251458019018173,
    -0.10288069397211075,
    0.19080530107021332,
    -0.1297498345375061,
    0.19732002913951874,
    0.006142949685454369,
    0.04025942459702492,
    0.18503333628177643,
    -0.03119625337421894,
    -0.13233762979507446,
    -0.03043850138783455,
    0.19276416301727295,
    -0.17549791932106018,
    0.04674863442778587,
    -0.2356981784105301,
    0.12107706069946289,
    0.08236909657716751,
    0.0006168996915221214,
    0.11729779094457626,
    0.010280205868184566,
    0.14833566546440125,
    -0.18790599703788757,
    -0.026718568056821823,
    0.10090412199497223,
    0.23895500600337982,
    0.13731274008750916,
    -0.17179469764232635,
    0.18227757513523102,
    -0.045753151178359985,
    -0.04338235780596733,
    -0.21722814440727234,
    -0.02935865893959999,
    0.1668328195810318,
    0.024866940453648567,
    -0.13561424612998962,
    0.06695393472909927,
    -0.07016284763813019,
    0.2182493954896927,
    -0.2069895714521408,
    -0.08892222493886948,
    -0.2313942164182663,
    -0.0884595736861229,
    0.06881444901227951,
    0.2306545376777649,
    0.031991347670555115,
    0.235090434551239,
    0.03894011303782463,
    0.1343853771686554,
    0.19041654467582703,
    0.19898179173469543,
    -0.12993168830871582,
    0.2198481559753418,
    0.14144288003444672,
    -0.10689646005630493,
    -0.10930252075195312,
    -0.1996874362230301,
    0.05278749763965607,
    -0.1926383078098297,
    0.09560806304216385,
    0.06895075738430023,
    -0.20720146596431732,
    0.05812815576791763,
    -0.010472923517227173,
    0.10420618951320648,
    0.1334487944841385,
    -0.23853705823421478,
    0.21927596628665924,
    0.21965622901916504,
    0.10945086181163788,
    -0.2184911072254181,
    -0.0793074294924736,
    -0.08244970440864563,
    -0.05425259843468666,
    0.13099896907806396,
    0.0808948427438736,
    0.18804961442947388,
    -0.0836329236626625,
    0.07413731515407562,
    0.07894977927207947,
    -0.1981486678123474,
    -0.23250578343868256,
    -0.11972381174564362,
    0.1611405462026596,
    -0.22536605596542358,
    -0.20760942995548248,
    0.13005156815052032,
    0.1248837262392044,
    0.19559895992279053,
    -0.17873573303222656,
    -0.1729760766029358,
    0.11824822425842285,
    0.20740897953510284,
    0.13958604633808136,
    0.029168128967285156,
    0.09239063411951065,
    0.22728252410888672,
    -0.15130232274532318,
    -0.1035047098994255,
    0.16486917436122894,
    -0.16107000410556793,
    -0.1278541535139084,
    0.17249886691570282,
    0.06888305395841599,
    0.0707690492272377,
    -0.09596198797225952,
    0.00649223942309618,
    0.2188090682029724,
    -0.14005613327026367,
    -0.007933719083666801,
    0.10890156775712967,
    -0.162589892745018,
    0.23279504477977753,
    -0.1149042397737503,
    -0.05003733932971954,
    -0.057643741369247437,
    -0.15291573107242584,
    -0.23531672358512878,
    0.13096565008163452,
    0.056421540677547455,
    -0.2241511195898056,
    -0.1509079486131668,
    0.23709321022033691,
    0.0855608582496643,
    0.11030622571706772,
    -0.13957585394382477,
    -0.09960085153579712,
    -0.027739357203245163,
    -0.03572435304522514,
    -0.1613132655620575,
    0.010605936869978905,
    0.03484651818871498,
    -0.04165266454219818,
    0.044657062739133835,
    -0.08908966183662415,
    0.05506604164838791,
    0.08428579568862915,
    -0.12168626487255096,
    -0.23789557814598083,
    0.12086012959480286,
    0.06962232291698456,
    -0.11714856326580048,
    0.23092631995677948,
    -0.10306336730718613,
    0.15893788635730743,
    0.11683370172977448,
    -0.19960297644138336,
    0.1512366682291031,
    -0.21986906230449677,
    -0.12851379811763763,
    -0.03168352320790291,
    -0.15851281583309174,
    0.23422835767269135,
    -0.04014889895915985,
    0.08929944783449173,
    -0.21322888135910034,
    0.13391846418380737,
    -0.06769850850105286,
    -0.18016886711120605,
    0.02655940316617489,
    0.11111709475517273,
    0.2063501924276352,
    -0.1426994651556015,
    -0.11302807182073593,
    0.03807675465941429,
    0.05781738832592964,
    0.08612014353275299,
    0.1272202581167221,
    -0.04669131338596344,
    0.12889385223388672,
    0.17432397603988647,
    -0.055308446288108826,
    0.16786502301692963,
    0.11214651167392731,
    0.210514098405838,
    -0.13206908106803894,
    -0.11345386505126953,
    -0.06228749454021454,
    0.0026973187923431396,
    0.160048246383667,
    -0.13271617889404297,
    0.13516150414943695,
    -0.07959755510091782,
    0.14102864265441895,
    -0.021868297830224037,
    -0.209022656083107,
    -0.1275620013475418,
    -0.1709391176700592,
    0.13399019837379456,
    -0.15763823688030243,
    -0.010839151218533516,
    0.043940261006355286,
    -0.1271001249551773,
    0.06212028115987778,
    -0.2341066598892212,
    -0.1688772737979889,
    -0.2165357917547226,
    -0.0656203180551529,
    -0.08107650279998779,
    0.025803927332162857,
    -0.05622575432062149,
    0.10752221196889877,
    0.21919971704483032,
    0.07970000803470612,
    -0.0884934812784195,
    -0.22409726679325104,
    0.08055268973112106,
    -0.11386610567569733,
    0.11722065508365631,
    0.1571224331855774,
    0.08643219619989395,
    0.2245786339044571,
    0.2274499237537384,
    0.04293953999876976,
    -0.1721602827310562,
    0.2133612185716629,
    -0.10862583667039871,
    -0.10809008777141571,
    0.19919562339782715,
    0.18370361626148224,
    0.06553966552019119,
    0.005683702416718006,
    -0.2002924233675003,
    -0.03593512624502182,
    0.22978241741657257,
    0.05366784334182739,
    0.01141384057700634,
    -0.04192601516842842,
    -0.07719702273607254,
    0.13900689780712128,
    0.0054345643147826195,
    0.1526447832584381,
    -0.03425154834985733,
    0.09922913461923599,
    0.09319478273391724,
    0.029871046543121338,
    0.14709404110908508,
    0.14666275680065155,
    0.22173167765140533,
    0.1821950376033783,
    -0.05392729490995407,
    -0.20165599882602692,
    0.03570874035358429,
    0.007816634140908718,
    -0.05520755052566528,
    -0.03186452388763428,
    0.0017751893028616905,
    0.1724085658788681,
    0.0679365023970604,
    -0.07877583056688309,
    -0.09280802309513092,
    -0.05191105976700783,
    -0.08662623167037964,
    0.21480660140514374,
    0.12241283804178238,
    0.21574538946151733,
    -0.008957217447459698,
    0.04042168706655502,
    0.07669347524642944,
    -0.2266387641429901,
    0.03226117044687271,
    -0.026721404865384102,
    -0.13016493618488312,
    -0.18398787081241608,
    0.21131978929042816,
    0.19326747953891754,
    0.10586793720722198,
    0.22856327891349792,
    -0.09145363420248032,
    -0.03318530321121216,
    0.08465676009654999,
    -0.0313071608543396,
    -0.03906278312206268,
    -0.19664132595062256,
    0.05716829374432564,
    -0.1410825252532959,
    -0.0009044762700796127,
    0.2537385821342468,
    -0.06695576012134552,
    -0.06880047172307968,
    0.14082911610603333,
    -0.0819154903292656,
    -0.011474774219095707,
    0.22343547642230988,
    -0.11248350143432617,
    -0.16885367035865784,
    -0.1299123615026474,
    -0.05931191146373749,
    -0.10862637311220169,
    -0.11973448097705841,
    0.09098809957504272,
    0.052484020590782166,
    -0.07001592963933945,
    -0.18422819674015045,
    -0.06871749460697174,
    -0.09551168233156204,
    -0.09135399013757706,
    -0.2155316323041916,
    0.043861422687768936,
    -0.17368197441101074,
    -0.18470048904418945,
    -0.19425927102565765,
    0.09434783458709717,
    -0.1405106633901596,
    -0.09318964928388596,
    0.18596118688583374,
    0.12274257093667984,
    0.1333511620759964,
    -0.22737747430801392,
    -0.1692771166563034,
    -0.08437986671924591,
    0.19652536511421204,
    0.015579814091324806,
    -0.17697535455226898,
    -0.008308395743370056,
    -0.1841687262058258,
    -0.04477847367525101,
    -0.05874667316675186,
    0.2064163237810135,
    0.0674365907907486,
    -0.03359736502170563,
    0.032236918807029724,
    -0.0621691569685936,
    0.08822720497846603,
    0.08889318257570267,
    0.05713937431573868,
    -0.08744628727436066,
    0.20328861474990845,
    -0.02609776332974434,
    -0.08733122050762177,
    0.14657941460609436,
    0.19376514852046967,
    0.23879081010818481,
    0.0640672817826271,
    -0.0752258151769638,
    0.136972576379776,
    0.2044895589351654,
    -0.23520934581756592,
    -0.020978190004825592,
    -0.1604916900396347,
    0.03659060597419739,
    0.11339560151100159,
    -0.041648443788290024,
    -0.0109238401055336,
    0.10252822935581207,
    -0.03202218934893608,
    -0.19994592666625977,
    0.19003498554229736,
    -0.1158299446105957,
    -0.017471905797719955,
    0.013590069487690926,
    -0.005025807768106461,
    -0.22517234086990356,
    0.10470173507928848,
    -0.10355963557958603,
    -0.11966602504253387,
    0.04973052069544792,
    -0.12046695500612259,
    -0.10554163157939911,
    -0.07423985749483109,
    -0.08392191678285599,
    -0.09441128373146057,
    -0.057424433529376984,
    0.05497202277183533,
    -0.19230547547340393,
    -0.14132139086723328,
    -0.006297607906162739,
    0.044765036553144455,
    0.12807457149028778,
    -0.165612131357193,
    0.06980174034833908,
    0.13209830224514008,
    0.12881578505039215,
    -0.2228560745716095,
    -0.08540304005146027,
    -0.2048923373222351,
    -0.1482042819261551,
    0.12924715876579285,
    -0.027331486344337463,
    0.09617972373962402,
    -0.13675275444984436,
    0.027995236217975616,
    -0.14121580123901367,
    0.13474403321743011,
    -0.0993465781211853,
    -0.052692972123622894,
    -0.20690874755382538,
    0.010825223289430141,
    0.2273711860179901,
    0.13133397698402405,
    -0.12338677793741226,
    -0.006578686647117138,
    -0.03740894794464111,
    -0.19126954674720764,
    0.1860252469778061,
    -0.005920451134443283,
    0.0626484751701355,
    -0.09095922857522964,
    -0.10698148608207703,
    0.031223364174365997,
    0.08242989331483841,
    0.046078067272901535,
    -0.1104879230260849,
    0.2527230679988861,
    -0.04679885506629944,
    -0.16310127079486847,
    -0.10693024843931198,
    0.2361060082912445,
    -0.009966296143829823,
    -0.023941945284605026,
    -0.09404236823320389,
    -0.05553939938545227,
    -0.20055776834487915,
    -0.18867187201976776,
    0.1363237351179123,
    0.20386341214179993,
    0.2285759449005127,
    -0.1704866886138916,
    0.12521730363368988,
    -0.1447426974773407,
    0.139141246676445,
    0.170389324426651,
    0.1834687739610672,
    0.1700139343738556,
    0.14639444649219513,
    -0.005093150772154331,
    0.10487234592437744,
    -0.07944496721029282,
    0.098859503865242,
    -0.07035297900438309,
    0.005754746496677399,
    -0.20759540796279907,
    -0.055371709167957306,
    -0.12146975845098495,
    -0.0743325725197792,
    -0.1496475338935852,
    -0.2148619443178177,
    0.026277106255292892,
    0.15224595367908478,
    0.21768823266029358,
    0.13588927686214447,
    -0.11958588659763336,
    -0.23725324869155884,
    0.08483056724071503,
    0.13007977604866028,
    -0.20462894439697266,
    0.07964874804019928,
    0.20137052237987518,
    0.005157327279448509,
    -0.1406160295009613,
    0.1949700564146042,
    0.09675561636686325,
    0.15555240213871002,
    -0.15907250344753265,
    0.13548776507377625,
    -0.16076958179473877,
    0.23737436532974243,
    -0.09592682123184204,
    0.14064309000968933,
    0.040064387023448944,
    0.05625524744391441,
    -0.028343964368104935,
    0.09268578886985779,
    -0.09420482814311981,
    -0.22564566135406494,
    -0.08605284988880157,
    0.18588566780090332,
    -0.05581964552402496,
    0.06858398765325546,
    -0.08243522047996521,
    0.17753838002681732,
    0.13962389528751373,
    0.07825756072998047,
    -0.11779198795557022,
    -0.19428344070911407,
    -0.0005664471536874771,
    -0.13666865229606628,
    0.19554941356182098,
    -0.23024477064609528,
    0.10171806812286377,
    0.23922930657863617,
    0.1152086928486824,
    0.07524703443050385,
    -0.2305377572774887,
    0.23047441244125366,
    -0.052759043872356415,
    -0.22360296547412872,
    0.23679152131080627,
    -0.09173499792814255,
    -0.007698199711740017,
    0.2188207507133484,
    -0.16330133378505707,
    -0.16687360405921936,
    0.030659249052405357,
    -0.023469451814889908,
    0.04758863151073456,
    -0.1996772736310959,
    -0.0024966634809970856,
    -0.10119172930717468,
    -0.11290404200553894,
    -0.21890997886657715,
    0.12255597114562988,
    0.03816327452659607,
    -0.2013617604970932,
    0.1883888989686966,
    0.06540786474943161,
    0.056383587419986725,
    -0.13678546249866486,
    0.04769629240036011,
    0.23088587820529938,
    0.16147229075431824,
    -0.1847183108329773,
    0.21820616722106934,
    0.009387750178575516,
    0.11024294793605804,
    0.1841769963502884,
    0.20312809944152832,
    -0.18488441407680511,
    0.20891688764095306,
    -0.1597948968410492,
    0.008743319660425186,
    -0.16469204425811768,
    -0.04480940103530884,
    -0.0013782493770122528,
    -0.019910108298063278,
    -0.02949903905391693,
    0.009727767668664455,
    0.2366059422492981,
    0.13525426387786865,
    0.12986890971660614,
    0.09006386250257492,
    0.18360672891139984,
    -0.021533355116844177,
    0.029876478016376495,
    0.04145315662026405,
    -0.20803354680538177,
    -0.19139260053634644,
    0.020656868815422058,
    -0.08781460672616959,
    0.005369149148464203,
    -0.047368373721838,
    0.02892083302140236,
    0.15265512466430664,
    -0.07291322201490402,
    0.19021615386009216,
    0.18739144504070282,
    -0.1818755716085434,
    -0.18305757641792297,
    -0.1922696977853775,
    -0.1270066350698471,
    -0.08732112497091293,
    -0.008827983401715755,
    -0.0508011169731617,
    -0.11631371825933456,
    -0.06942591816186905,
    -0.08043834567070007,
    0.23526078462600708,
    -0.08265936374664307,
    -0.16900134086608887,
    0.11386348307132721,
    -0.004454219713807106,
    0.18139204382896423,
    0.14620943367481232,
    0.23967647552490234,
    -0.173091322183609,
    0.15071991086006165,
    0.19981063902378082,
    -0.1134594976902008,
    0.21979551017284393,
    0.17741180956363678,
    -0.0071896882727742195,
    0.11053977161645889,
    -0.07740767300128937,
    -0.20804686844348907,
    0.053198184818029404,
    0.064534492790699,
    -0.15339097380638123,
    0.11125156283378601,
    -0.2035565972328186,
    0.20515695214271545,
    0.23209841549396515,
    0.05806753784418106,
    -0.14685846865177155,
    0.11166944354772568,
    0.03260863199830055,
    0.057982634752988815,
    0.07216610014438629,
    0.18033993244171143,
    -0.11745484173297882,
    -0.04623982310295105,
    0.05817941203713417,
    0.037239812314510345,
    0.1915954053401947,
    -0.12131115049123764,
    0.0008739177137613297,
    0.05671263113617897,
    -0.0563976988196373,
    0.18042869865894318,
    0.03734244406223297,
    -0.22105835378170013,
    -0.03708261623978615,
    -0.10339098423719406,
    0.014317493885755539,
    -0.01906086504459381,
    -0.23800033330917358,
    -0.0355607271194458,
    -0.013953170739114285,
    -0.08371276408433914,
    0.21969598531723022,
    -0.044553447514772415,
    0.15060554444789886,
    0.0719262883067131,
    -0.20103362202644348,
    0.06874538958072662,
    0.19718505442142487,
    -0.15352638065814972,
    -0.17159275710582733,
    0.23471307754516602,
    0.1908784806728363,
    -0.129474937915802,
    0.14043782651424408,
    -0.02198926918208599,
    -0.2364831566810608,
    0.028757158666849136,
    0.07077597826719284,
    -0.06499288231134415,
    0.07697316259145737,
    -0.20377618074417114,
    0.16325505077838898,
    0.2031347155570984,
    0.12786813080310822,
    0.032377541065216064,
    0.07233887910842896,
    -0.17088806629180908,
    -0.052471548318862915,
    -0.0138752656057477,
    -0.12912248075008392,
    -0.17465609312057495,
    0.15815557539463043,
    0.15966184437274933,
    -0.21704792976379395,
    0.06955549120903015,
    0.09170251339673996,
    0.22749602794647217,
    0.13463954627513885,
    0.21983470022678375,
    -0.07184987515211105,
    0.16509774327278137,
    0.19335198402404785,
    -0.22608286142349243,
    -0.190677672624588,
    0.04060531407594681,
    0.12651026248931885,
    -0.11420487612485886,
    0.017540879547595978,
    -0.010361455380916595,
    0.05328007787466049,
    -0.12433888018131256,
    0.13101117312908173,
    0.1562540978193283,
    -0.1634654402732849,
    0.012388692237436771,
    -0.009026099927723408,
    0.07028142362833023,
    0.22289709746837616,
    0.06331858783960342,
    -0.046809013932943344,
    0.21453411877155304,
    -0.1051313504576683,
    -0.06259569525718689,
    0.007080537267029285,
    -0.20037397742271423,
    0.017211681231856346,
    -0.15962004661560059,
    0.015712933614850044,
    0.0339493602514267,
    0.044603534042835236,
    -0.20082518458366394,
    -0.22744691371917725,
    0.1050310730934143,
    0.20439952611923218,
    -0.21184399724006653,
    0.08260072022676468,
    -0.17403146624565125,
    0.005673723295331001,
    0.22259028255939484,
    0.17965584993362427,
    -0.1727866232395172,
    0.14464426040649414,
    0.12058082222938538,
    0.00912083126604557,
    0.23218218982219696,
    -0.08929478377103806,
    -0.048204414546489716,
    -0.11635511368513107,
    0.02597976289689541,
    0.0561976432800293,
    0.0099300816655159,
    -0.13066069781780243,
    -0.10254339128732681,
    0.07504080981016159,
    -0.20920751988887787,
    -0.028938768431544304,
    0.004452738910913467,
    -0.09129294753074646,
    0.08098171651363373,
    0.006125826388597488,
    0.16551722586154938,
    -0.012211878784000874,
    -0.147785946726799,
    0.1666390746831894,
    0.024917926639318466,
    -0.061602335423231125,
    -0.1547769159078598,
    0.06859686225652695,
    -0.22843897342681885,
    0.0758441612124443,
    0.11361280083656311,
    -0.20930103957653046,
    -0.1536683440208435,
    -0.16973257064819336,
    0.20012758672237396,
    0.202531099319458,
    0.025649994611740112,
    0.22470174729824066,
    -0.07357633113861084,
    -0.23270638287067413,
    0.07732601463794708,
    0.07856732606887817,
    0.23509639501571655,
    0.009916712529957294,
    0.18160007894039154,
    0.14324326813220978,
    0.17094331979751587,
    -0.2380838394165039,
    0.1958654820919037,
    -0.20311415195465088,
    0.21412865817546844,
    -0.0003794189542531967,
    -0.21155492961406708,
    0.05952504277229309,
    -0.040890831500291824,
    -0.2145492285490036,
    -0.08063676208257675,
    0.01578201726078987,
    0.18471267819404602,
    -0.06686002016067505,
    0.13849332928657532,
    0.021308958530426025,
    -0.0015493575483560562,
    0.03784042224287987,
    -0.15406981110572815,
    -0.19780051708221436,
    -0.06855544447898865,
    -0.2229643613100052,
    -0.10658811777830124,
    0.0015073344111442566,
    -0.15465465188026428,
    -0.09370121359825134,
    -0.03492605686187744,
    -0.03879924118518829,
    -0.12800508737564087,
    0.02201221138238907,
    -0.02509581670165062,
    0.08149854838848114,
    0.0013095429167151451,
    -0.11484403908252716,
    -0.07607116550207138,
    0.007049631327390671,
    -0.14599759876728058,
    0.009581453166902065,
    -0.0076516661792993546,
    0.0870032086968422,
    0.06916624307632446,
    0.17713455855846405,
    0.0017344346269965172,
    -0.19472606480121613,
    0.10175403207540512,
    -0.15896067023277283,
    -0.024368908256292343,
    -0.07095128297805786,
    -0.08486323058605194,
    -0.08249814063310623,
    0.21973657608032227,
    0.13311560451984406,
    0.059287235140800476,
    0.22473999857902527,
    -0.21655584871768951,
    0.030344925820827484,
    0.15004496276378632,
    0.15607373416423798,
    -0.18896444141864777,
    0.07897298038005829,
    -0.13242289423942566,
    0.00021111220121383667,
    -0.04217139631509781,
    -0.19874197244644165,
    -0.22847944498062134,
    -0.15447570383548737,
    0.10344714671373367,
    0.10436062514781952,
    -0.20744185149669647,
    -0.08388770371675491,
    0.014082335866987705,
    -0.20614676177501678,
    0.13086512684822083,
    0.21643398702144623,
    0.03421996161341667,
    -0.1757553368806839,
    0.04830002039670944,
    0.08075561374425888,
    0.18796177208423615,
    -0.12301896512508392,
    -0.2139783352613449,
    0.0998394712805748,
    0.005570458248257637,
    -0.07145905494689941,
    -0.09475748986005783,
    -0.11890550702810287,
    0.19237521290779114,
    -0.033139005303382874,
    0.17030279338359833,
    0.2131633162498474,
    0.021675333380699158,
    0.0432576984167099,
    -0.0070379190146923065,
    0.16170501708984375,
    -0.21527285873889923,
    0.08942221105098724,
    -0.03073711320757866,
    0.10415582358837128,
    -0.011075284332036972,
    -0.0825686827301979,
    -0.0169948972761631,
    0.12499968707561493,
    -0.16363365948200226,
    -0.1480257213115692,
    -0.04600106179714203,
    -0.08068334311246872,
    0.08821183443069458,
    0.15824320912361145,
    -0.016782110556960106,
    0.22639410197734833,
    -0.09445691108703613,
    -0.13029314577579498,
    -0.10192529857158661,
    -0.16224424540996552,
    -0.16523973643779755,
    -0.21275478601455688,
    -0.21157070994377136,
    0.055252715945243835,
    0.1424664855003357,
    0.22471284866333008,
    0.2029498666524887,
    -0.004412239417433739,
    0.03851577639579773,
    -0.1395866423845291,
    0.08663234114646912,
    -0.22971110045909882,
    0.10791991651058197,
    0.03585739806294441,
    0.0668286681175232,
    0.08153927326202393,
    -0.10478045046329498,
    0.20452752709388733,
    0.10931479930877686,
    0.15422488749027252,
    0.04301534965634346,
    0.1469981074333191,
    0.15825316309928894,
    0.10331319272518158,
    0.18044322729110718,
    -0.0353487953543663,
    0.1543852537870407,
    0.04760325327515602,
    0.14042532444000244,
    0.2335004061460495,
    0.046612806618213654,
    -0.08279389142990112,
    -0.014875798486173153,
    0.06038495898246765,
    0.032157059758901596,
    -0.05829545855522156,
    0.185881108045578,
    0.14020441472530365,
    -0.14528942108154297,
    -0.010380173102021217,
    -0.014006766490638256,
    -0.1466839760541916,
    0.026469219475984573,
    -0.06675293296575546,
    -0.11906691640615463,
    -0.07038723677396774,
    -0.07913938164710999,
    0.2291608452796936,
    0.10589180886745453,
    0.23602911829948425,
    0.05855180323123932,
    0.046611346304416656,
    0.11277271807193756,
    0.03291330859065056,
    -0.18619395792484283,
    -0.13783909380435944,
    -0.050572946667671204,
    -0.006222190335392952,
    0.08418074250221252,
    0.08626414835453033,
    0.18832935392856598,
    0.040903203189373016,
    -0.07532564550638199,
    -0.17800764739513397,
    -0.17310303449630737,
    -0.13933570683002472,
    0.0654035434126854,
    0.1250695139169693,
    0.20873034000396729,
    -0.06908025592565536,
    -0.009723654016852379,
    -0.06424406915903091,
    0.008872251957654953,
    0.0702512189745903,
    0.004470854997634888,
    0.02150217443704605,
    0.021678103134036064,
    0.08312608301639557,
    -0.06585297733545303,
    -0.13907574117183685,
    0.048982057720422745,
    -0.01960814744234085,
    -0.10325875878334045,
    0.09499265253543854,
    -0.007725076749920845,
    -0.026367705315351486,
    -0.13101151585578918,
    -0.02289748750627041,
    -0.2025822103023529,
    0.06684678792953491,
    -0.0061953067779541016,
    0.14170949161052704,
    0.006154981441795826,
    0.0299857035279274,
    0.0581061914563179,
    0.18023544549942017,
    -0.10813982784748077,
    0.13925261795520782,
    0.05114365741610527,
    -0.1567803919315338,
    0.07704923301935196,
    -0.1599329710006714,
    -0.08869442343711853,
    -0.10916900634765625,
    -0.1600797176361084,
    0.18689477443695068,
    -0.21345610916614532,
    0.11500535905361176,
    -0.2150038629770279,
    -0.040401726961135864,
    0.004923944361507893,
    0.16772876679897308,
    -0.08047455549240112,
    0.061959654092788696,
    0.02873164229094982,
    0.1370975822210312,
    0.024862226098775864,
    0.083613820374012,
    -0.14102329313755035,
    -0.16372890770435333,
    0.21277031302452087,
    -0.17216964066028595,
    -0.032564617693424225,
    -0.020226646214723587,
    0.23447084426879883,
    -0.04403194785118103,
    -0.1803271472454071,
    -0.05337788164615631,
    0.11895694583654404,
    0.08907456696033478,
    0.19682398438453674,
    -0.04118313640356064,
    0.10776292532682419,
    -0.2252608984708786,
    0.08673703670501709,
    0.10486766695976257,
    0.1512729972600937,
    -0.13336195051670074,
    -0.056747592985630035,
    0.050486236810684204,
    -0.16765479743480682,
    -0.18887265026569366,
    -0.23051153123378754,
    0.003970024175941944,
    0.16520509123802185,
    0.05421808734536171,
    0.005254341289401054,
    0.07710876315832138,
    -0.14710167050361633,
    0.03635483235120773,
    -0.052106376737356186,
    -0.1137872189283371,
    0.20559421181678772,
    -0.18341463804244995,
    0.02664252370595932,
    -0.2096790373325348,
    0.0014947941526770592,
    -0.10109106451272964,
    0.07228929549455643,
    -0.13038592040538788,
    0.17000864446163177,
    -0.1928677260875702,
    0.14016024768352509,
    -0.17779593169689178,
    0.14389503002166748,
    -0.11520589143037796,
    0.009417042136192322,
    -0.03562973439693451,
    0.1522587537765503,
    0.07193224132061005,
    -0.21030199527740479,
    0.012993824668228626,
    -0.16246674954891205,
    0.17689280211925507,
    0.031079798936843872,
    -0.05429831147193909,
    -0.1175432875752449,
    0.07653454691171646,
    -0.13972561061382294,
    0.1085672453045845,
    0.12642349302768707,
    0.14345240592956543,
    0.05531033128499985,
    -0.20884312689304352,
    0.16983038187026978,
    -0.06755823642015457,
    -0.06391166150569916,
    -0.016867171972990036,
    0.17278482019901276,
    0.18223269283771515,
    0.028608188033103943,
    0.10928964614868164,
    -0.22300003468990326,
    -0.009081869386136532,
    -0.21117180585861206,
    0.07508973777294159,
    -0.16811378300189972,
    -0.07910342514514923,
    0.16475895047187805,
    0.22892481088638306,
    -0.14009644091129303,
    -0.1287541687488556,
    0.020967967808246613,
    0.08827835321426392,
    -0.03072298876941204,
    -0.06807484477758408,
    -0.1542121320962906,
    0.09672079980373383,
    0.2349412441253662,
    -0.11102142930030823,
    0.10791762173175812,
    0.11210029572248459,
    0.19095033407211304,
    -0.018466176465153694,
    -0.0021221432834863663,
    0.1736758053302765,
    0.14802974462509155,
    0.2369275540113449,
    -0.06164530664682388,
    0.08892367780208588,
    0.1645701825618744,
    -0.15970538556575775,
    0.0396687313914299,
    -0.045941758900880814,
    0.15070797502994537,
    -0.10228358209133148,
    0.007546036504209042,
    0.13957901298999786,
    -0.21902987360954285,
    -0.2010914385318756,
    -0.11804699897766113,
    0.15035578608512878,
    0.15763314068317413,
    -0.16074413061141968,
    0.037676017731428146,
    -0.12247172743082047,
    -0.10603989660739899,
    0.20560529828071594,
    0.11075393110513687,
    -0.05837365612387657,
    0.026802822947502136,
    0.03844336420297623,
    0.04856366664171219,
    -0.07557201385498047,
    -0.1372227519750595,
    0.15551716089248657,
    0.02359909936785698,
    0.09463932365179062,
    -0.08468453586101532,
    0.11109423637390137,
    0.17194251716136932,
    0.14204469323158264,
    0.05797688663005829,
    0.2359715849161148,
    0.009100358933210373,
    0.04322802275419235,
    0.22753334045410156,
    0.2329750806093216,
    -0.09555692225694656,
    0.2152017205953598,
    0.08226819336414337,
    -0.017997760325670242,
    0.20828747749328613,
    -0.11950884759426117,
    0.15243837237358093,
    0.23773685097694397,
    -0.16242669522762299,
    -0.1375245749950409,
    -0.23772934079170227,
    -0.03499388322234154,
    -0.21705177426338196,
    -0.0737328752875328,
    0.06590192764997482,
    0.16672055423259735,
    0.12926024198532104,
    0.12877166271209717,
    0.0937187597155571,
    -0.14505961537361145,
    -0.1885015070438385,
    0.0003826916217803955,
    0.22739654779434204,
    0.004086912609636784,
    -0.011511757038533688,
    -0.15968552231788635,
    -0.11396118253469467,
    -0.18271684646606445,
    0.1901680827140808,
    -0.030737321823835373,
    -0.21085341274738312,
    0.016826115548610687,
    0.008153056725859642,
    -0.020893629640340805,
    0.07949516177177429,
    0.12444622069597244,
    -0.22510352730751038,
    -0.18152396380901337,
    -0.002026604488492012,
    -0.22178523242473602,
    -0.21709081530570984,
    0.21072852611541748,
    -0.009025372564792633,
    -0.11359920352697372,
    -0.07575654983520508,
    -0.1851816475391388,
    0.18509259819984436,
    -0.044213395565748215,
    -0.13056091964244843,
    -0.17960426211357117,
    0.13612379133701324,
    -0.024564474821090698,
    -0.01626770570874214,
    -0.055161379277706146,
    -0.11068237572908401,
    0.0344754159450531,
    0.18234364688396454,
    -0.1348964273929596,
    0.0019948482513427734,
    -0.18012937903404236,
    -0.10722598433494568,
    0.20944340527057648,
    -0.007154721766710281,
    0.2308305948972702,
    -0.03380560502409935,
    -0.12626251578330994,
    -0.13937342166900635,
    0.21157954633235931,
    -0.18224777281284332,
    0.12120010703802109,
    0.05214878171682358,
    0.06377951800823212,
    0.1310614049434662,
    -0.05540807172656059,
    0.14469218254089355,
    -0.18918141722679138,
    -0.07796260714530945,
    0.1730114370584488,
    0.06420738995075226,
    -0.02329913340508938,
    -0.04838608577847481,
    -0.14265494048595428,
    0.14202488958835602,
    -0.017946138978004456,
    -0.01845434308052063,
    0.049126747995615005,
    0.1744881570339203,
    -0.11754745244979858,
    -0.07610167562961578,
    0.1594088077545166,
    0.13119453191757202,
    -0.11298561841249466,
    -0.237315833568573,
    0.036382149904966354,
    0.1214747428894043,
    0.04971763491630554,
    0.16732971370220184,
    -0.1883695274591446,
    0.1359877735376358,
    -0.14542143046855927,
    0.13070301711559296,
    0.17592966556549072,
    0.06918154656887054,
    0.1922694891691208,
    -0.15478910505771637,
    -0.21359483897686005,
    -0.23037712275981903,
    0.14695951342582703,
    0.07757977396249771,
    -0.17306779325008392,
    0.11107311397790909,
    0.21810394525527954,
    -0.23652172088623047,
    0.17135636508464813,
    0.048338696360588074,
    0.0331231951713562,
    0.21494953334331512,
    0.2163984328508377,
    0.09533970057964325,
    0.1875346601009369,
    0.09400803595781326,
    0.05073006823658943,
    -0.20975366234779358,
    0.05668822303414345,
    -0.1678626984357834,
    0.06696915626525879,
    0.03411315381526947,
    -0.0043480899184942245,
    -0.16093283891677856,
    -0.14155063033103943,
    0.17478573322296143,
    0.11175616830587387,
    0.12181176990270615,
    -0.06449689716100693,
    -0.03305371105670929,
    -0.05407587066292763,
    0.16192449629306793,
    -0.09792286157608032,
    0.1474674791097641,
    0.1623740792274475,
    -0.21863988041877747,
    -0.008344033733010292,
    -0.03761511668562889,
    -0.1282070279121399,
    0.09793122857809067,
    -0.020380333065986633,
    0.2088777720928192,
    -0.14647799730300903,
    0.10616610199213028,
    -0.203449085354805,
    -0.11530701071023941,
    0.007054457440972328,
    0.18752430379390717,
    0.1216813251376152,
    -0.19527234137058258,
    0.01769457943737507,
    -0.13737380504608154,
    0.0008508572354912758,
    -0.19826939702033997,
    -0.06334609538316727,
    0.1614677906036377,
    -0.21938490867614746,
    -0.22835659980773926,
    0.035543039441108704,
    0.02427930384874344,
    -0.035725753754377365,
    0.20830394327640533,
    -0.1405237317085266,
    -0.1417713761329651,
    -0.17687009274959564,
    -0.036534931510686874,
    -0.05380340665578842,
    0.14468801021575928,
    -0.0040514785796403885,
    0.06984169036149979,
    -0.09389109164476395,
    0.19279909133911133,
    0.20075564086437225,
    -0.2138930708169937,
    -0.0542537085711956,
    -0.20212537050247192,
    0.0962086021900177,
    -0.2084217220544815,
    -0.1082044392824173,
    0.23979391157627106,
    -0.22873058915138245,
    0.17445221543312073,
    0.0311083123087883,
    0.1899096667766571,
    -0.11687390506267548,
    0.15420913696289062,
    0.02017006278038025,
    0.009238491766154766,
    0.16063421964645386,
    -0.2276325821876526,
    -0.19136400520801544,
    0.231441929936409,
    -0.14012546837329865,
    -0.17020303010940552,
    -0.022221319377422333,
    -0.07002811133861542,
    -0.024206973612308502,
    -0.1574975848197937,
    0.08020676672458649,
    -0.20512133836746216,
    0.010258102789521217,
    0.13588637113571167,
    0.03803817555308342,
    0.023223478347063065,
    0.02657148614525795,
    -0.06323923170566559,
    -0.0376257486641407,
    -0.09542436897754669,
    -0.15888331830501556,
    -0.1223655417561531,
    0.23714086413383484,
    -0.03184390068054199,
    0.07757628709077835,
    0.16288967430591583,
    -0.02952796407043934,
    -0.1244950145483017,
    -0.15938591957092285,
    -0.08211547881364822,
    0.07923635840415955,
    -0.20054058730602264,
    -0.020530741661787033,
    0.08509780466556549,
    0.19396507740020752,
    0.06523499637842178,
    0.0394461564719677,
    0.16114884614944458,
    0.10552255809307098,
    0.07458078861236572,
    -0.06751421838998795,
    -0.1904757022857666,
    -0.044001542031764984,
    -0.03534536436200142,
    0.00837018620222807,
    -0.017495959997177124,
    0.09107410907745361,
    0.15613871812820435,
    -0.09135705232620239,
    -0.22721576690673828,
    -0.11826641112565994,
    -0.1096203625202179,
    0.1317114531993866,
    -0.15126214921474457,
    -0.033506061881780624,
    -0.04298854619264603,
    -0.1417337954044342,
    0.10332298278808594,
    -0.09413982182741165,
    -0.0029484862461686134,
    -0.16577231884002686,
    -0.015215307474136353,
    0.025527074933052063,
    -0.0001928228884935379,
    -0.08341406285762787,
    0.08427061140537262,
    -0.05477503687143326,
    -0.12859997153282166,
    -0.17435891926288605,
    -0.04296116158366203,
    -0.24616800248622894,
    0.19750595092773438,
    -0.10943419486284256,
    -0.09360648691654205,
    0.013110729865729809,
    0.054811395704746246,
    -0.013581578619778156,
    0.16154731810092926,
    -0.1357387751340866,
    0.07959742844104767,
    0.009093604981899261,
    -0.19336849451065063,
    -0.08682417124509811,
    0.053642332553863525,
    0.037766121327877045,
    0.17178495228290558,
    0.15724891424179077,
    -0.12635716795921326,
    -0.09675924479961395,
    -0.04301411658525467,
    -0.16910606622695923,
    -0.05750042572617531,
    -0.19457919895648956,
    0.08508773148059845,
    0.1668909639120102,
    0.009804200381040573,
    -0.16897127032279968,
    -0.17932797968387604,
    -0.08732682466506958,
    0.06271561980247498,
    -0.003869306296110153,
    0.03545988351106644,
    0.22562116384506226,
    0.10611222684383392,
    0.06375301629304886,
    -0.04058442637324333,
    0.1282610446214676,
    0.0814623236656189,
    -0.21502645313739777,
    -0.13767774403095245,
    -0.0015847841277718544,
    0.08486269414424896,
    0.11162736266851425,
    -0.13882020115852356,
    -0.23803065717220306,
    -0.003024263307452202,
    -0.01858573593199253,
    0.06254775077104568,
    -0.07875077426433563,
    0.1811317503452301,
    0.006707778200507164,
    0.17256282269954681,
    -0.164086252450943,
    0.09001099318265915,
    0.019795741885900497,
    -0.11503753811120987,
    0.11393856257200241,
    -0.23600566387176514,
    0.19211775064468384,
    0.03014495223760605,
    0.034137286245822906,
    0.1256108283996582,
    0.030748814344406128,
    0.09716475754976273,
    0.14905428886413574,
    -0.18511563539505005,
    0.15539298951625824,
    -0.027440037578344345,
    -0.04813821613788605,
    0.04032436013221741,
    0.18553894758224487,
    -0.12590429186820984,
    -0.15848396718502045,
    0.14515310525894165,
    -0.10741867870092392,
    0.09048689156770706,
    -0.04682955890893936,
    0.07881181687116623,
    0.18077994883060455,
    -0.11670132726430893,
    -0.1313152313232422,
    0.11265681684017181,
    0.023686230182647705,
    -0.01752180978655815,
    -0.20959770679473877,
    0.20181553065776825,
    0.0005111983045935631,
    -0.03604751080274582,
    -0.09262442588806152,
    -0.0393386110663414,
    0.11151021718978882,
    0.004253210499882698,
    0.20380344986915588,
    -0.00443440955132246,
    -0.025868525728583336,
    0.13111430406570435,
    -0.01646720990538597,
    -0.03990224748849869,
    0.09355601668357849,
    0.1871587485074997,
    0.07238716632127762,
    0.1640806794166565,
    0.15201079845428467,
    0.08069910109043121,
    0.07692444324493408,
    0.07067352533340454,
    0.015939392149448395,
    0.22268390655517578,
    0.22078539431095123,
    0.07899763435125351,
    -0.002487044781446457,
    0.21414940059185028,
    -0.20457887649536133,
    0.17369705438613892,
    0.12245817482471466,
    0.15053527057170868,
    -0.009211203083395958,
    -0.1765255481004715,
    0.16833584010601044,
    -0.09931483864784241,
    0.055781178176403046,
    0.13163769245147705,
    -0.22363226115703583,
    0.026579633355140686,
    -0.07880854606628418,
    0.16744033992290497,
    -0.14917662739753723,
    0.14179375767707825,
    0.1458936631679535,
    0.1279301792383194,
    0.23000390827655792,
    0.027868058532476425,
    -0.21659624576568604,
    0.16846735775470734,
    0.012895424850285053,
    -0.00475558266043663,
    -0.22814816236495972,
    -0.04619261994957924,
    -0.11134359240531921,
    0.23485367000102997,
    0.16800855100154877,
    0.1764981895685196,
    0.1612103283405304,
    -0.14496976137161255,
    -0.09737056493759155,
    -0.08783961087465286,
    -0.09022116661071777,
    0.184609055519104,
    0.09494022279977798,
    0.19033950567245483,
    -0.0017118025571107864,
    -0.21285703778266907,
    -0.06253356486558914,
    0.1656998097896576,
    0.1422027051448822,
    0.08739272505044937,
    -0.06333253532648087,
    -0.2233429104089737,
    -0.12433234602212906,
    0.12034664303064346,
    -0.11083901673555374,
    0.10958632081747055,
    0.07825843244791031,
    -0.08602391183376312,
    0.16226893663406372,
    -0.07033563405275345,
    0.0016703084111213684,
    -0.08522868156433105,
    -0.22714373469352722,
    0.030314508825540543,
    0.06224508583545685,
    -0.11587052047252655,
    0.1433621644973755,
    -0.2142641842365265,
    -0.23099493980407715,
    -0.1444135308265686,
    -0.09640078246593475,
    -0.017771728336811066,
    -0.03831608593463898,
    0.10409887135028839,
    -0.2094070464372635,
    0.02681731805205345,
    -0.005624603480100632,
    0.05603683739900589,
    0.2385208159685135,
    0.14386342465877533,
    -0.12842759490013123,
    -0.1948639154434204,
    -0.050531160086393356,
    -0.11540816724300385,
    0.07732857763767242,
    -0.0076217446476221085,
    0.1910816878080368,
    0.08820357918739319,
    -0.035971928387880325,
    -0.0013842927291989326,
    0.06985962390899658,
    -0.021028246730566025,
    0.19173464179039001,
    -0.18547606468200684,
    0.11185311526060104,
    -0.1493622362613678,
    -0.20902128517627716,
    -0.04132550209760666,
    0.11182734370231628,
    0.16664212942123413,
    0.052739132195711136,
    -0.011616498231887817,
    -0.024004478007555008,
    -0.09134730696678162,
    -0.012443260289728642,
    -0.007285051979124546,
    0.2027415782213211,
    0.13631241023540497,
    -0.19005697965621948,
    -0.008959034457802773,
    -0.143768772482872,
    -0.02969025820493698,
    -0.18869303166866302,
    0.05499400570988655,
    -0.17027050256729126,
    0.2368060201406479,
    0.17880170047283173,
    -0.16209088265895844,
    -0.2253667414188385,
    -0.00022512022405862808,
    -0.07977326959371567,
    0.06339439749717712,
    -0.15922905504703522,
    0.09233725816011429,
    -0.20593827962875366,
    -0.12194275110960007,
    -0.12142696231603622,
    0.1109744980931282,
    0.003424231894314289,
    -0.25025686621665955,
    -0.15277966856956482,
    -0.10569532960653305,
    -0.2219582200050354,
    0.022017963230609894,
    0.09908383339643478,
    -0.03587377071380615,
    -0.08948821574449539,
    0.008353669196367264,
    -0.18857136368751526,
    -0.1422266960144043,
    0.004263472743332386,
    0.2120952159166336,
    -0.06687968969345093,
    0.11391647905111313,
    -0.08838963508605957,
    -0.05655224248766899,
    -0.22798699140548706,
    0.1971222162246704,
    0.23343271017074585,
    0.0047112442553043365,
    0.14884378015995026,
    0.19448639452457428,
    0.1141807809472084,
    0.11875637620687485,
    -0.22799833118915558,
    -0.22491851449012756,
    -0.18188612163066864,
    0.06820666790008545,
    -0.20624509453773499,
    -0.1808372139930725,
    -0.11117735505104065,
    -0.22042216360569,
    -0.00966090802103281,
    0.026071876287460327,
    -0.13630147278308868,
    0.1536925584077835,
    -0.0849127396941185,
    -0.060384601354599,
    0.1804698407649994,
    0.20463883876800537,
    -0.01868455670773983,
    -0.1694706380367279,
    -0.11541885882616043,
    0.04182300716638565,
    0.13654948770999908,
    0.11446277797222137,
    -0.10039742290973663,
    -0.226342111825943,
    -0.20878787338733673,
    -0.06954039633274078,
    -0.006800590083003044,
    -0.10229568183422089,
    -0.18768048286437988,
    0.016354508697986603,
    -0.18843619525432587,
    -0.18198208510875702,
    -0.19323742389678955,
    -0.05774631351232529,
    0.2108154296875,
    0.08773190528154373,
    -0.019648997113108635,
    0.04145669937133789,
    0.08955428004264832,
    0.011378786526620388,
    -0.1916445791721344,
    -0.14402951300144196,
    -0.15983936190605164,
    0.003620520234107971,
    -0.21885129809379578,
    -0.03545967489480972,
    -0.0814201831817627,
    0.235343337059021,
    0.19320715963840485,
    0.13521480560302734,
    0.004034806042909622,
    -0.0709453746676445,
    0.053770747035741806,
    -0.16273356974124908,
    -0.09662787616252899,
    -0.04022432863712311,
    -0.04874267056584358,
    -0.22682636976242065,
    0.0893847793340683,
    0.1958714872598648,
    -0.1278950273990631,
    0.057394541800022125,
    -0.018995478749275208,
    0.0008600028231739998,
    0.02457180991768837,
    0.20664654672145844,
    0.02350359968841076,
    -0.14816966652870178,
    -0.0799306109547615,
    0.1121334582567215,
    0.06801619380712509,
    0.01485848892480135,
    -0.04299289733171463,
    -0.08726964890956879,
    -0.07873404771089554,
    -0.12187300622463226,
    0.030966099351644516,
    0.0602133646607399,
    0.18143731355667114,
    -0.046481892466545105,
    0.007902471348643303,
    0.15157361328601837,
    0.09874950349330902,
    0.022126756608486176,
    0.06682226061820984,
    0.00299200601875782,
    -0.2044488787651062,
    -0.0003539957106113434,
    -0.04464706405997276,
    0.21560385823249817,
    0.2156578153371811,
    0.039601683616638184,
    0.21345163881778717,
    -0.11875628679990768,
    0.20729433000087738,
    0.20524722337722778,
    0.0004373304545879364,
    -0.19062834978103638,
    -0.07067656517028809,
    -0.05685873329639435,
    -0.005822302773594856,
    -0.2166636884212494,
    0.036335691809654236,
    -0.093974769115448,
    -0.05402612313628197,
    -0.11912447959184647,
    -0.042787276208400726,
    -0.22218213975429535,
    -0.12254347652196884,
    0.013039912097156048,
    0.1538202315568924,
    0.2171878218650818,
    -0.17911455035209656,
    0.09498219192028046,
    -0.13092537224292755,
    -0.20328514277935028,
    -0.0010269638150930405,
    -0.13341306149959564,
    -0.20531252026557922,
    -0.2236345261335373,
    -0.15733814239501953,
    0.19543451070785522,
    0.12942832708358765,
    -0.08896379172801971,
    -0.1573314219713211,
    -0.18231149017810822,
    -0.1376315802335739,
    -0.09287652373313904,
    0.14014917612075806,
    0.07181655615568161,
    -0.0863451138138771,
    0.1621093600988388,
    -0.14530959725379944,
    -0.19367296993732452,
    0.04456620290875435,
    -0.12785160541534424,
    0.06112132593989372,
    0.20181003212928772,
    -0.10822804272174835,
    -0.1644541323184967,
    0.084101602435112,
    -0.21578766405582428,
    0.21304666996002197,
    -0.10806573927402496,
    0.11086632311344147,
    -0.18879394233226776,
    -0.15921823680400848,
    0.03753608465194702,
    0.07885346561670303,
    0.18384981155395508,
    0.19908493757247925,
    -0.004378761164844036,
    -0.02214287593960762,
    0.05132468789815903,
    -0.048076190054416656,
    -0.001466352492570877,
    -0.2267644703388214,
    -0.19522784650325775,
    0.16131678223609924,
    -0.13609053194522858,
    0.18687254190444946,
    0.017443213611841202,
    0.05089950188994408,
    0.2172199785709381,
    -0.12904900312423706,
    -0.02946953848004341,
    0.034296873956918716,
    0.09540765732526779,
    -0.23330442607402802,
    0.07885606586933136,
    -0.13743284344673157,
    0.022843599319458008,
    0.15913887321949005,
    -0.014911828562617302,
    0.0020660730078816414,
    -0.008689540438354015,
    0.19862136244773865,
    0.13208377361297607,
    0.03204707056283951,
    -0.14045462012290955,
    -0.12576070427894592,
    0.1891397088766098,
    0.16985628008842468,
    0.13475975394248962,
    -0.18492992222309113,
    0.20469605922698975,
    -0.013905583880841732,
    0.17419034242630005,
    0.20713786780834198,
    0.017410051077604294,
    -0.09403152018785477,
    0.2251635491847992,
    -0.12028172612190247,
    0.15335489809513092,
    -0.22972334921360016,
    -0.0686299055814743,
    -0.20796458423137665,
    -0.10214583575725555,
    0.09615665674209595,
    -0.16913297772407532,
    -0.2062019258737564,
    0.16875982284545898,
    0.12345662713050842,
    0.0071935756132006645,
    -0.1662413626909256,
    -0.05623713135719299,
    -0.07094831764698029,
    0.14439889788627625,
    -0.07177368551492691,
    -0.06200667843222618,
    -0.16721592843532562,
    -0.10774773359298706,
    0.12536364793777466,
    0.1510726362466812,
    0.02632732316851616,
    -0.08380059897899628,
    0.23012341558933258,
    0.059340957552194595,
    -0.08650103211402893,
    -0.07665161043405533,
    -0.04497382417321205,
    0.1085260882973671,
    0.08144433051347733,
    0.17124123871326447,
    -0.001267806626856327,
    0.19677415490150452,
    -0.09154879301786423,
    -0.10513988882303238,
    -0.08232651650905609,
    -0.22455285489559174,
    -0.15411122143268585,
    -0.2162194401025772,
    -0.004778999835252762,
    0.012346586212515831,
    -0.0548887774348259,
    -0.16084706783294678,
    0.21682284772396088,
    -0.0728374645113945,
    0.1291261911392212,
    0.1641036868095398,
    -0.15433983504772186,
    -0.02126217633485794,
    0.13449320197105408,
    0.23234033584594727,
    -0.021546613425016403,
    0.1711568981409073,
    -0.18621757626533508,
    -0.1524352729320526,
    0.19558438658714294,
    -0.013670617714524269,
    0.23698145151138306,
    0.008190288208425045,
    -0.11367447674274445,
    0.22742971777915955,
    0.2086218148469925,
    0.013210107572376728,
    -0.14155273139476776,
    -0.0008426755666732788,
    -0.11023087799549103,
    0.17217117547988892,
    0.0015981243923306465,
    0.04263416677713394,
    0.1416175663471222,
    0.07281152904033661,
    -0.14606785774230957,
    0.1976819783449173,
    0.14358749985694885,
    -0.14433535933494568,
    0.1790267676115036,
    0.06092868000268936,
    -0.03921627998352051,
    -0.16879194974899292,
    -0.0314866378903389,
    -0.23511165380477905,
    0.1326916366815567,
    0.17106425762176514,
    -0.06197729706764221,
    0.2217632681131363,
    -0.0825750008225441,
    0.03281361237168312,
    -0.16422465443611145,
    -0.02034895122051239,
    0.09105955064296722,
    0.09768548607826233,
    0.00157838873565197,
    -0.11606717109680176,
    0.16474775969982147,
    0.15551766753196716,
    0.05010718107223511,
    -0.10497072339057922,
    0.043010152876377106,
    0.01066464465111494,
    0.21840161085128784,
    0.0270535871386528,
    0.009292703121900558,
    0.02708701230585575,
    0.12300334870815277,
    0.0069067832082509995,
    0.20428702235221863,
    0.12024901062250137,
    -0.17890825867652893,
    0.0012486240593716502,
    -0.20220284163951874,
    -0.18195317685604095,
    0.05857187509536743,
    0.046183232218027115,
    -0.011887197382748127,
    0.22761647403240204,
    -0.12430442869663239,
    -0.09477334469556808,
    -0.03004140406847,
    0.011514183133840561,
    -0.011178522370755672,
    0.2150978147983551,
    -0.09558819234371185,
    -0.12077027559280396,
    0.01149056851863861,
    0.17777161300182343,
    0.06933779269456863,
    0.12468461692333221,
    0.058390241116285324,
    0.20307305455207825,
    0.14015723764896393,
    0.16889426112174988,
    -0.023678448051214218,
    -0.19697484374046326,
    -0.10859275609254837,
    0.09516538679599762,
    0.16538748145103455,
    -0.08767714351415634,
    0.19685573875904083,
    0.025937121361494064,
    -0.008998868055641651,
    -0.00023341644555330276,
    -0.0341726690530777,
    0.22404800355434418,
    0.0008791135624051094,
    0.14312852919101715,
    -0.20100440084934235,
    -0.11880674958229065,
    0.01811627298593521,
    0.18962593376636505,
    0.10902351140975952,
    0.03761865198612213,
    -0.23699872195720673,
    -0.00525111798197031,
    -0.1550266295671463,
    -0.203468918800354,
    0.024191705510020256,
    -0.1481775939464569,
    0.21691067516803741,
    -0.1258869171142578,
    0.07056956738233566,
    0.13674207031726837,
    -0.18431031703948975,
    0.11794661730527878,
    -0.023480001837015152,
    0.11954222619533539,
    0.23193450272083282,
    -0.09654244035482407,
    -0.09827698767185211,
    0.18863877654075623,
    0.017807302996516228,
    -0.014941204339265823,
    0.17966802418231964,
    -0.11078766733407974,
    -0.0023602070286870003,
    0.1617201268672943,
    0.08770817518234253,
    -0.15170493721961975,
    0.05498221516609192,
    -0.18061016499996185,
    -0.12576982378959656,
    0.1507541984319687,
    -0.056631069630384445,
    -0.1173403188586235,
    0.007739110849797726,
    0.051094863563776016,
    -0.14540550112724304,
    -0.15859203040599823,
    -0.23211804032325745,
    0.05459897220134735,
    -0.15130861103534698,
    0.009062576107680798,
    -0.0459173209965229,
    -0.15346622467041016,
    -0.06977721303701401,
    -0.18217350542545319,
    -0.12233472615480423,
    0.002181599847972393,
    -0.20372971892356873,
    -0.20925915241241455,
    0.1772661805152893,
    0.01354361791163683,
    -0.10056526958942413,
    0.0016638301312923431,
    0.17539221048355103,
    -0.19856736063957214,
    -0.12254739552736282,
    -0.17078623175621033,
    -0.008177953772246838,
    0.0013735918328166008,
    -0.18482747673988342,
    0.16352257132530212,
    -0.18198098242282867,
    0.22340978682041168,
    -0.1620934158563614,
    -0.024269837886095047,
    0.036748506128787994,
    -0.10112151503562927,
    0.2199113667011261,
    -0.16235972940921783,
    -0.0238533653318882,
    -0.17356634140014648,
    0.059400539845228195,
    0.20314770936965942,
    0.22189857065677643,
    0.0196851696819067,
    -0.1151629164814949,
    0.23296155035495758,
    0.008668303489685059,
    0.15914542973041534,
    -0.11985588818788528,
    -0.10602358728647232,
    -0.19753426313400269,
    0.2200317531824112,
    0.05146292224526405,
    -0.16954845190048218,
    0.03146914020180702,
    -0.09722814708948135,
    0.0025050994008779526,
    0.07298316061496735,
    -0.13405688107013702,
    0.03362943232059479,
    -0.14784666895866394,
    0.03817645460367203,
    -0.23138491809368134,
    0.029842887073755264,
    0.23838059604167938,
    0.22027909755706787,
    0.1011614128947258,
    0.17395862936973572,
    0.23306529223918915,
    0.06084514781832695,
    0.07338052988052368,
    0.022514671087265015,
    0.21133333444595337,
    0.2047610878944397,
    -0.10756678879261017,
    -0.000296812504529953,
    -0.11596238613128662,
    0.0797211229801178,
    -0.23224876821041107,
    0.07846932113170624,
    -0.05861501395702362,
    0.0806654766201973,
    0.06803284585475922,
    -0.1144062802195549,
    0.11970420181751251,
    0.09616440534591675,
    -0.20251131057739258,
    0.23943878710269928,
    0.22518782317638397,
    0.14554685354232788,
    -0.015375674702227116,
    0.07857419550418854,
    -0.12525536119937897,
    -0.07495057582855225,
    0.10799135267734528,
    0.10129380226135254,
    0.08899833261966705,
    -0.22843466699123383,
    0.19717025756835938,
    -0.09442219883203506,
    0.206355020403862,
    0.1959887444972992,
    0.08266367763280869,
    0.23907329142093658,
    0.1335567831993103,
    0.13662280142307281,
    -0.0948912650346756,
    0.2218722254037857,
    0.055526766926050186,
    0.15770801901817322,
    -0.04653049632906914,
    0.17105633020401,
    0.21177643537521362,
    -0.18156318366527557,
    0.21495047211647034,
    -0.15522263944149017,
    -0.16211949288845062,
    -0.19892236590385437,
    0.06224048510193825,
    -0.17770789563655853,
    -0.08411021530628204,
    -0.11567303538322449,
    0.056817684322595596,
    -0.23544108867645264,
    -0.1046120896935463,
    -0.008163658902049065,
    0.012459436431527138,
    -0.10290786623954773,
    0.07956816256046295,
    -0.1549399197101593,
    -0.2017229199409485,
    -0.02554277330636978,
    -0.12516337633132935,
    0.14758457243442535,
    -0.16088145971298218,
    -0.010997597128152847,
    0.09384043514728546,
    -0.2089356631040573,
    0.18353112041950226,
    -0.1035955473780632,
    -0.058032017201185226,
    -0.14292995631694794,
    -0.08316158503293991,
    -0.08639947324991226,
    -0.21247011423110962,
    0.07542923837900162,
    -0.010701892897486687,
    0.23455849289894104,
    0.15867026150226593,
    0.2074844390153885,
    0.06355912983417511,
    0.12136631458997726,
    0.22409817576408386,
    0.19526086747646332,
    -0.18210017681121826,
    -0.04606078192591667,
    -0.23111705482006073,
    0.019456790760159492,
    -0.07829969376325607,
    0.20698006451129913,
    0.029531370848417282,
    0.012751022353768349,
    -0.1708572804927826,
    -0.18618324398994446,
    0.029361043125391006,
    -0.11422213166952133,
    -0.12481112778186798,
    0.165359765291214,
    -0.12033063173294067,
    -0.10127800703048706,
    0.20195087790489197,
    0.0876767486333847,
    -0.13205328583717346,
    0.08571075648069382,
    0.11603593826293945,
    -0.21205106377601624,
    0.0367061011493206,
    0.06711734086275101,
    -0.019736096262931824,
    0.2297009974718094,
    -0.15524500608444214,
    0.12553060054779053,
    -0.1428036391735077,
    -0.20402750372886658,
    0.16038097441196442,
    -0.10993222892284393,
    0.021747063845396042,
    0.12147711962461472,
    -0.19866573810577393,
    -0.20399810373783112,
    0.07511760294437408,
    0.2079823762178421,
    -0.016461526975035667,
    0.1660577356815338,
    0.0778520479798317,
    0.06132932007312775,
    -0.14939424395561218,
    0.2279304563999176,
    0.10451117157936096,
    0.028661049902439117,
    0.16682825982570648,
    -0.20480775833129883,
    0.04387266933917999,
    -0.10768385976552963,
    -0.015394771471619606,
    0.091899074614048,
    0.10072601586580276,
    0.047355107963085175,
    -0.18348927795886993,
    -0.1464594304561615,
    0.014360755681991577,
    -0.0332985557615757,
    -0.19925451278686523,
    0.23629239201545715,
    0.021448399871587753,
    -0.16763867437839508,
    0.0996490865945816,
    0.09862662851810455,
    -0.11264284700155258,
    0.11536265164613724,
    -0.14508715271949768,
    0.09661855548620224,
    0.22747710347175598,
    0.15503396093845367,
    0.11342385411262512,
    -0.04086354374885559,
    0.0569320023059845,
    0.07724335789680481,
    0.05106501281261444,
    -0.04065198078751564,
    0.02488286793231964,
    -0.09125974774360657,
    -0.13131818175315857,
    -0.22070994973182678,
    -0.19382819533348083,
    -0.14693008363246918,
    0.228973388671875,
    0.04003285616636276,
    -0.2161560207605362,
    -0.11779380589723587,
    0.048398274928331375,
    -0.06482920795679092,
    -0.060767870396375656,
    -0.08388100564479828,
    -0.05106322467327118,
    0.018763747066259384,
    0.004819036461412907,
    0.15062172710895538,
    0.1499870866537094,
    0.19574885070323944,
    -0.017947765067219734,
    -0.10163172334432602,
    -0.008917836472392082,
    -0.15555435419082642,
    0.09228236228227615,
    -0.020169228315353394,
    -0.07007162272930145,
    -0.20195378363132477,
    0.11048118025064468,
    0.12954679131507874,
    0.21805760264396667,
    -0.07856978476047516,
    0.06533003598451614,
    -0.0005551781505346298,
    -0.14924371242523193,
    -0.14628846943378448,
    0.11802338063716888,
    -0.1335822492837906,
    0.1720469743013382,
    0.07734129577875137,
    0.07537946850061417,
    0.15464510023593903,
    0.11235563457012177,
    0.09782298654317856,
    0.11971640586853027,
    -0.09609464555978775,
    -0.12257184833288193,
    -0.03580472245812416,
    0.1287929266691208,
    0.16495797038078308,
    0.17410406470298767,
    -0.0688617154955864,
    -0.021727755665779114,
    -0.16170617938041687,
    0.14415034651756287,
    -0.1557830274105072,
    -0.09287407994270325,
    0.19644233584403992,
    0.05075651779770851,
    -0.09465979784727097,
    -0.1583441197872162,
    -0.1619197279214859,
    0.1917574107646942,
    -0.2185019552707672,
    0.20603325963020325,
    0.18999230861663818,
    0.005503455176949501,
    -0.010048694908618927,
    0.18443192541599274,
    0.10024599730968475,
    0.2263786494731903,
    0.19195370376110077,
    -0.1539411097764969,
    0.14428114891052246,
    0.1160840392112732,
    -0.1675039678812027,
    0.11006960272789001,
    -0.11985526233911514,
    -0.13894934952259064,
    -0.005293297581374645,
    -0.020722780376672745,
    -0.0572233647108078,
    -0.15395303070545197,
    0.12676095962524414,
    0.2392682433128357,
    -0.04539906233549118,
    -0.15844468772411346,
    -0.0028978129848837852,
    -0.2072034627199173,
    -0.1930149346590042,
    -0.07328296452760696,
    0.14707766473293304,
    -0.1815294623374939,
    -0.02989841252565384,
    -0.11981908231973648,
    -0.22019818425178528,
    -0.046282872557640076,
    -0.004576471634209156,
    -0.03203997761011124,
    0.1727849394083023,
    0.0901513546705246,
    0.1456499993801117,
    0.08792433887720108,
    0.016235150396823883,
    0.1256912648677826,
    -0.1494886577129364,
    0.11738495528697968,
    0.10909195989370346,
    -0.09610297530889511,
    -0.01857578754425049,
    -0.17912018299102783,
    -0.20876292884349823,
    -0.010272973217070103,
    0.034768298268318176,
    -0.04392872750759125,
    0.06724010407924652,
    -0.18300184607505798,
    -0.1274220496416092,
    0.16255004703998566,
    -0.25328606367111206,
    0.02926044538617134,
    0.1824691742658615,
    0.177422896027565,
    0.09527726471424103,
    -0.2177257388830185,
    0.02218509092926979,
    -0.07791582494974136,
    -0.060280267149209976,
    0.1815488636493683,
    -0.07496296614408493,
    -0.16904380917549133,
    -0.19068551063537598,
    0.14784647524356842,
    0.002079698257148266,
    0.23691704869270325,
    0.04112652316689491,
    -0.2229805439710617,
    0.05185515061020851,
    0.2187618911266327,
    0.14505797624588013,
    0.06502509117126465,
    -0.17782674729824066,
    -0.13990996778011322,
    0.15975475311279297,
    -0.15716563165187836,
    0.04703686758875847,
    -0.022032586857676506,
    0.07377254217863083,
    0.026353344321250916,
    -0.18041864037513733,
    -0.08965399861335754,
    0.20804888010025024,
    0.019435720518231392,
    0.1167653426527977,
    -0.11612728238105774,
    0.18791159987449646,
    -0.04352465644478798,
    -0.07426737248897552,
    0.04071757197380066,
    -0.07958056032657623,
    -0.09047018736600876,
    -0.025779403746128082,
    -0.00428659375756979,
    -0.13218984007835388,
    0.0754551887512207,
    -0.232296422123909,
    0.14346711337566376,
    0.22186657786369324,
    0.03045065887272358,
    -0.04841800034046173,
    -0.21897608041763306,
    0.10740196704864502,
    0.19484618306159973,
    0.20373234152793884,
    0.012301487848162651,
    0.07311780750751495,
    0.22955307364463806,
    0.027320189401507378,
    -0.1106942892074585,
    -0.2273579239845276,
    0.09930592775344849,
    0.08738790452480316,
    0.2121720016002655,
    -0.11727682501077652,
    0.09738264232873917,
    -0.07271599024534225,
    -0.05213697999715805,
    0.13587187230587006,
    -0.23916560411453247,
    0.17428666353225708,
    0.10627653449773788,
    -0.13858118653297424,
    0.13757134974002838,
    -0.05288625881075859,
    0.03249787911772728,
    -0.05691760778427124,
    -0.23478028178215027,
    -0.01589970663189888,
    0.11198153346776962,
    -0.019088050350546837,
    -0.11310482770204544,
    -0.002053419128060341,
    0.03562619537115097,
    -0.05975818634033203,
    -0.18387219309806824,
    -0.12403658777475357,
    -0.030762914568185806,
    0.0800379291176796,
    0.21231874823570251,
    -0.005317363888025284,
    0.07951276749372482,
    0.13384418189525604,
    -0.09901496022939682,
    -0.0729566365480423,
    0.15582767128944397,
    0.1689985692501068,
    0.04924309253692627,
    -0.18319664895534515,
    0.13189801573753357,
    -0.19662490487098694,
    0.11495694518089294,
    0.019653063267469406,
    0.07075615972280502,
    -0.23368778824806213,
    -0.07789601385593414,
    0.09617602825164795,
    0.18242259323596954,
    -0.061575427651405334,
    0.21293868124485016,
    -0.04579329490661621,
    -0.14078792929649353,
    -0.09826180338859558,
    0.005569593049585819,
    -0.03443782776594162,
    0.11100263148546219,
    -0.12835688889026642,
    -0.06111931800842285,
    -0.2377539575099945,
    0.19406180083751678,
    -0.03704497963190079,
    -0.18707913160324097,
    -0.0020800847560167313,
    0.009541699662804604,
    0.0594349279999733,
    -0.01744209975004196,
    0.14726705849170685,
    -0.07625825703144073,
    -0.06482941657304764,
    -0.049370817840099335,
    0.0346369743347168,
    0.19030606746673584,
    -0.0015058154240250587,
    0.1823582947254181,
    0.1863877922296524,
    -0.12016414850950241,
    -0.011489355936646461,
    -0.10801828652620316,
    0.09399542957544327,
    -0.07789415121078491,
    0.06626509875059128,
    0.024913877248764038,
    -0.15411756932735443,
    -0.15807472169399261,
    -0.2341824620962143,
    -0.12984679639339447,
    0.059841446578502655,
    0.005244574509561062,
    0.17802689969539642,
    -0.20982928574085236,
    -0.017300838604569435,
    -0.21416334807872772,
    -0.008401761762797832,
    0.0810856968164444,
    -0.2142617255449295,
    0.2107890248298645,
    -0.06765031814575195,
    0.21150991320610046,
    -0.031967535614967346,
    0.1318301260471344,
    0.21726997196674347,
    -0.08102057874202728,
    -0.050774961709976196,
    0.12113388627767563,
    -0.204033762216568,
    0.13798335194587708,
    -0.1470295786857605,
    0.2221917062997818,
    -0.15384255349636078,
    -0.09287988394498825,
    0.17654742300510406,
    -0.09884852916002274,
    0.20428875088691711,
    0.16200633347034454,
    0.21850374341011047,
    -0.2323213368654251,
    0.012796446681022644,
    -0.07223082333803177,
    0.04955426976084709,
    -0.17876383662223816,
    0.09251761436462402,
    -0.0019070515409111977,
    -0.10817340016365051,
    -0.21490179002285004,
    0.12076857686042786,
    -0.08047956973314285,
    0.17447015643119812,
    0.03450809046626091,
    0.06603771448135376,
    -0.02791890874505043,
    -0.024636756628751755,
    -0.07492976635694504,
    -0.20647622644901276,
    0.1471753567457199,
    -0.14743651449680328,
    0.13571076095104218,
    -0.07432214915752411,
    0.14661838114261627,
    0.20425653457641602,
    -0.14290283620357513,
    0.19643235206604004,
    -0.003899410367012024,
    -0.18098381161689758,
    0.09205488860607147,
    0.13156121969223022,
    0.21037869155406952,
    -0.22798091173171997,
    0.21574147045612335,
    0.17952771484851837,
    0.23594120144844055,
    0.12625300884246826,
    -0.11152991652488708,
    0.17965388298034668,
    0.21848028898239136,
    -0.08559422194957733,
    -0.0308699868619442,
    0.1856340765953064,
    0.1912466585636139,
    0.15514786541461945,
    0.18153409659862518,
    -0.11847615242004395,
    -0.03313124179840088,
    -0.08987921476364136,
    0.11993605643510818,
    0.07226783782243729,
    -0.18311430513858795,
    -0.021409282460808754,
    -0.19386474788188934,
    -0.22527971863746643,
    0.21790774166584015,
    -0.11575640738010406,
    0.10158421844244003,
    -0.04567322880029678,
    -0.06062166020274162,
    0.008736413903534412,
    0.18498292565345764,
    -0.024589795619249344,
    0.19686713814735413,
    0.13627831637859344,
    0.16150334477424622,
    -0.21673622727394104,
    -0.10690054297447205,
    -0.19368205964565277,
    -0.04310092329978943,
    -0.0417846143245697,
    0.06078825891017914,
    0.21399348974227905,
    0.1022280603647232,
    -0.16396556794643402,
    -0.14678721129894257,
    0.17877742648124695,
    0.014888565987348557,
    0.06062903255224228,
    -0.12075917422771454,
    -0.020493855699896812,
    0.06117904186248779,
    -0.1540568619966507,
    0.15316659212112427,
    0.11458761990070343,
    -0.13579441606998444,
    -0.09252069145441055,
    -0.06873922049999237,
    0.048904918134212494,
    -0.08170679211616516,
    0.22915612161159515,
    -0.23080593347549438,
    -0.13130128383636475,
    -0.14174595475196838,
    0.0575980544090271,
    0.025478342548012733,
    -0.06124183163046837,
    0.20336544513702393,
    -0.20581397414207458,
    0.07811480015516281,
    -0.12756435573101044,
    -0.04693065583705902,
    -0.23075050115585327,
    -0.17662744224071503,
    -0.2021128088235855,
    0.09907130897045135,
    -0.0838787630200386,
    0.12077564746141434,
    -0.12548869848251343,
    -0.05194437503814697,
    0.020268358290195465,
    0.21947510540485382,
    -0.057381369173526764,
    0.13493183255195618,
    0.05897167697548866,
    0.14205196499824524,
    0.14792832732200623,
    0.09145595878362656,
    -0.06538739800453186,
    -0.06016895920038223,
    0.08732564747333527,
    0.12626197934150696,
    -0.0033583305776119232,
    0.11532135307788849,
    -0.14040611684322357,
    0.13091595470905304,
    -0.020685236901044846,
    -0.16204410791397095,
    -0.11147266626358032,
    -0.18092560768127441,
    0.04043614864349365,
    -0.13826653361320496,
    -0.061593666672706604,
    -0.005676494911313057,
    -0.14254170656204224,
    -0.003574118949472904,
    -0.02173449844121933,
    0.06918804347515106,
    0.17060300707817078,
    -0.14091850817203522,
    0.12668803334236145,
    0.004665675573050976,
    -0.13289012014865875,
    -0.10337979346513748,
    0.05363762751221657,
    0.042057204991579056,
    0.0018777912482619286,
    -0.11446298658847809,
    0.11607551574707031,
    0.02709810622036457,
    -0.2330334186553955,
    -0.03422253951430321,
    -0.057830050587654114,
    -0.09667917340993881,
    -0.12867587804794312,
    -0.19281671941280365,
    0.23622679710388184,
    -0.2183544784784317,
    0.22239519655704498,
    -0.1865263432264328,
    -0.050657667219638824,
    -0.0924186185002327,
    -0.12381335347890854,
    0.07888612896203995,
    0.1349000632762909,
    -0.1542266458272934,
    -0.1064377874135971,
    0.11760764569044113,
    -0.040196966379880905,
    0.050890013575553894,
    0.12071472406387329,
    -0.1023956835269928,
    -0.1287449300289154,
    0.082026407122612,
    -0.0815509557723999,
    -0.15641145408153534,
    -0.11610549688339233,
    -0.10624299943447113,
    0.2389301210641861,
    0.03808499127626419,
    0.09767001867294312,
    0.023587148636579514,
    -0.15853752195835114,
    0.17041067779064178,
    -0.02888445369899273,
    -0.05473582074046135,
    0.19374017417430878,
    -0.11735423654317856,
    0.04076853021979332,
    -0.2026718258857727,
    0.11810728907585144,
    0.08930416405200958,
    -0.1955750435590744,
    0.1295357048511505,
    0.01751416176557541,
    -0.11909278482198715,
    0.20315930247306824,
    0.0973702147603035,
    0.07785748690366745,
    -0.08285775780677795,
    -0.1270817518234253,
    -0.12452016770839691,
    0.08392798900604248,
    0.05734925717115402,
    -0.13962577283382416,
    0.21748889982700348,
    0.1356557309627533,
    -0.08545216172933578,
    0.11934636533260345,
    -0.09597647190093994,
    0.06845779716968536,
    0.19808417558670044,
    -0.2111338973045349,
    -0.11430337280035019,
    -0.004129284992814064,
    0.04727846756577492,
    -0.21559303998947144,
    -0.1544766128063202,
    -0.013952992856502533,
    -0.026045192033052444,
    0.04392734542489052,
    0.02177327312529087,
    0.04128940403461456,
    0.026477113366127014,
    0.018741251900792122,
    -0.004443529061973095,
    0.07978152483701706,
    0.16062527894973755,
    -0.11476416885852814,
    -0.1195143610239029,
    0.11972783505916595,
    -0.17078430950641632,
    0.15246610343456268,
    0.10549795627593994,
    0.026163525879383087,
    -0.0985366553068161,
    -0.0024770041927695274,
    -0.1876644343137741,
    -0.21492131054401398,
    0.22542685270309448,
    -0.2142324596643448,
    -0.19743946194648743,
    -0.0871128961443901,
    0.004053562879562378,
    0.04726200923323631,
    -0.11319723725318909,
    -0.034257225692272186,
    -0.06582009792327881,
    0.19918252527713776,
    0.20698943734169006,
    0.09275421500205994,
    -0.011537175625562668,
    0.1774844378232956,
    -0.19184724986553192,
    0.09445622563362122,
    -0.13531506061553955,
    0.18496641516685486,
    -0.21099784970283508,
    0.08289313316345215,
    -0.19554685056209564,
    0.1359134167432785,
    0.03571678698062897,
    0.20451268553733826,
    -0.17855556309223175,
    0.15090392529964447,
    -0.15684205293655396,
    -0.12494777143001556,
    0.08509117364883423,
    -0.03208557143807411,
    -0.18738429248332977,
    -0.20272919535636902,
    -0.0549139641225338,
    0.05922238901257515,
    0.20958957076072693,
    0.1738649308681488,
    -0.005854260176420212,
    -0.1433497816324234,
    -0.2128894031047821,
    0.21335114538669586,
    -0.1293875277042389,
    -0.03397083282470703,
    -0.19172972440719604,
    -0.16280390322208405,
    0.03851466625928879,
    -0.05180848389863968,
    0.018635451793670654,
    0.007984538562595844,
    0.022735031321644783,
    -0.03954017534852028,
    0.00031183846294879913,
    0.09866948425769806,
    0.17263077199459076,
    0.20130832493305206,
    -0.19396792352199554,
    -0.20132774114608765,
    -0.04735803231596947,
    -0.009073642082512379,
    0.1279858499765396,
    0.2253405749797821,
    0.05420112982392311,
    -0.16756583750247955,
    -0.01830451563000679,
    0.1516832411289215,
    0.08224384486675262,
    -0.16680453717708588,
    0.004605679772794247,
    -0.2313919961452484,
    -0.09074179083108902,
    0.16485199332237244,
    -0.098447784781456,
    0.1426442563533783,
    -0.19391974806785583,
    0.21102699637413025,
    0.10925304889678955,
    0.1520037055015564,
    0.05827455222606659,
    0.007722948677837849,
    -0.11312297731637955,
    -0.12794966995716095,
    -0.16168063879013062,
    0.19661226868629456,
    -0.07677221298217773,
    0.016086924821138382,
    -0.22502756118774414,
    0.05709996074438095,
    -0.07522393763065338,
    -0.18995779752731323,
    0.020943352952599525,
    -0.22030431032180786,
    -0.01463889330625534,
    -0.19416166841983795,
    0.14805200695991516,
    -0.18854205310344696,
    0.030836254358291626,
    0.11378809809684753,
    -0.18975433707237244,
    0.15184226632118225,
    0.19360436499118805,
    -0.1432504951953888,
    0.010943769477307796,
    0.06581342965364456,
    0.1970522105693817,
    0.18531835079193115,
    -0.19970402121543884,
    -0.19376784563064575,
    -0.2110554575920105,
    -0.10118702054023743,
    -0.04046817496418953,
    -0.07970298826694489,
    0.154731884598732,
    -0.16229425370693207,
    -0.18953245878219604,
    -0.18543016910552979,
    -0.13756564259529114,
    0.23486702144145966,
    0.02157667651772499,
    -0.03377621993422508,
    -0.06347280740737915,
    -0.18148209154605865,
    -0.0748237669467926,
    0.12170744687318802,
    0.15896417200565338,
    0.17032110691070557,
    0.007809121161699295,
    -0.12630131840705872,
    -0.13759306073188782,
    0.23296423256397247,
    -0.21565081179141998,
    0.04918950796127319,
    -0.013612590730190277,
    0.22211812436580658,
    0.1364411860704422,
    -0.05316275358200073,
    -0.19744086265563965,
    0.02284327708184719,
    -0.16486111283302307,
    -0.016369134187698364,
    0.052598293870687485,
    0.11208362877368927,
    -0.05762387067079544,
    -0.15875957906246185,
    -0.20291820168495178,
    -0.22680023312568665,
    0.021360281854867935,
    -0.14216113090515137,
    -0.0009114081040024757,
    -0.10843933373689651,
    -0.15918345749378204,
    0.15857435762882233,
    0.131480872631073,
    0.18553131818771362,
    0.22981499135494232,
    -0.17088544368743896,
    -0.12308009713888168,
    -0.1782122105360031,
    0.15786994993686676,
    0.13730305433273315,
    0.19266080856323242,
    -0.16492998600006104,
    -0.12407410144805908,
    0.23372012376785278,
    -0.18852023780345917,
    -0.15650303661823273,
    0.08203984797000885,
    -0.20853935182094574,
    -0.06068660691380501,
    0.0962284654378891,
    0.19480952620506287,
    -0.01837361603975296,
    -0.21123605966567993,
    0.13152378797531128,
    0.23923510313034058,
    -0.17559564113616943,
    -0.0010469695553183556,
    -0.17084529995918274,
    -0.11765548586845398,
    0.0741339772939682,
    0.10679841786623001,
    0.11337460577487946,
    -0.22547191381454468,
    -0.05060995742678642,
    0.09655018895864487,
    -0.013206012547016144,
    -0.0872863233089447,
    -0.11913895606994629,
    0.2270452380180359,
    -0.19011551141738892,
    -0.18693040311336517,
    0.172179713845253,
    -0.1418524831533432,
    0.14107155799865723,
    -0.12781290709972382,
    -0.02382531762123108,
    -0.11079315096139908,
    0.21655283868312836,
    0.1633172482252121,
    0.0020294012501835823,
    -0.003972337581217289,
    -0.08434963971376419,
    -0.12363284826278687,
    -0.08456297218799591,
    0.07186586409807205,
    -0.034971293061971664,
    0.15969520807266235,
    0.026000380516052246,
    -0.00716832559555769,
    -0.14535853266716003,
    0.09085490554571152,
    -0.2212526649236679,
    0.04841374233365059,
    0.07970382273197174,
    0.03524693846702576,
    0.16594448685646057,
    0.050004974007606506,
    -0.059047192335128784,
    -0.1649395376443863,
    -0.22202710807323456,
    0.116172194480896,
    0.12608587741851807,
    -0.18069542944431305,
    0.056934654712677,
    -0.08193235844373703,
    0.20056457817554474,
    -0.07617296278476715,
    0.19693756103515625,
    0.16682974994182587,
    0.1282747983932495,
    0.1608523428440094,
    0.06797262281179428,
    0.07474782317876816,
    -0.2025391161441803,
    -0.04707808047533035,
    -0.018344569951295853,
    0.11130338907241821,
    -0.08687782287597656,
    0.10455235093832016,
    0.15974494814872742,
    0.09779581427574158,
    0.11867489665746689,
    -0.02332388050854206,
    0.10975828021764755,
    -0.07573390007019043,
    0.20656409859657288,
    0.0035528717562556267,
    -0.004596688784658909,
    -0.2101040780544281,
    0.2212280035018921,
    -0.024978917092084885,
    0.1762027144432068,
    -0.1535523682832718,
    -0.19915732741355896,
    -0.05000859871506691,
    -0.18990102410316467,
    0.058021992444992065,
    -0.006573591381311417,
    -0.08167993277311325,
    0.1465344876050949,
    0.15196657180786133,
    -0.21073848009109497,
    -0.19028115272521973,
    0.13625715672969818,
    -0.14184126257896423,
    0.038249626755714417,
    -0.05658561363816261,
    0.034709393978118896,
    -0.1279594749212265,
    -0.00895688310265541,
    -0.07850758731365204,
    -0.1026223674416542,
    -0.11291118711233139,
    0.045844849199056625,
    0.15176935493946075,
    0.0038067568093538284,
    0.007477136328816414,
    0.19632694125175476,
    0.19152718782424927,
    -0.026297912001609802,
    -0.1947132796049118,
    0.0686635822057724,
    0.06464966386556625,
    -0.18782445788383484,
    -0.21426934003829956,
    0.01623077318072319,
    0.23412340879440308,
    -0.21361328661441803,
    -0.11249501258134842,
    -0.07621856033802032,
    -0.2108292281627655,
    -0.14393286406993866,
    0.18623265624046326,
    0.1812099665403366,
    -0.17392393946647644,
    -0.0046034688130021095,
    -0.19361312687397003,
    0.09384144842624664,
    -0.16075438261032104,
    -0.11740466952323914,
    -0.10587941110134125,
    0.02685590833425522,
    0.1570582240819931,
    -0.09463488310575485,
    0.036116309463977814,
    0.18905632197856903,
    -0.005157782696187496,
    0.01582200638949871,
    0.00857442058622837,
    0.006762185133993626,
    0.1400938481092453,
    0.1252746433019638,
    -0.1238928958773613,
    0.22871629893779755,
    0.1338525414466858,
    -0.02912243828177452,
    0.20765988528728485,
    0.0034603793174028397,
    0.1479799896478653,
    -0.20227424800395966,
    0.21440714597702026,
    0.22567346692085266,
    -0.1768036037683487,
    -0.213762566447258,
    -0.06276392936706543,
    -0.14370378851890564,
    0.05679837614297867,
    0.10128498077392578,
    -0.021860308945178986,
    0.1654302179813385,
    -0.000525791198015213,
    -0.06348024308681488,
    -0.20339363813400269,
    0.06945782899856567,
    -0.22555212676525116,
    0.008916495367884636,
    0.04652957245707512,
    -0.13001348078250885,
    0.06510581821203232,
    0.03860180824995041,
    0.15730682015419006,
    0.14636321365833282,
    -0.19232001900672913,
    -0.17549657821655273,
    -0.0817580446600914,
    -0.18984918296337128,
    0.08838324248790741,
    -0.15379881858825684,
    -0.18086975812911987,
    0.06281822174787521,
    0.14088009297847748,
    -0.0626833438873291,
    -0.23911502957344055,
    0.025338515639305115,
    0.11811786890029907,
    0.18529391288757324,
    0.013728927820920944,
    0.16355891525745392,
    -0.2135353535413742,
    0.22917038202285767,
    -0.15143519639968872,
    -0.16064463555812836,
    0.16941942274570465,
    -0.04555528983473778,
    0.14428502321243286,
    -0.16510719060897827,
    0.1791444718837738,
    0.22709965705871582,
    0.06570155173540115,
    0.19167450070381165,
    -0.16853304207324982,
    -0.04520685225725174,
    0.06609731912612915,
    0.13127432763576508,
    -0.12349113821983337,
    0.1490848958492279,
    -0.07228256016969681,
    -0.12344032526016235,
    0.05866505578160286,
    -0.1891278326511383,
    -0.21945050358772278,
    0.07312844693660736,
    0.07515541464090347,
    0.08613930642604828,
    -0.0227896086871624,
    -0.17283494770526886,
    -0.19083501398563385,
    0.2292255163192749,
    -0.20673345029354095,
    0.06534949690103531,
    0.19304612278938293,
    0.1809949278831482,
    -0.1476273238658905,
    -0.0706101655960083,
    -0.18988445401191711,
    0.1468183994293213,
    -0.22461067140102386,
    -0.22014760971069336,
    -0.15690141916275024,
    0.1939256340265274,
    0.15204817056655884,
    0.1575125753879547,
    0.20182088017463684,
    -0.10659695416688919,
    -0.12942326068878174,
    -0.1435839980840683,
    0.07249200344085693,
    0.08724852651357651,
    0.04188036918640137,
    -0.18233007192611694,
    0.03220232203602791,
    -0.12266050279140472,
    -0.03916368633508682,
    -0.028707444667816162,
    0.002427433617413044,
    -0.20920570194721222,
    0.2034006118774414,
    -0.0963822528719902,
    0.06811593472957611,
    0.16216214001178741,
    0.09074441343545914,
    0.16508066654205322,
    0.13117218017578125,
    0.17306147515773773,
    0.04276835545897484,
    0.14967601001262665,
    -0.09867027401924133,
    -0.12471313029527664,
    0.10937801003456116,
    0.05559927225112915,
    0.0006165355443954468,
    -0.20087815821170807,
    0.07169318199157715,
    0.1519395411014557,
    -0.018866192549467087,
    0.047438666224479675,
    0.10129693150520325,
    -0.23689565062522888,
    -0.031136982142925262,
    -0.08274340629577637,
    -0.11778116971254349,
    0.14280326664447784,
    0.23787255585193634,
    0.02989218756556511,
    0.1455969661474228,
    -0.17547157406806946,
    0.03407543525099754,
    -0.022339168936014175,
    -0.14419056475162506,
    0.04126457870006561,
    0.06958458572626114,
    -0.002091512084007263,
    0.09616279602050781,
    0.11003732681274414,
    0.21676136553287506,
    0.004505906254053116,
    -0.001070546917617321,
    0.006420868448913097,
    0.02450285665690899,
    -0.15210536122322083,
    -0.020778564736247063,
    -0.20140905678272247,
    -0.1653585582971573,
    -0.20294788479804993,
    0.17540094256401062,
    -0.13367639482021332,
    -0.010189344175159931,
    0.01673467829823494,
    0.21080505847930908,
    0.1034616157412529,
    -0.1680344194173813,
    0.23451972007751465,
    -0.22679749131202698,
    0.022510599344968796,
    0.21842725574970245,
    0.20681388676166534,
    -0.047947004437446594,
    -0.15684160590171814,
    0.09977702796459198,
    0.18271662294864655,
    -0.12327644228935242,
    -0.02956540137529373,
    -0.14203935861587524,
    0.0854739248752594,
    0.0432162806391716,
    0.11392509192228317,
    -0.0757768452167511,
    -0.23132841289043427,
    -0.09528420865535736,
    -0.18552328646183014,
    -0.050230711698532104,
    0.0808592140674591,
    -0.19798403978347778,
    -0.001686655916273594,
    -0.2345958650112152,
    -0.16716347634792328,
    -0.16503581404685974,
    -0.07512368261814117,
    -0.11667139828205109,
    0.028486251831054688,
    0.1428273767232895,
    0.1785082221031189,
    0.06877189874649048,
    0.008226277306675911,
    -0.034555383026599884,
    0.15975195169448853,
    -0.1331835389137268,
    0.17070363461971283,
    -0.23070384562015533,
    -0.17659367620944977,
    0.056320466101169586,
    -0.0929693803191185,
