{
  "gc1.weight": [
    0.18113567790712526,
    0.19750330449089462,
    -0.04857153366408254,
    0.21965337115170172,
    -0.044779543596735895,
    0.04045163553841146,
    -0.11171440467136032,
    0.13682202642635574,
    0.21038663768399507,
    -0.17340812880203268,
    0.20729986121270477,
    0.05678473201700284,
    0.17471024599652304,
    0.02386867884927702,
    0.11054868522413562,
    -0.04529637945579082,
    0.18272249394877496,
    0.02695763681986533,
    -0.10671169074432081,
    0.053728677618220304,
    -0.10518589413522604,
    -0.019325030510508837,
    -0.11153134568710146,
    0.15584394754414382,
    -0.18734355815758688,
    -0.10525431923690491,
    -0.06060073029881545,
    -0.14032153935233704,
    0.013599423661190779,
    -0.23692055096472306,
    0.21577815416003682,
    -0.20236786157611272,
    0.18300787945379693,
    0.03160959194066118,
    -0.07117859513525249,
    0.164453131404881,
    0.028967822504330484,
    0.19199183286508076,
    0.01733598138712409,
    -0.06884583160820182,
    0.05717389458058319,
    -0.05779780861547591,
    0.11521291109665728,
    0.23320303921339178,
    0.13451574266998834,
    -0.09929421320347971,
    0.13431755229342052,
    0.034732508901946416,
    0.11696033270553075,
    -0.14237757670185208,
    -0.2374779222908223,
    -0.08659052245328179,
    -0.18175675491724802,
    0.19513569448420387,
    0.08200647795328755,
    0.09355531554048062,
    0.06906782198885733,
    0.005605229562732201,
    0.20565174064042885,
    -0.16762935562028172,
    0.005778815239011834,
    -0.16063621502970846,
    0.06709059215484184,
    -0.09609029586924349,
    0.0666066784251969,
    -0.04208916980570103,
    0.19734892374916682,
    -0.15817525578469332,
    -0.13910084019342078,
    -0.1391098404138365,
    0.21486101297574928,
    0.07331517968093904,
    0.23056350869847086,
    -0.19632003318031233,
    -0.25796831967348943,
    -0.18559108053993512,
    -0.1777755565652925,
    0.09126344565579597,
    0.07952119795505297,
    0.1977312697468551,
    -0.11910789166314167,
    -0.16042912161521286,
    0.12264604167294475,
    -0.09105270772184779,
    0.14173227259593948,
    -0.04932852871088444,
    0.1330130626665976,
    -0.18424303011725973,
    -0.11616402459133565,
    0.06622173500640882,
    0.042912428283950976,
    -0.053745800574398366,
    0.13901892066558347,
    0.1599534894933353,
    -0.17129444160002233,
    -0.1234688039992802,
    0.21891635636804696,
    -0.07436224142040845,
    -0.0786313528326017,
    -0.231899289398897,
    -0.13316895210161353,
    0.05245411706484331,
    -0.022999173678604164,
    -0.17147259880045168,
    -0.004101837343786158,
    -0.16077154794686446,
    -0.20210043626828358,
    -0.1476583747346087,
    -0.20880380492292777,
    -0.14918575155696515,
    0.239903018829224,
    0.03722249486417545,
    0.06704252262686003,
    -0.2231719332482597,
    -0.1541946693315945,
    -0.07321579196535113,
    0.029097892577827536,
    -0.2099812383646797,
    -0.11771640323058291,
    -0.1396684799418058,
    -0.009026607539993363,
    -0.08302795304497038,
    -0.007325402533458196,
    -0.15940898038682777,
    -0.16160114435499695,
    -0.135852086632319,
    -0.07557669530429323,
    -0.1873208816715298,
    0.1996184197624238,
    -0.03961670773707662,
    0.2051001154223524,
    0.08789343634909119,
    -0.20170019200745687,
    0.1630099554298612,
    -0.058787130715806525,
    -0.08583359996553674,
    -0.1975185875820543,
    -0.2385409676743292,
    0.0815273515275204,
    -0.0646097255092975,
    0.10733002777441793,
    -0.19516683216292452,
    0.17560836173529842,
    -0.17351605123306488,
    -0.03317296703298121,
    0.042221252588584765,
    0.11906450000240942,
    0.19182865252615902,
    0.2177406890616489,
    -0.18823154361646338,
    0.05292051986362858,
    -0.09753334751620091,
    -0.017403497043843152,
    -0.17712359248883122,
    0.21771563038554384,
    -0.1734888056585383,
    0.12361407403053226,
    0.07786217463891712,
    0.07124144632792699,
    -0.12516302834477203,
    0.21723876028744146,
    0.044941240258510304,
    0.02216622895181876,
    -0.21031447493478878,
    0.09494902530980323,
    -0.02751047960017287,
    -0.10453219625919577,
    0.2047375717400247,
    0.04574078438000159,
    -0.12832055063271058,
    -0.11653539982831833,
    -0.021933302580675586,
    0.129599696347779,
    -0.053886563255912,
    -0.13264512180969015,
    -0.0956045350172226,
    -0.17676978134177251,
    0.07916036047378694,
    0.18351108897320492,
    -0.2253611026281314,
    0.04806611598277172,
    0.11914949520631511,
    0.035335507198059946,
    -0.07903340577777744,
    0.12048706717002323,
    0.12137981512720261,
    0.08348514676412502,
    -0.03393288564712974,
    -0.05620252435447272,
    0.016808857708969116,
    -0.034168051678613996,
    -0.08446104773985691,
    0.14980297296722983,
    0.2048506717011622,
    -0.014757413125862652,
    -0.045977942993970566,
    -0.006297402969226925,
    -0.0049404399703108694,
    0.050103877978833505,
    0.060061259345539755,
    -0.21706507302568798,
    -0.08226160417586764,
    0.20053325236225858,
    0.08739159590928963,
    -0.022432457361718276,
    -0.1407277642998512,
    -0.14295257777691997,
    -0.21394276094459413,
    -0.07149305973798473,
    0.09442374004757938,
    0.14940666479492537,
    0.1254221817642428,
    -0.21098691359687533,
    -0.14034194683857282,
    -0.029457610098213606,
    0.23183820925020654,
    0.026169900407293147,
    -0.0547457725624373,
    0.11342836957460814,
    -0.10521802663839074,
    -0.15181452736254314,
    0.17247291733987102,
    -0.10367720440364046,
    -0.040124225880467185,
    -0.23870186989236608,
    0.15731885385102562,
    0.1794097157414424,
    0.08111450978209651,
    -0.16431969921040404,
    -0.23673578728912678,
    -0.19304565549211902,
    0.17642613273585836,
    0.11002810545025359,
    0.20037706424108373,
    0.12096920465621118,
    0.05327832911516438,
    -0.012435949752681972,
    -0.18012756029487303,
    -0.20419397974293813,
    -0.22383804611709326,
    0.09234244350482225,
    -0.11274362641064573,
    -0.040317118447064204,
    -0.1338777051025441,
    -0.03556027789163553,
    -0.1659598593308501,
    -0.15335501513900698,
    0.07293011501518393,
    -0.06430178815951429,
    0.14433709254077398,
    -0.07020448783747,
    -0.17339288716185658,
    -0.03411757535761511,
    -0.11118850161848867,
    -0.06648800962622825,
    -0.2279997633106459,
    0.1298741594451518,
    -0.16405228473399122,
    0.11565602061094485,
    0.10344668844632207,
    0.16860929873658104,
    -0.18176405644652827,
    0.18979802732402293,
    -0.10818959629214321,
    0.08276945368902638,
    0.2247795242503137,
    -0.025258780763395265,
    0.008066113556288777,
    -0.04755817091225552,
    -0.1987469610480195,
    0.10997738260179613,
    -0.23818089765698372,
    0.14520126326927452,
    0.1770573423046307,
    0.2264274377301484,
    -0.04897284471903124,
    -0.19541145406462904,
    0.04621112442746417,
    0.12810837265751096,
    -0.23882799291316123,
    -0.04674943984591143,
    -0.13986520331820662,
    -0.011872711579162165,
    -0.11305506379362253,
    -0.09219369632432052,
    -0.0693672363833032,
    -0.22757684960800267,
    0.19512780469177424,
    0.1995837598192458,
    -0.029218479376289956,
    -0.01847753608466214,
    -0.09203109296846203,
    -0.21576659090431288,
    -0.2332869250199732,
    0.10291219130782568,
    -0.12726299655776419,
    -0.1507204899234302,
    -0.0095160416754688,
    -0.09325104571776506,
    -0.09086805179689435,
    0.01803120687048336,
    -0.043031876852282325,
    -0.07608043028845929,
    -0.10970515519374055,
    -0.19345783177259068,
    0.21962613142924198,
    -0.09004878235090191,
    0.07624475793097674,
    -0.07674378242157712,
    0.010325154404672254,
    0.24307500753429462,
    0.10518240731605306,
    -0.20665084281137028,
    0.08922771510224138,
    0.24731064609463713,
    0.05577093317526145,
    0.17760603512934342,
    0.2364728270653009,
    -0.028312467765525914,
    0.041888713231515676,
    -0.16375992588434016,
    -0.04152315524739677,
    0.17514702446914251,
    0.11816297066487258,
    -0.14819851802712652,
    -0.1904722497527451,
    -0.16084208142990095,
    -0.2367202305279434,
    -0.18291078400890975,
    -0.051827585474236146,
    0.1587204769474096,
    0.03185076003035602,
    -0.1801523774709019,
    -0.19055697733390486,
    0.11437042447573731,
    -0.17596142624263558,
    -0.02078835823323165,
    0.1099278087877988,
    -0.10570474478420824,
    -0.01726081184541134,
    -0.011770301630232457,
    -0.049149218351264574,
    -0.11676021722414845,
    -0.2128604885911591,
    -0.19209023965155025,
    -0.12386690986463778,
    0.23146047580847354,
    -0.1107552487139397,
    -0.17775576392841858,
    0.050601851546991664,
    0.05890548373671505,
    0.12697918708095735,
    0.18003115031552686,
    0.12921997538348853,
    -0.23787605021777575,
    0.012181296810001588,
    0.14143958653466707,
    -0.013115014533603062,
    -0.13732107095055335,
    0.22833579286966407,
    -0.08350910048171731,
    -0.13233753506941667,
    -0.21538965893532508,
    0.0011829805616004035,
    0.10078508708123732,
    0.045344319972699554,
    0.039441477362710524,
    -0.1795979797761851,
    -0.22347266737880858,
    -0.005591253088996877,
    0.21795940746319867,
    0.1342316776222305,
    -0.13555993968364466,
    -0.022458295404804526,
    -0.17429631335656237,
    -0.11060751419951072,
    0.0352790010242663,
    0.12613609339935772,
    0.2170407660689517,
    -0.21952804247229576,
    0.1771510257719741,
    -0.1663240800370024,
    0.08361894933331958,
    0.20156206051471248,
    -0.0064327579463449806,
    0.2174531275630167,
    -0.20301381294867393,
    -0.08549175985771772,
    0.13581459812940333,
    -0.044470633417162814,
    -0.04117899527420196,
    -0.09419983842451868,
    0.16232769543918518,
    0.11262742869919196,
    0.07011526595736853,
    -0.13049244064506121,
    -0.19293835358102943,
    0.017047544682845535,
    0.06407240801598144,
    -0.10542979360494592,
    -0.059952276697985814,
    0.1588431970247847,
    0.009924957742084146,
    0.0012808933267287603,
    -0.05152838587990706,
    -0.2163983082605354,
    -0.22506622249271468,
    -0.10950543960567212,
    -0.11708192467404885,
    0.06789096647986642,
    -0.06277992021147616,
    -0.0878059882239991,
    0.22835827489919336,
    0.07708199377280553,
    0.168226698925072,
    -0.11102984045301685,
    -0.09211866214704052,
    0.08188698236907437,
    -0.15656998646684164,
    -0.173424662056922,
    -0.0020914534261494613,
    -0.08144235774755837,
    -0.17741521913527655,
    0.13829108861469966,
    0.19104170970357637,
    0.030560763812356243,
    -0.03353960223059663,
    -0.22156863498800494,
    -0.08106070374318577,
    0.053649547309408754,
    0.10788442489024352,
    -0.04160335277741335,
    -0.08884023320544217,
    0.12930778634088758,
    -0.1891009325604483,
    0.14800534171070176,
    -0.08699076945143001,
    -0.006121652677830337,
    -0.03940585475394138,
    0.020316330917130487,
    -0.06555224907533053,
    0.17178283909599382,
    -0.016495411792725408,
    0.18515128573077247,
    0.2303709316947726,
    -0.11179938135714598,
    -0.17237837531236574,
    0.1905762747057164,
    0.18590450085964225,
    -0.18088787295458508,
    -0.009336160740963497,
    -0.23653231093443305,
    -0.19465075340417212,
    0.03828977362943435,
    0.056509564786356485,
    0.042999037028570275,
    -0.05804411413671186,
    0.22064530175088842,
    0.025762263315895824,
    -0.13752249389671165,
    -0.024145422586977425,
    0.050039631821252276,
    0.07755045044843858,
    -0.16677135301093216,
    0.08369953297643323,
    -0.11772198126738788,
    -0.19773605411978498,
    -0.12655236180402704,
    0.23110316729168537,
    0.20371538633834882,
    0.2138722552089787,
    0.13675416716800437,
    0.17886344222562872,
    -0.02346840828830854,
    -0.1275578194806281,
    0.11491585192923051,
    -0.11954787934816097,
    -0.1587176457466702,
    -0.06983601212412945,
    0.042472389515493106,
    0.11870070743204343,
    -0.08710431388940214,
    -0.13714293486370382,
    0.023725046102896462,
    -0.13735965535359862,
    -0.15276658252983447,
    0.12031382247973318,
    -0.03200091128314057,
    0.21844712059632193,
    0.23319647527722573,
    0.0647777009137858,
    0.07604216655342674,
    0.0475782869314785,
    -0.0060339564276293625,
    -0.008194099276693139,
    0.013424019195131276,
    0.08335833398556093,
    0.22244356717640404,
    -0.054792857988073346,
    -0.09568680781985016,
    -0.0505445150025309,
    -0.11078271964806435,
    0.03251492091185081,
    0.17661317103612056,
    0.18549537671400723,
    0.10478312183904824,
    -0.1739838036739355,
    -0.12417708495223811,
    -0.0449293555124167,
    -0.0360853746265383,
    0.010571650777490461,
    -0.21949404699110797,
    0.06781375120944651,
    -0.1807189835271744,
    -0.14818743165178036,
    -0.19784642343578254,
    0.20783083096417904,
    -0.22673580125819623,
    0.17859276417970102,
    0.0015720338330062027,
    -0.01908157279112834,
    0.14637090537926495,
    -0.0330937298472313,
    0.146789921505311,
    0.1707549350717551,
    -0.20705344067252113,
    0.0861980744640948,
    0.03719773364928986,
    0.043756648315858654,
    0.02650497862633495,
    0.05838566388023389,
    -0.11026979311829939,
    -0.02199153186630353,
    0.22753083498529075,
    0.15796381389013914,
    0.0005866382916952326,
    -0.22513357455779867,
    0.0009751630440444272,
    -0.16024417759979323,
    0.19329910980828086,
    -0.14177247095785425,
    -0.00806147022502925,
    -0.0454892690339493,
    0.0344903219069658,
    0.2252577603862627,
    0.013779929992070384,
    0.13479238815241498,
    0.18405678713017837,
    0.1918287851590364,
    -0.07634018034321213,
    -0.06590990596745264,
    0.11048610120864627,
    -0.058219850863636104,
    0.1070677040778337,
    -0.04461840347074939,
    -0.15956424815685138,
    0.0917621854914115,
    0.02833209569474141,
    0.101463880449331,
    0.2383723536210711,
    0.1606844065539979,
    0.22699612361642452,
    0.003395630896735745,
    -0.20505438099431753,
    -0.1653829497121299,
    -0.14529472257692924,
    -0.21031286259458082,
    -0.11531347706695555,
    -0.22014280668610373,
    -0.2206546894471538,
    -0.13938960134501044,
    -0.23645920806688506,
    -0.14345428806505703,
    0.08532926630076063,
    0.19851415936294634,
    -0.06437076865018743,
    -0.0627224427143306,
    0.12348982529868446,
    -0.11334434388963721,
    -0.10820954836865027,
    0.14403367764853614,
    -0.20782633083246344,
    0.020585327346926016,
    0.2108463962225619,
    0.03287628714638507,
    0.05798889281954016,
    -0.1355988555821955,
    -0.01344475489052325,
    0.0037773232112151105,
    0.051361973491804644,
    0.08713855603203803,
    0.20723277319702904,
    -0.18082591426646144,
    -0.0024795586273682405,
    -0.1149106740227747,
    -0.18776689455127593,
    -0.010029392373446445,
    -0.21006012478617944,
    0.16447606244846216,
    0.01896060406926646,
    -0.12474100229081175,
    0.12064629911096658,
    -0.22660778471377588,
    -0.08670180772773473,
    -0.03870823968469038,
    -0.2024385114594952,
    -0.14897334244650562,
    -0.030809068518964415,
    0.17969221038316885,
    0.23141462207588762,
    0.14906686139467784,
    -0.1392816102170215,
    -0.15355651695381167,
    0.20817421187792523,
    0.07843067960518714,
    -0.0033280542632684856,
    0.02383893477719717,
    -0.19092518319987892,
    -0.07347174941988492,
    0.23065517415085307,
    -0.05171967079142984,
    -0.0027086569099225716,
    -0.19758373515638092,
    -0.1298542569150916,
    0.004856075437336717,
    -0.14529059320574764,
    -0.0210088492595826,
    0.1117379477163667,
    -0.23454514503981794,
    0.06425571543849393,
    -0.1553027171010263,
    -0.11201440311958898,
    0.08597950896445977,
    0.18878106585036775,
    -0.05832749228574437,
    -0.09265154957159352,
    -0.21605957787342697,
    -0.11891570003075733,
    -0.2089101473457209,
    -0.06721611078892827,
    0.041017776093197546,
    -0.22421961246789754,
    0.2082792944254287,
    0.14684805881681876,
    -0.23473727997028768,
    -0.10940992450069899,
    0.07153994368509736,
    -0.04136879087575079,
    -0.01725145648449692,
    -0.10288069014391857,
    0.19080530441174334,
    -0.1297498394069608,
    0.1973200291505783,
    0.006142950063459492,
    0.04025942571103294,
    0.18503333218640855,
    -0.03119625212365334,
    -0.13233763286768388,
    -0.030438499782611043,
    0.19276416360907542,
    -0.17549791496997605,
    0.04674863523314997,
    -0.23569817224257952,
    0.12107705684929364,
    0.08236909863091937,
    0.0006168992953137983,
    0.11729778892612691,
    0.010280206280554498,
    0.14833566521548974,
    -0.18790599578455852,
    -0.026718567998759515,
    0.10090411876984975,
    0.23895501000115624,
    0.13731273599721172,
    -0.1717947003485348,
    0.18227757804087566,
    -0.04575315154831113,
    -0.04338235721877344,
    -0.217228145266755,
    -0.029358658831118767,
    0.1668328233482707,
    0.024866940754901957,
    -0.135614247894083,
    0.06695393730177543,
    -0.07016285004887825,
    0.21824938874895441,
    -0.206989574566801,
    -0.08892222779070004,
    -0.23139421577212813,
    -0.08845957596187776,
    0.06881445077228607,
    0.2306545386231095,
    0.03199134582170957,
    0.23509043631323637,
    0.03894011254901748,
    0.1343853817282993,
    0.19041654948941908,
    0.1989817854576414,
    -0.1299316862625973,
    0.21984815842817396,
    0.1414428793795718,
    -0.10689646243530272,
    -0.10930251843825885,
    -0.19968743701065464,
    0.052787498650189994,
    -0.19263830168409204,
    0.09560806197870683,
    0.06895075606640008,
    -0.20720146817995255,
    0.058128153061793496,
    -0.010472922683821344,
    0.10420618747942248,
    0.13344879318433156,
    -0.23853706358273488,
    0.21927596145779552,
    0.21965623385090915,
    0.1094508651276143,
    -0.21849111010808292,
    -0.07930743124214697,
    -0.08244970869058857,
    -0.0542525976278162,
    0.1309989744316768,
    0.08089484265048408,
    0.18804961540586482,
    -0.08363292630373662,
    0.07413731290154953,
    0.07894978073790646,
    -0.1981486653651123,
    -0.23250577899548083,
    -0.119723808906985,
    0.1611405451350605,
    -0.2253660547539637,
    -0.20760942420630946,
    0.1300515708595058,
    0.1248837240425577,
    0.19559895424458684,
    -0.17873573999057463,
    -0.17297607777000729,
    0.11824822425249504,
    0.20740898212280284,
    0.1395860474542928,
    0.029168127484783195,
    0.09239063264397973,
    0.22728252291615164,
    -0.15130231617581055,
    -0.10350471123455546,
    0.16486917456254685,
    -0.16107000500209281,
    -0.12785414569326567,
    0.1724988653779096,
    0.06888305351243276,
    0.07076904827331164,
    -0.09596198803592802,
    0.006492239740288827,
    0.21880906841705125,
    -0.14005612631612685,
    -0.00793371980381002,
    0.10890156364431595,
    -0.16258989577942923,
    0.23279503935417242,
    -0.11490423680363426,
    -0.050037337169682075,
    -0.057643738248603645,
    -0.152915736421553,
    -0.23531672901348594,
    0.1309656427478811,
    0.056421538858291036,
    -0.22415111839590457,
    -0.150907945081874,
    0.23709320829404804,
    0.08556085506541346,
    0.11030622864912262,
    -0.13957585515112086,
    -0.09960084855821487,
    -0.02773935858609683,
    -0.03572435373578629,
    -0.1613132610583619,
    0.01060593708242545,
    0.03484651807196846,
    -0.041652664212398924,
    0.0446570618123361,
    -0.08908966343533385,
    0.05506604292353301,
    0.08428579524114224,
    -0.12168626886663969,
    -0.23789557067541378,
    0.12086012827332188,
    0.06962232178998977,
    -0.11714856184233159,
    0.23092632091943222,
    -0.10306336357596832,
    0.1589378833640736,
    0.11683370421001482,
    -0.1996029822296863,
    0.15123666725018667,
    -0.21986906116663693,
    -0.1285137987819107,
    -0.031683522982653076,
    -0.15851281582547527,
    0.2342283517023792,
    -0.04014889766288282,
    0.08929944783670579,
    -0.21322887361746343,
    0.13391845538180164,
    -0.0676985094393488,
    -0.1801688660852623,
    0.026559401076667478,
    0.11111709713509899,
    0.20635019826572243,
    -0.1426994688197903,
    -0.1130280732282685,
    0.03807675442046997,
    0.05781738874499733,
    0.08612014307608687,
    0.1272202604811304,
    -0.04669131265568682,
    0.1288938519418207,
    0.17432397855422657,
    -0.05530844361041896,
    0.16786502181846052,
    0.11214651504236105,
    0.210514101692375,
    -0.13206908107269802,
    -0.11345386598632833,
    -0.062287494359483414,
    0.0026973197098127556,
    0.1600482451729767,
    -0.132716184237509,
    0.13516150290750364,
    -0.0795975539752183,
    0.1410286459038466,
    -0.02186829792405629,
    -0.20902265064352532,
    -0.12756200477953378,
    -0.17093911067619205,
    0.13399019739522197,
    -0.1576382430631867,
    -0.01083915090181769,
    0.043940258985760546,
    -0.12710012859637532,
    0.062120279940551706,
    -0.2341066649393677,
    -0.16887726862973151,
    -0.21653579530804956,
    -0.06562031525828588,
    -0.08107650556717548,
    0.025803924767367478,
    -0.056225754196675456,
    0.1075222126913696,
    0.21919971576935368,
    0.07970000743752653,
    -0.08849347961914121,
    -0.22409726216619824,
    0.08055269049806628,
    -0.11386610809671611,
    0.11722065276909847,
    0.15712242814877306,
    0.08643219646295533,
    0.22457863287961335,
    0.22744991627800873,
    0.04293953897044388,
    -0.1721602832298021,
    0.21336122520039022,
    -0.10862583457452676,
    -0.10809008776319731,
    0.19919561614272124,
    0.18370361094879747,
    0.06553966298611177,
    0.00568370137774857,
    -0.20029242602806108,
    -0.03593512434948822,
    0.22978242233879656,
    0.05366784503273886,
    0.011413839880923636,
    -0.04192601472758856,
    -0.0771970257588026,
    0.13900689305655564,
    0.005434564640714186,
    0.1526447813582176,
    -0.03425155027139372,
    0.0992291303991114,
    0.09319477732120608,
    0.029871044503146975,
    0.14709403599065243,
    0.14666275714025137,
    0.2217316817443465,
    0.1821950315845949,
    -0.05392729130870919,
    -0.2016559953605942,
    0.03570873881222619,
    0.007816635133254679,
    -0.055207551080395115,
    -0.03186452333411801,
    0.001775188786251285,
    0.17240856488348444,
    0.06793650282210104,
    -0.07877583082051648,
    -0.09280802530164849,
    -0.05191105742003875,
    -0.08662623430183275,
    0.21480660227785522,
    0.12241284115498195,
    0.2157453952988712,
    -0.008957217765742199,
    0.04042168655771257,
    0.07669347743875354,
    -0.2266387656721008,
    0.032261169804260637,
    -0.026721404655840376,
    -0.13016493773914484,
    -0.1839878639870754,
    0.21131978383486774,
    0.19326748525985143,
    0.10586793948330349,
    0.22856327319640748,
    -0.09145363359878099,
    -0.03318530387186516,
    0.08465676199399705,
    -0.03130716191595673,
    -0.0390627806554147,
    -0.1966413305110183,
    0.057168291992203586,
    -0.14108251910771635,
    -0.0009044778362419618,
    0.2537385740216022,
    -0.06695575907020734,
    -0.06880047393299642,
    0.14082911513039167,
    -0.08191548816354274,
    -0.011474773211087915,
    0.22343547421693352,
    -0.11248350018570177,
    -0.16885367625048128,
    -0.1299123656320983,
    -0.05931191049943451,
    -0.10862637290030946,
    -0.119734478011645,
    0.09098810316300034,
    0.052484019783568384,
    -0.07001593123474234,
    -0.18422818920980497,
    -0.06871749171133668,
    -0.09551168299741772,
    -0.09135398878618486,
    -0.21553163031736244,
    0.04386142168322951,
    -0.17368198071700275,
    -0.1847004829668956,
    -0.19425927196998347,
    0.09434783403613768,
    -0.14051066083198907,
    -0.09318964788648879,
    0.1859611845815722,
    0.12274257029901985,
    0.1333511595127589,
    -0.22737746739183737,
    -0.16927711738093418,
    -0.0843798642073149,
    0.19652537021794655,
    0.015579814685725292,
    -0.1769753565844731,
    -0.00830839696741982,
    -0.1841687333214534,
    -0.04477847078459521,
    -0.05874667386271431,
    0.20641632933666895,
    0.06743658882822165,
    -0.033597366640162364,
    0.032236919085134604,
    -0.06216915387208054,
    0.0882272044982251,
    0.08889318105770959,
    0.05713937150958851,
    -0.08744628831328675,
    0.2032886189539133,
    -0.02609776290107349,
    -0.08733122397205395,
    0.14657941146225478,
    0.19376515183874765,
    0.2387908162702741,
    0.06406728220330751,
    -0.07522581237879106,
    0.13697258079106758,
    0.2044895578898682,
    -0.2352093471839037,
    -0.020978189049162217,
    -0.16049168658837132,
    0.03659060790837695,
    0.11339560261124089,
    -0.04164844291581332,
    -0.010923840080217137,
    0.10252823022941804,
    -0.03202218773183116,
    -0.19994592806854594,
    0.19003499225902562,
    -0.11582994466602699,
    -0.017471905014415104,
    0.013590068232579234,
    -0.005025807568925133,
    -0.22517234723901286,
    0.10470173293259927,
    -0.10355963606273866,
    -0.11966602503802524,
    0.049730519692120445,
    -0.12046695405279147,
    -0.1055416300632357,
    -0.0742398598003635,
    -0.08392191876146034,
    -0.09441128201617555,
    -0.0574244316467186,
    0.054972021042432276,
    -0.1923054758783808,
    -0.14132139155537957,
    -0.006297608484303264,
    0.044765036564650806,
    0.12807456483902105,
    -0.1656121280833999,
    0.06980174052879934,
    0.13209830574206516,
    0.12881578561945453,
    -0.22285607175743283,
    -0.0854030417317676,
    -0.2048923345295395,
    -0.14820428141529726,
    0.12924715482117502,
    -0.027331485086123986,
    0.09617971993410505,
    -0.13675275592582428,
    0.027995235798725378,
    -0.14121580284983018,
    0.1347440425045092,
    -0.09934657938557365,
    -0.05269297048409884,
    -0.20690875101186754,
    0.010825224474465902,
    0.2273711917691568,
    0.1313339790750075,
    -0.12338677901787076,
    -0.006578687718270661,
    -0.03740895050017569,
    -0.19126954733230056,
    0.18602525087604005,
    -0.0059204512765345454,
    0.06264847392799733,
    -0.09095922527888853,
    -0.10698148721791338,
    0.031223361914546423,
    0.08242989394493952,
    0.04607806549585679,
    -0.11048791912527406,
    0.25272307557571516,
    -0.046798856753446035,
    -0.16310126749635256,
    -0.10693024946450344,
    0.23610600668638207,
    -0.009966295999833653,
    -0.02394194348046014,
    -0.09404236585714398,
    -0.05553940082231095,
    -0.20055776289032234,
    -0.1886718706940323,
    0.13632373623370467,
    0.20386340784797335,
    0.22857593913892132,
    -0.17048668439023043,
    0.12521729778012108,
    -0.14474269026448985,
    0.13914124915405524,
    0.1703893176512313,
    0.18346876990144467,
    0.17001393305972626,
    0.14639445372123727,
    -0.005093151422432267,
    0.10487234863926931,
    -0.07944496551776932,
    0.09885950080448141,
    -0.07035297689990856,
    0.005754746396348905,
    -0.2075954080958785,
    -0.05537171097843402,
    -0.12146975749499611,
    -0.07433257221624304,
    -0.14964753204487224,
    -0.21486194097878442,
    0.026277107076774317,
    0.1522459486095207,
    0.21768823717651986,
    0.13588927984364438,
    -0.11958588539946034,
    -0.2372532433165983,
    0.08483056526706872,
    0.1300797793502196,
    -0.20462894274622884,
    0.079648748717402,
    0.20137052190306462,
    0.005157328539073802,
    -0.14061603637728395,
    0.19497005396411943,
    0.09675561845917513,
    0.15555240747005716,
    -0.15907250713290472,
    0.13548775914033562,
    -0.16076958100707348,
    0.23737436826934077,
    -0.09592682192191897,
    0.14064309664753974,
    0.040064385005096195,
    0.056255244803940244,
    -0.028343964534972413,
    0.0926857895289748,
    -0.09420482417078192,
    -0.2256456660152487,
    -0.08605285088932955,
    0.18588566589003774,
    -0.05581964637022491,
    0.06858399005281773,
    -0.08243522019589086,
    0.1775383788483512,
    0.1396238960655954,
    0.07825756075795733,
    -0.11779198606510866,
    -0.19428344153761412,
    -0.0005664481019963981,
    -0.1366686451240394,
    0.19554940836161155,
    -0.23024477396336288,
    0.10171806526947047,
    0.23922930969237693,
    0.11520869343671043,
    0.07524703104844276,
    -0.2305377637738919,
    0.2304744074783521,
    -0.0527590418371186,
    -0.22360295993353127,
    0.23679151744897464,
    -0.09173499856898562,
    -0.007698198506377558,
    0.21882075088280772,
    -0.16330133079264256,
    -0.16687360558363273,
    0.030659248551713703,
    -0.02346945118351174,
    0.047588632315700034,
    -0.19967727908135374,
    -0.002496663815036087,
    -0.10119173003161838,
    -0.1129040394090762,
    -0.21890997688318495,
    0.12255596905698164,
    0.03816327364269053,
    -0.20136175834686718,
    0.18838889625194263,
    0.06540786188988747,
    0.05638358839426521,
    -0.1367854593160519,
    0.04769629156193662,
    0.23088587930729837,
    0.1614722851681534,
    -0.18471831799054314,
    0.21820616974403517,
    0.009387750852972946,
    0.11024294741602383,
    0.1841769957265937,
    0.20312810276324061,
    -0.18488441671280317,
    0.2089168906382483,
    -0.15979490277483546,
    0.00874331894302664,
    -0.16469204698137613,
    -0.0448094006514539,
    -0.0013782487464318975,
    -0.019910108796887628,
    -0.029499039523534974,
    0.009727766651127522,
    0.23660594653622605,
    0.13525426015371686,
    0.12986891429001823,
    0.0900638620248784,
    0.18360673001482497,
    -0.02153335643652486,
    0.02987647861847667,
    0.04145315487019839,
    -0.20803354550757097,
    -0.19139260385232895,
    0.02065686842768176,
    -0.08781460749003177,
    0.005369150279976741,
    -0.04736837250784999,
    0.028920830434796367,
    0.15265512268592307,
    -0.0729132241243312,
    0.19021615967228686,
    0.18739145024381906,
    -0.18187557613084926,
    -0.1830575837450451,
    -0.19226970367422305,
    -0.12700663384287092,
    -0.08732112119800045,
    -0.008827982365624501,
    -0.05080111522370998,
    -0.11631371977853798,
    -0.06942591529514998,
    -0.0804383417786263,
    0.23526079050300913,
    -0.08265936647057166,
    -0.16900134583560014,
    0.11386348167619596,
    -0.00445421837542706,
    0.18139203608301477,
    0.14620943771832612,
    0.23967647704324305,
    -0.1730913167434479,
    0.15071991277584793,
    0.19981064386783945,
    -0.11345949855136998,
    0.2197955094590397,
    0.17741180910526191,
    -0.007189687824818479,
    0.1105397744523518,
    -0.0774076712519963,
    -0.20804686708964598,
    0.05319818376546315,
    0.06453449213450384,
    -0.1533909662916548,
    0.11125156338297981,
    -0.20355660026036082,
    0.20515694820558564,
    0.2320984124382669,
    0.05806753775110123,
    -0.1468584673989073,
    0.11166944588393429,
    0.03260863197047456,
    0.0579826346025121,
    0.07216610031003638,
    0.1803399304707582,
    -0.11745484555008463,
    -0.04623982224930147,
    0.058179410850271326,
    0.037239814065482026,
    0.19159540431938754,
    -0.12131115137223272,
    0.0008739177252475635,
    0.05671263141912976,
    -0.056397698092804496,
    0.18042869329549557,
    0.03734244391259766,
    -0.221058360389277,
    -0.03708261625075665,
    -0.10339098733899804,
    0.014317493269785497,
    -0.0190608650742534,
    -0.23800032938493657,
    -0.03556072488342891,
    -0.013953170498830467,
    -0.0837127606591621,
    0.2196959821567741,
    -0.044553448500198004,
    0.1506055432564043,
    0.07192628867164211,
    -0.20103362576837183,
    0.06874539009251598,
    0.19718505489532964,
    -0.15352638703113344,
    -0.17159275551218248,
    0.23471308056530876,
    0.1908784831920632,
    -0.12947493162616838,
    0.14043783371951943,
    -0.021989267332065555,
    -0.23648315383292928,
    0.028757159695062998,
    0.0707759780348562,
    -0.06499287922091804,
    0.07697316481843111,
    -0.20377617732454978,
    0.163255051145167,
    0.2031347088768889,
    0.12786812632019937,
    0.032377540541267485,
    0.07233887865847272,
    -0.17088805960983405,
    -0.052471550530218874,
    -0.013875264653921507,
    -0.12912248205895757,
    -0.17465609368378296,
    0.1581555779078775,
    0.1596618437691482,
    -0.2170479367567822,
    0.06955549169324701,
    0.09170251052845298,
    0.22749603389020473,
    0.13463955170170627,
    0.21983470637763708,
    -0.07184987224949844,
    0.16509774334395982,
    0.19335198154841748,
    -0.2260828645131712,
    -0.19067767613989994,
    0.040605314083178155,
    0.12651026122039316,
    -0.11420487471766505,
    0.01754087917014746,
    -0.01036145540408182,
    0.05328007645389205,
    -0.12433888399672254,
    0.13101116612254415,
    0.15625409464223255,
    -0.16346544552063275,
    0.012388691618026746,
    -0.009026101152779922,
    0.07028142374136721,
    0.222897096964008,
    0.06331858601974906,
    -0.04680901099466083,
    0.21453412072371703,
    -0.1051313486901261,
    -0.06259569823664922,
    0.0070805366619690335,
    -0.20037397362157508,
    0.017211681104548987,
    -0.15962005376332908,
    0.015712933200901773,
    0.03394936147144611,
    0.04460353515845916,
    -0.20082518365531474,
    -0.2274469119429944,
    0.10503107340664009,
    0.20439953303561664,
    -0.21184399509047686,
    0.0826007168666901,
    -0.1740314704842693,
    0.005673723140070759,
    0.22259028346685675,
    0.17965585175194243,
    -0.17278662058010613,
    0.1446442625042489,
    0.12058082417606145,
    0.009120829391616054,
    0.23218219418370065,
    -0.08929478598074801,
    -0.04820441422810097,
    -0.11635511468575853,
    0.02597976099031332,
    0.056197645112122524,
    0.009930081162437831,
    -0.1306606943442888,
    -0.1025433927676086,
    0.07504080931874549,
    -0.20920751367934756,
    -0.028938769067059254,
    0.004452738588198474,
    -0.09129294516058603,
    0.08098171432007012,
    0.00612582688134853,
    0.16551723187189257,
    -0.012211878924380682,
    -0.14778594717042398,
    0.16663907969070296,
    0.024917924158753445,
    -0.06160233562850717,
    -0.1547769130009637,
    0.06859686016198355,
    -0.22843896814671658,
    0.07584415978083169,
    0.11361279968926907,
    -0.20930103297798966,
    -0.1536683471318949,
    -0.16973257107296155,
    0.20012759012886522,
    0.20253110686505574,
    0.025649995766416175,
    0.22470174308957147,
    -0.07357632589999157,
    -0.23270637774593803,
    0.07732601502741084,
    0.07856732728991513,
    0.2350963967578722,
    0.009916712845413006,
    0.1816000849611354,
    0.14324327105040321,
    0.1709433127779842,
    -0.23808383133378874,
    0.19586548028752734,
    -0.2031141569261501,
    0.21412866173874143,
    -0.0003794190707767497,
    -0.21155493557206706,
    0.05952504113590015,
    -0.040890831979635736,
    -0.21454923044124088,
    -0.08063676080163076,
    0.015782016255399316,
    0.18471268243272382,
    -0.06686001936607835,
    0.1384933253380415,
    0.02130895892732816,
    -0.0015493585717900812,
    0.03784042328925484,
    -0.1540698157080726,
    -0.19780051624450357,
    -0.06855544715166292,
    -0.22296436083695392,
    -0.10658811935582027,
    0.0015073352552981058,
    -0.1546546557594501,
    -0.09370121633492771,
    -0.03492605699826809,
    -0.03879924317180982,
    -0.12800509635448384,
    0.022012212281811314,
    -0.025095815010169005,
    0.08149855298613387,
    0.001309542090002119,
    -0.11484403688430667,
    -0.07607116409740965,
    0.007049631112212355,
    -0.1459976045489881,
    0.009581453358458154,
    -0.007651666279630183,
    0.08700320608395026,
    0.06916624781547036,
    0.17713456010172585,
    0.0017344354783569646,
    -0.1947260685974063,
    0.10175403120293265,
    -0.15896066715352597,
    -0.024368907804663775,
    -0.07095128517412282,
    -0.0848632278864993,
    -0.08249813966731868,
    0.2197365783445487,
    0.1331156064651159,
    0.05928723550170158,
    0.2247400065142132,
    -0.21655584857954407,
    0.030344924289022884,
    0.15004496915955615,
    0.15607373204903674,
    -0.18896443861290427,
    0.0789729806787896,
    -0.1324228880788739,
    0.00021111154823353837,
    -0.04217139696109169,
    -0.19874197677335767,
    -0.22847943955819383,
    -0.15447570315090386,
    0.1034471453544269,
    0.10436062074989831,
    -0.20744185269454643,
    -0.08388770056364057,
    0.014082335970381442,
    -0.2061467636773808,
    0.13086512602315614,
    0.21643398150128254,
    0.0342199620117306,
    -0.17575533186315703,
    0.048300020599220006,
    0.08075560957471564,
    0.18796177436884462,
    -0.12301896414580005,
    -0.21397833942341224,
    0.09983947179048537,
    0.005570457699160791,
    -0.0714590563121846,
    -0.09475748926699054,
    -0.11890550652325695,
    0.19237521531413376,
    -0.033139005886764224,
    0.17030278687810635,
    0.21316330877139195,
    0.021675331986976985,
    0.043257695849303356,
    -0.007037918819241332,
    0.16170501089778577,
    -0.2152728577705675,
    0.08942220918511347,
    -0.0307371126240052,
    0.10415582232698378,
    -0.01107528472257056,
    -0.08256868011733354,
    -0.016994898390452033,
    0.12499968360567083,
    -0.16363365519824938,
    -0.1480257278153201,
    -0.046001061302312296,
    -0.08068334069850494,
    0.0882118343780793,
    0.15824320849473267,
    -0.01678210902973608,
    0.22639410834021712,
    -0.09445690853533903,
    -0.13029314327789734,
    -0.10192530241197872,
    -0.16224424949863814,
    -0.1652397386649723,
    -0.212754780179451,
    -0.21157070890595078,
    0.05525271588169165,
    0.14246648198381015,
    0.22471285036141814,
    0.20294986026988862,
    -0.004412239727431445,
    0.03851577516026832,
    -0.13958663752533848,
    0.08663234456588495,
    -0.22971110562943486,
    0.10791991894568648,
    0.03585739708310867,
    0.06682866838431754,
    0.08153927258519948,
    -0.10478044794803987,
    0.20452752588359044,
    0.10931479682261795,
    0.15422488866240655,
    0.04301535094867312,
    0.14699810263241517,
    0.1582531647918971,
    0.1033131949960005,
    0.18044322475034824,
    -0.03534879585850429,
    0.1543852537713784,
    0.047603253973809045,
    0.14042533299935672,
    0.23350040326843652,
    0.04661280469917075,
    -0.08279389102583638,
    -0.01487579785952994,
    0.06038495904871266,
    0.03215705782588745,
    -0.058295456111534055,
    0.18588111193346796,
    0.14020442072368036,
    -0.1452894138995377,
    -0.010380172743725236,
    -0.014006766247690976,
    -0.1466839819688681,
    0.02646921938229643,
    -0.06675293256292965,
    -0.11906691396154812,
    -0.07038723721137816,
    -0.07913938016658828,
    0.22916083746823604,
    0.10589180549582385,
    0.23602911694855727,
    0.058551804742797885,
    0.04661134447645006,
    0.1127727149099823,
    0.03291330774274766,
    -0.18619396164790283,
    -0.1378390929119478,
    -0.050572944868431995,
    -0.0062221909615054905,
    0.08418074017400179,
    0.08626414478638963,
    0.18832935434105968,
    0.04090320156371483,
    -0.07532564741409314,
    -0.17800764355534782,
    -0.17310303449784709,
    -0.1393357101870005,
    0.06540354070506998,
    0.12506950968135241,
    0.2087303454824292,
    -0.06908025299798577,
    -0.009723653122099192,
    -0.06424406746195345,
    0.008872251938715941,
    0.07025121956684519,
    0.004470855190556943,
    0.021502175401742412,
    0.021678103050999258,
    0.083126081849821,
    -0.06585297382006972,
    -0.13907574686370405,
    0.04898205794329158,
    -0.019608147006600872,
    -0.10325875649319931,
    0.09499265511812714,
    -0.007725076389327262,
    -0.026367705840778112,
    -0.1310115174081566,
    -0.022897486813782057,
    -0.20258221762173798,
    0.06684679094939955,
    -0.006195307672397664,
    0.14170948889871474,
    0.00615498097679067,
    0.029985705522793338,
    0.05810618969646758,
    0.18023544410547804,
    -0.1081398243923576,
    0.1392526220575652,
    0.05114365834077585,
    -0.15678038934848307,
    0.07704923427642296,
    -0.15993296958490105,
    -0.08869442372797724,
    -0.10916900480469721,
    -0.16007972159779754,
    0.186894776139734,
    -0.21345611541470177,
    0.11500535478861344,
    -0.2150038630699099,
    -0.04040172768596555,
    0.004923944280185416,
    0.1677287648658904,
    -0.0804745523496549,
    0.06195965161037563,
    0.028731640574446715,
    0.1370975761480546,
    0.024862227134974733,
    0.08361382045381342,
    -0.14102329447488937,
    -0.16372890187223604,
    0.21277030712684603,
    -0.1721696461150973,
    -0.032564618790982644,
    -0.020226645487953568,
    0.23447084809861785,
    -0.044031945215133435,
    -0.1803271453450239,
    -0.05337788280087459,
    0.11895694636032841,
    0.08907456408211796,
    0.1968239880903152,
    -0.041183136521896244,
    0.10776292454898452,
    -0.22526089649981954,
    0.08673703725083004,
    0.10486766974555153,
    0.1512729909159904,
    -0.13336195006125096,
    -0.05674759136572186,
    0.05048623328339902,
    -0.16765479597016522,
    -0.18887265611446316,
    -0.23051153362786203,
    0.0039700228591244,
    0.16520509160619654,
    0.05421808821039889,
    0.00525434059348134,
    0.0771087618070693,
    -0.147101677486271,
    0.03635483548456482,
    -0.052106378160720376,
    -0.11378722001965462,
    0.20559420599470696,
    -0.18341463919444562,
    0.026642523768559617,
    -0.20967904406612428,
    0.0014947938946689825,
    -0.10109106625409789,
    0.07228929445009973,
    -0.13038591971414829,
    0.17000864897135562,
    -0.19286771884588938,
    0.1401602436883352,
    -0.17779592905614613,
    0.14389503492204941,
    -0.11520588972113568,
    0.009417043899449567,
    -0.03562973453303894,
    0.15225875480116802,
    0.07193223849935279,
    -0.21030199943700767,
    0.012993824261367807,
    -0.16246675213989087,
    0.17689280320580203,
    0.031079798401762802,
    -0.05429831217834938,
    -0.11754328581873608,
    0.07653454588889816,
    -0.13972561048406099,
    0.10856724593319993,
    0.1264234978153511,
    0.1434524105284124,
    0.05531033160634452,
    -0.208843122202437,
    0.16983038168992343,
    -0.06755823619274456,
    -0.06391166015875854,
    -0.016867171032896144,
    0.1727848169471245,
    0.18223269693866995,
    0.028608186054039197,
    0.10928964401586216,
    -0.22300003527236742,
    -0.009081870558562124,
    -0.21117180644851802,
    0.07508973872611935,
    -0.16811377841590383,
    -0.07910342171636335,
    0.16475895385975728,
    0.22892480390093367,
    -0.1400964374821644,
    -0.12875416990599475,
    0.020967968981828525,
    0.08827835178382448,
    -0.030722988024986665,
    -0.06807484437889884,
    -0.15421213336300046,
    0.09672080135248926,
    0.23494124504068287,
    -0.11102143298516014,
    0.1079176241998593,
    0.11210029226001209,
    0.19095034107376874,
    -0.01846617651955175,
    -0.0021221442888364785,
    0.17367581167283155,
    0.1480297488252856,
    0.23692754804042176,
    -0.06164530890274909,
    0.08892367800186377,
    0.1645701860841576,
    -0.1597053798758047,
    0.039668731375331515,
    -0.04594175835870635,
    0.15070797750916817,
    -0.10228358023177196,
    0.00754603640865203,
    0.1395790141690617,
    -0.21902988137626814,
    -0.20109144501815612,
    -0.1180469975308628,
    0.1503557816403975,
    0.1576331469023199,
    -0.16074413442904464,
    0.03767601828453704,
    -0.1224717298727574,
    -0.10603989671083616,
    0.20560529241094272,
    0.1107539309992943,
    -0.05837365405778087,
    0.02680282399585146,
    0.038443361675505036,
    0.04856366630945519,
    -0.07557201646741432,
    -0.13722274474639934,
    0.15551716745954963,
    0.02359909804572911,
    0.09463932521395133,
    -0.08468453713887693,
    0.11109423391528517,
    0.17194251897395116,
    0.14204468763377298,
    0.05797688300309693,
    0.23597159099573728,
    0.009100359433561467,
    0.04322802184846179,
    0.2275333420527992,
    0.23297507457345096,
    -0.09555692211069083,
    0.21520171990742823,
    0.08226819346175257,
    -0.01799775949411147,
    0.20828748073996725,
    -0.11950884731391292,
    0.15243837203554927,
    0.23773684402321515,
    -0.16242669808792554,
    -0.13752457988875894,
    -0.2377293338624441,
    -0.03499388200638422,
    -0.21705178124145758,
    -0.07373287706133694,
    0.06590193056068974,
    0.16672055871818126,
    0.12926023790580216,
    0.12877166368757806,
    0.09371876018709363,
    -0.14505962352071575,
    -0.18850151312559793,
    0.00038269124309303973,
    0.22739654619683092,
    0.004086913097953344,
    -0.011511757625563487,
    -0.15968552901074012,
    -0.11396118429211696,
    -0.18271684328861473,
    0.1901680887661246,
    -0.030737321215138783,
    -0.2108534080036289,
    0.016826114817921206,
    0.008153056520295299,
    -0.02089362771809751,
    0.07949516210022664,
    0.124446222227933,
    -0.22510353050262788,
    -0.1815239702445166,
    -0.0020266034282760467,
    -0.22178523213680051,
    -0.2170908221323757,
    0.2107285285210255,
    -0.009025372195279643,
    -0.11359919991125333,
    -0.07575654742036102,
    -0.18518164931031927,
    0.18509259863069905,
    -0.0442133971828335,
    -0.13056091717798662,
    -0.17960426421875333,
    0.13612379533148217,
    -0.024564473624835888,
    -0.016267703665534695,
    -0.055161376057911216,
    -0.11068237660497844,
    0.034475412941423644,
    0.18234364887019341,
    -0.1348964270683198,
    0.0019948484123014573,
    -0.18012937591239545,
    -0.10722598190603211,
    0.2094433980804787,
    -0.007154722670774785,
    0.23083059618982923,
    -0.03380560347502766,
    -0.12626251348828074,
    -0.1393734288140754,
    0.21157955278749987,
    -0.1822477739536315,
    0.12120010920775492,
    0.05214877819524099,
    0.06377952150550895,
    0.13106141233300828,
    -0.05540806974056749,
    0.1446921842380963,
    -0.18918141216716344,
    -0.07796260586738932,
    0.1730114324519511,
    0.06420738862702943,
    -0.023299131652774308,
    -0.04838608465207436,
    -0.1426549445320662,
    0.14202489427736992,
    -0.017946141242441573,
    -0.018454345935072287,
    0.04912674868450762,
    0.1744881585828467,
    -0.11754745549921812,
    -0.07610167877116254,
    0.15940881595745934,
    0.1311945379706553,
    -0.11298561817919611,
    -0.23731582798895004,
    0.036382148203636965,
    0.12147473928002399,
    0.04971763568025682,
    0.16732971430091748,
    -0.1883695276674528,
    0.13598777109975996,
    -0.14542142409368777,
    0.13070301960485528,
    0.1759296587112826,
    0.06918154401969838,
    0.19226949287790934,
    -0.15478910206106095,
    -0.21359484467018827,
    -0.23037712561879226,
    0.14695951575719715,
    0.07757977516906284,
    -0.173067788307236,
    0.11107311354537516,
    0.21810394817092763,
    -0.23652171791118648,
    0.17135637044931146,
    0.04833869831202206,
    0.033123193358365347,
    0.21494953646941836,
    0.2163984274693599,
    0.09533969688869832,
    0.18753465360432214,
    0.09400803421606772,
    0.05073006918918445,
    -0.20975366877227225,
    0.05668822284946369,
    -0.16786269565551548,
    0.06696915178271422,
    0.03411315182356835,
    -0.00434809005668985,
    -0.16093283701078218,
    -0.1415506290204555,
    0.17478573550114673,
    0.11175617071426219,
    0.12181176941215496,
    -0.06449689691753327,
    -0.03305371096283702,
    -0.054075869291772286,
    0.16192450254078591,
    -0.09792286466765719,
    0.14746747292683735,
    0.1623740799882279,
    -0.21863988127955378,
    -0.008344034810013284,
    -0.037615117320191974,
    -0.1282070347740282,
    0.09793123146819024,
    -0.02038033241692481,
    0.20887777070550734,
    -0.14647800049498721,
    0.10616610517578308,
    -0.20344908667344025,
    -0.11530701004534277,
    0.007054457202260686,
    0.18752430831564595,
    0.12168132339563419,
    -0.19527233748346717,
    0.017694578469166514,
    -0.13737381132639662,
    0.000850857986298444,
    -0.19826939982250089,
    -0.06334609254075908,
    0.16146778504807735,
    -0.21938490669630223,
    -0.22835659533020913,
    0.03554304024338016,
    0.024279303869625186,
    -0.03572575431104095,
    0.20830394084261594,
    -0.1405237242958708,
    -0.1417713729034126,
    -0.1768700953842049,
    -0.03653493056170334,
    -0.05380340474277149,
    0.14468801194782607,
    -0.00405147900481769,
    0.06984168816390426,
    -0.09389109206679726,
    0.192799084431021,
    0.20075564143499447,
    -0.2138930656509286,
    -0.05425370735209543,
    -0.20212537093070712,
    0.09620859787251701,
    -0.208421719126764,
    -0.10820443809405304,
    0.23979391287647273,
    -0.22873058308389102,
    0.17445221719324328,
    0.0311083124092261,
    0.18990967412003357,
    -0.11687390704338887,
    0.1542091328551728,
    0.020170063278665818,
    0.009238491412211971,
    0.16063421978765824,
    -0.2276325873597301,
    -0.19136400733160763,
    0.23144193193530255,
    -0.14012546468659348,
    -0.1702030276296684,
    -0.02222132102844039,
    -0.07002811188334927,
    -0.024206972949362367,
    -0.15749757710322904,
    0.0802067619481335,
    -0.20512133458419463,
    0.01025810192980286,
    0.13588636949134358,
    0.03803817430102481,
    0.023223477224061827,
    0.02657148562729267,
    -0.063239235681428,
    -0.0376257475358981,
    -0.09542436673129431,
    -0.15888331439842693,
    -0.1223655454089014,
    0.23714086525744973,
    -0.031843900703209006,
    0.07757628838823008,
    0.1628896740607793,
    -0.02952796503642837,
    -0.12449501663588189,
    -0.15938592834806226,
    -0.0821154795559117,
    0.07923635448631366,
    -0.2005405888457771,
    -0.020530742129783473,
    0.08509780323483145,
    0.1939650702511082,
    0.06523499221894453,
    0.03944615625239252,
    0.16114884276705105,
    0.10552255762910805,
    0.07458078880236908,
    -0.06751421799501403,
    -0.1904757068049416,
    -0.044001539870485856,
    -0.03534536433563877,
    0.008370185279619718,
    -0.01749595845684306,
    0.09107411098075469,
    0.15613872017568012,
    -0.09135704870770209,
    -0.2272157660193524,
    -0.11826641392902802,
    -0.10962036476083413,
    0.1317114540869096,
    -0.1512621429540452,
    -0.03350606094141119,
    -0.04298854735772223,
    -0.14173378937313832,
    0.10332297949748921,
    -0.09413982164201587,
    -0.002948486009807844,
    -0.16577231452856114,
    -0.01521530599675549,
    0.02552707489133816,
    -0.00019282248172248877,
    -0.08341406305083957,
    0.08427061192714386,
    -0.05477503765235632,
    -0.12859997132606948,
    -0.17435892113493107,
    -0.04296116097414623,
    -0.2461680013514708,
    0.19750595145604036,
    -0.10943419270431594,
    -0.09360648517447889,
    0.01311073024036305,
    0.0548113941501989,
    -0.013581577621392444,
    0.1615473130988466,
    -0.1357387817346112,
    0.07959743039557499,
    0.00909360447045502,
    -0.19336849782557558,
    -0.08682416975927379,
    0.05364233499608818,
    0.03776611853654725,
    0.17178495504807959,
    0.1572489162456632,
    -0.12635716464562047,
    -0.09675924567373612,
    -0.04301411593093185,
    -0.1691060713502712,
    -0.057500424230877624,
    -0.1945791983698757,
    0.08508772851317387,
    0.16689096730756314,
    0.00980420030223283,
    -0.16897127548000046,
    -0.1793279742215589,
    -0.08732682259507632,
    0.06271561861816849,
    -0.0038693073946657764,
    0.03545988355628069,
    0.2256211667334455,
    0.10611222587395451,
    0.06375301881304063,
    -0.04058442428639379,
    0.12826104453125617,
    0.08146232482625303,
    -0.21502645314106186,
    -0.13767774472093672,
    -0.0015847829434483696,
    0.08486269145661411,
    0.11162736557327582,
    -0.1388202045416579,
    -0.23803065953215588,
    -0.0030242627252986074,
    -0.01858573545175835,
    0.06254774812002617,
    -0.07875077472825509,
    0.18113174402210253,
    0.0067077786054254,
    0.17256282077791613,
    -0.16408624761717197,
    0.09001099376117788,
    0.019795739928106036,
    -0.11503754053729158,
    0.11393856462379967,
    -0.23600566259832992,
    0.19211774706045046,
    0.030144953328618877,
    0.034137287211073335,
    0.1256108290878845,
    0.030748814087370166,
    0.0971647587878677,
    0.14905428082409014,
    -0.18511563751283833,
    0.15539298216644565,
    -0.027440036935382384,
    -0.04813821688859411,
    0.040324359839773435,
    0.18553894748142277,
    -0.12590429321160598,
    -0.15848396738057743,
    0.14515310311620486,
    -0.1074186809234853,
    0.09048688916873363,
    -0.04682956051247013,
    0.0788118179972404,
    0.18077994357198834,
    -0.11670132394105594,
    -0.1313152335206638,
    0.11265681339845238,
    0.023686229969789228,
    -0.01752181071191424,
    -0.2095977060545783,
    0.20181552648077672,
    0.0005111991366791562,
    -0.0360475079295536,
    -0.09262442771136521,
    -0.039338608175139005,
    0.1115102142288919,
    0.004253210018409021,
    0.20380345224382468,
    -0.004434410174443147,
    -0.025868524889928402,
    0.13111431092389142,
    -0.0164672121116749,
    -0.0399022435417296,
    0.09355601768789759,
    0.18715875490623246,
    0.07238716685579857,
    0.16408068615979257,
    0.1520108013649419,
    0.08069910378002186,
    0.07692443930985532,
    0.0706735207937756,
    0.015939392791286523,
    0.22268390211373604,
    0.2207853942772836,
    0.07899763474790224,
    -0.0024870440839271594,
    0.21414940407256122,
    -0.20457888200013608,
    0.1736970606027649,
    0.12245817391006696,
    0.1505352699252078,
    -0.009211202601693452,
    -0.17652555271163756,
    0.1683358343430695,
    -0.09931483565207927,
    0.05578117585312964,
    0.13163769407378043,
    -0.22363225823013588,
    0.026579634684529375,
    -0.07880854314434244,
    0.16744033834715127,
    -0.14917662248122848,
    0.14179375425327204,
    0.14589365609956564,
    0.1279301741030002,
    0.2300039124291541,
    0.027868057153868968,
    -0.21659625123256931,
    0.1684673511654912,
    0.012895424550065636,
    -0.004755582072875689,
    -0.22814815810896746,
    -0.046192618356421015,
    -0.11134359170390329,
    0.2348536744838394,
    0.16800854649303787,
    0.1764981843849881,
    0.16121032453859058,
    -0.14496976075357507,
    -0.09737056368272325,
    -0.0878396111161619,
    -0.09022116447012829,
    0.18460906030459986,
    0.09494022279667957,
    0.19033951086971712,
    -0.0017118018523596679,
    -0.2128570310051322,
    -0.0625335627534814,
    0.16569980594766123,
    0.14220269818179943,
    0.08739272546369015,
    -0.06333253129248584,
    -0.22334291608999576,
    -0.1243323450204338,
    0.12034664027773481,
    -0.11083901815479831,
    0.10958632197704621,
    0.07825843433540688,
    -0.08602391346155117,
    0.16226893869552483,
    -0.07033563248543886,
    0.0016703090750405068,
    -0.08522868221427592,
    -0.22714373399401,
    0.030314507521051925,
    0.0622450872780542,
    -0.1158705212384327,
    0.14336216888548495,
    -0.2142641842827979,
    -0.23099494764863104,
    -0.14441353485633152,
    -0.09640078445824349,
    -0.017771727240302918,
    -0.038316086825818205,
    0.10409887096312447,
    -0.20940703946085978,
    0.026817318295222548,
    -0.005624603609687648,
    0.056036838608478044,
    0.23852082136961783,
    0.14386341841717615,
    -0.12842759945685905,
    -0.1948639196635928,
    -0.0505311600254829,
    -0.1154081665116129,
    0.07732857795994652,
    -0.007621746055621291,
    0.19108169207409692,
    0.0882035793059015,
    -0.03597192788836166,
    -0.0013842915207915116,
    0.06985962612505497,
    -0.02102824654207241,
    0.191734640084978,
    -0.18547605875213785,
    0.1118531151198259,
    -0.14936222988200015,
    -0.2090212797424101,
    -0.04132550064563458,
    0.1118273432885982,
    0.1666421239382097,
    0.052739131435683796,
    -0.011616497567951087,
    -0.024004478442358347,
    -0.09134730353795506,
    -0.012443260787032869,
    -0.007285050709029945,
    0.20274158038159368,
    0.13631241145696604,
    -0.1900569862630486,
    -0.008959035356955976,
    -0.14376876704120192,
    -0.02969025664741467,
    -0.188693030235742,
    0.054994004500459076,
    -0.17027050098107002,
    0.23680601441518925,
    0.178801696355217,
    -0.1620908877821829,
    -0.22536673481750244,
    -0.0002251190996640385,
    -0.07977327243924331,
    0.06339440031136487,
    -0.1592290587976429,
    0.09233725799971573,
    -0.20593827232882222,
    -0.12194274929995935,
    -0.12142696185527187,
    0.11097449496842139,
    0.003424231579447332,
    -0.2502568671866407,
    -0.15277966925916903,
    -0.10569533048882251,
    -0.22195822329102086,
    0.022017961369205655,
    0.09908383249322958,
    -0.03587376834200907,
    -0.08948821192654093,
    0.008353669439758222,
    -0.18857136928101934,
    -0.14222668884428058,
    0.004263472866894756,
    0.21209521621000282,
    -0.06687968823340434,
    0.11391648139040778,
    -0.08838963135476892,
    -0.05655224002716986,
    -0.22798699821360233,
    0.1971222149624695,
    0.23343271748882718,
    0.0047112436024997675,
    0.148843775644499,
    0.19448639438156093,
    0.11418077795454963,
    0.11875637749855207,
    -0.2279983314449991,
    -0.22491852177797655,
    -0.1818861260956772,
    0.0682066651801677,
    -0.20624508592392896,
    -0.18083720928462627,
    -0.11117735661004324,
    -0.22042216368369574,
    -0.009660909191579362,
    0.02607187446870649,
    -0.1363014741068156,
    0.1536925635394397,
    -0.08491274177586923,
    -0.06038460143527486,
    0.18046983807753258,
    0.2046388370743134,
    -0.018684556250394033,
    -0.1694706400852045,
    -0.11541885673830295,
    0.041823006178913213,
    0.13654948672078646,
    0.11446278067988208,
    -0.10039742167057245,
    -0.2263421099548999,
    -0.2087878750646553,
    -0.06954039346986556,
    -0.006800590642323865,
    -0.10229567978280071,
    -0.1876804807510622,
    0.016354507182362872,
    -0.18843619512397158,
    -0.18198208905287572,
    -0.193237425711313,
    -0.05774631244371086,
    0.210815431736571,
    0.08773190270019227,
    -0.019648996690060115,
    0.04145670107883,
    0.0895542823415773,
    0.011378787357191254,
    -0.19164458194109604,
    -0.14402951009726278,
    -0.15983936753152644,
    0.0036205198447229487,
    -0.2188512970495462,
    -0.03545967496019953,
    -0.08142018534996859,
    0.23534333797998241,
    0.19320716210464228,
    0.13521480225291463,
    0.00403480661582303,
    -0.07094537507343476,
    0.05377074738547677,
    -0.16273357054132626,
    -0.09662787934391825,
    -0.04022432821893052,
    -0.048742669252052985,
    -0.2268263721482759,
    0.08938478031541536,
    0.195871480537733,
    -0.12789503409320388,
    0.057394541232345005,
    -0.018995479252325385,
    0.0008600036945668431,
    0.02457181181647359,
    0.2066465512952297,
    0.023503598558563217,
    -0.14816966059312142,
    -0.07993061209289015,
    0.1121334618001028,
    0.06801619171879705,
    0.014858488846979129,
    -0.04299289954130753,
    -0.08726965255074187,
    -0.07873404902492817,
    -0.1218730080686526,
    0.030966098104844464,
    0.060213364217694104,
    0.18143730556366225,
    -0.046481891280901355,
    0.007902470306660324,
    0.15157360463511943,
    0.09874949989557869,
    0.022126755743665148,
    0.06682226110203006,
    0.0029920052414432186,
    -0.20444887789665922,
    -0.00035399621148347535,
    -0.04464706513504639,
    0.2156038538632866,
    0.21565781285455993,
    0.039601681590019325,
    0.21345164178943377,
    -0.11875628809266321,
    0.20729433182306212,
    0.205247219050327,
    0.0004373307928517058,
    -0.19062835354131355,
    -0.07067656053728788,
    -0.05685873186731878,
    -0.0058223022155246395,
    -0.21666369690724296,
    0.03633569070385131,
    -0.09397477231240173,
    -0.054026123744721356,
    -0.11912447727055504,
    -0.04278727685578173,
    -0.22218214217305568,
    -0.12254347882307408,
    0.013039911066025872,
    0.15382023612003698,
    0.21718782831576022,
    -0.17911454485397243,
    0.09498219469271084,
    -0.13092536609969568,
    -0.20328514421962607,
    -0.0010269631701035863,
    -0.1334130605470857,
    -0.2053125156569448,
    -0.22363451825581385,
    -0.1573381477932096,
    0.19543450743458343,
    0.1294283229646513,
    -0.08896379110859604,
    -0.15733142369443795,
    -0.18231149233817034,
    -0.13763157586867128,
    -0.09287652078247466,
    0.1401491831944674,
    0.07181655424773298,
    -0.08634511595084117,
    0.1621093549107947,
    -0.14530959381251266,
    -0.19367297369973815,
    0.04456620303769859,
    -0.12785160618318667,
    0.06112132429143118,
    0.20181003864854763,
    -0.10822804073793105,
    -0.16445413660273764,
    0.0841016059684974,
    -0.21578766106358654,
    0.21304666471172168,
    -0.10806573961497114,
    0.11086632647680729,
    -0.18879394038849098,
    -0.15921823184985234,
    0.037536086803584154,
    0.0788534639026986,
    0.18384982036382236,
    0.19908493082339326,
    -0.004378761220166755,
    -0.022142874307772547,
    0.05132468646738722,
    -0.048076188570664556,
    -0.0014663517274263339,
    -0.22676446316136492,
    -0.19522784282734176,
    0.16131677770844427,
    -0.1360905352423285,
    0.18687254011011503,
    0.01744321298437726,
    0.050899501020954294,
    0.2172199807156759,
    -0.1290490012259054,
    -0.029469539006516294,
    0.034296873957562604,
    0.09540766186218545,
    -0.23330443141753765,
    0.07885606392498849,
    -0.13743284918374607,
    0.022843596997434948,
    0.15913887537230734,
    -0.014911828521038279,
    0.002066073293192529,
    -0.008689539823445076,
    0.19862136835890248,
    0.13208377080320816,
    0.03204706985629159,
    -0.14045462011943452,
    -0.12576070740769338,
    0.1891397051863312,
    0.1698562797479678,
    0.13475975552531375,
    -0.18492991772054737,
    0.20469605973020452,
    -0.013905583181307794,
    0.17419034572770017,
    0.20713786635876386,
    0.01741005181061636,
    -0.09403151801217534,
    0.22516355558569737,
    -0.12028172217683025,
    0.15335490575171598,
    -0.22972335434131222,
    -0.06862990443940636,
    -0.20796458322373965,
    -0.10214583608480106,
    0.0961566533457284,
    -0.16913298076205305,
    -0.20620192478864452,
    0.16875981800398349,
    0.12345662947674194,
    0.0071935761660462585,
    -0.1662413666504592,
    -0.05623713046645972,
    -0.07094831274799152,
    0.14439890203876238,
    -0.07177368345775074,
    -0.06200667786076837,
    -0.16721592975804248,
    -0.1077477316377926,
    0.12536365538655725,
    0.15107263144484195,
    0.026327322130466017,
    -0.08380060187733412,
    0.23012341756343824,
    0.05934095674132152,
    -0.08650103428426231,
    -0.07665160629013466,
    -0.04497382416822667,
    0.1085260895115284,
    0.08144433138086996,
    0.17124124477829278,
    -0.001267805460601991,
    0.19677415884027405,
    -0.09154879312535774,
    -0.10513989072025194,
    -0.08232651211059724,
    -0.22455284860935568,
    -0.1541112234481239,
    -0.21621944537592935,
    -0.0047789978480983,
    0.012346586619402121,
    -0.05488877678985889,
    -0.16084706651422628,
    0.21682285139506166,
    -0.07283746229123814,
    0.12912618459992722,
    0.16410369340088532,
    -0.15433983104879542,
    -0.02126217637481373,
    0.13449320549730365,
    0.23234033456042275,
    -0.021546611700528608,
    0.17115690471958175,
    -0.18621757262774247,
    -0.15243527532384385,
    0.195584393503384,
    -0.01367061755435311,
    0.2369814487487405,
    0.008190286882405601,
    -0.1136744728829661,
    0.22742971606397028,
    0.20862181108136713,
    0.013210108118765341,
    -0.1415527261713983,
    -0.0008426762755852947,
    -0.110230877642384,
    0.17217117077762095,
    0.0015981245214543739,
    0.04263416353900549,
    0.1416175644540656,
    0.07281152778913731,
    -0.14606786355483312,
    0.19768197242481592,
    0.14358749439044288,
    -0.1443353640205855,
    0.17902677019463922,
    0.06092868064803182,
    -0.03921627971143959,
    -0.1687919560267589,
    -0.031486636902867945,
    -0.23511165549614435,
    0.13269164277793932,
    0.17106425712018852,
    -0.061977293904288244,
    0.22176327208845664,
    -0.082574998062282,
    0.03281361206605556,
    -0.1642246487471135,
    -0.02034895182946036,
    0.09105954990879593,
    0.09768548574517749,
    0.0015783883803335147,
    -0.11606716826116016,
    0.1647477577217296,
    0.15551767409533243,
    0.05010718332733264,
    -0.10497072461616194,
    0.043010152503967426,
    0.010664644862463648,
    0.218401612624442,
    0.02705358629373223,
    0.0092927024409226,
    0.02708701218519994,
    0.12300335020550608,
    0.006906782857094361,
    0.2042870254997516,
    0.12024900901940422,
    -0.17890825732231957,
    0.0012486240726976153,
    -0.20220283866519292,
    -0.18195318095701887,
    0.058571872481887166,
    0.04618323121923022,
    -0.01188719690636076,
    0.22761648036342136,
    -0.12430443289383378,
    -0.09477334381369502,
    -0.03004140305197589,
    0.011514182567802891,
    -0.011178520705248563,
    0.2150978220282536,
    -0.0955881917979304,
    -0.12077027532117576,
    0.011490568654793278,
    0.1777716104989785,
    0.06933779092613136,
    0.12468461691810094,
    0.058390243726239785,
    0.20307305970455547,
    0.14015723368046673,
    0.16889426169657595,
    -0.02367844761474429,
    -0.19697484674154236,
    -0.10859275635842264,
    0.09516538524131601,
    0.16538748954105165,
    -0.08767714528337484,
    0.19685573573456105,
    0.025937120458251788,
    -0.008998867002459466,
    -0.00023341652665457083,
    -0.03417267056538306,
    0.22404799910708764,
    0.000879112763616189,
    0.14312852918616717,
    -0.2010044003013993,
    -0.11880675093407947,
    0.018116273104567607,
    0.1896259276303502,
    0.10902351302462013,
    0.03761865133882435,
    -0.2369987179198864,
    -0.0052511179187018624,
    -0.1550266248240376,
    -0.20346892221248583,
    0.024191703532689048,
    -0.14817759696398367,
    0.21691066779265733,
    -0.12588691887507708,
    0.07056956766577349,
    0.13674206753745918,
    -0.18431032340469608,
    0.11794662017743865,
    -0.023479999324218435,
    0.11954222551718824,
    0.231934500224743,
    -0.09654243836489225,
    -0.09827698728835647,
    0.1886387737144858,
    0.0178073020061414,
    -0.014941204161242774,
    0.179668028402793,
    -0.11078766676578083,
    -0.002360208478285785,
    0.1617201195981294,
    0.08770817191658753,
    -0.1517049424647372,
    0.05498221295412017,
    -0.180610167766158,
    -0.1257698268194191,
    0.15075419608919052,
    -0.056631069522674306,
    -0.11734031975618814,
    0.0077391096882751375,
    0.05109486152096687,
    -0.14540549689145083,
    -0.15859202984085188,
    -0.23211804339202702,
    0.054598973338692174,
    -0.1513086044175103,
    0.009062574789302698,
    -0.045917319429116345,
    -0.1534662165923242,
    -0.069777213987665,
    -0.18217349939354582,
    -0.12233473015929963,
    0.0021816003202791024,
    -0.2037297211926625,
    -0.20925914973068965,
    0.17726617947468065,
    0.013543619290919831,
    -0.10056526560096007,
    0.001663830899699681,
    0.17539221723419351,
    -0.198567356263808,
    -0.12254739710765708,
    -0.17078622569690696,
    -0.00817795290961107,
    0.0013735915772126045,
    -0.18482748037344707,
    0.16352257254155028,
    -0.18198098637292978,
    0.22340978470931763,
    -0.16209342096248247,
    -0.024269836946705994,
    0.03674850327563521,
    -0.10112151553095236,
    0.2199113656125301,
    -0.1623597327200755,
    -0.023853366547845836,
    -0.17356634839188367,
    0.059400539220976455,
    0.20314771419343572,
    0.22189856262770982,
    0.019685168495317925,
    -0.11516291765355069,
    0.23296154450956455,
    0.008668302935995159,
    0.15914542528488637,
    -0.11985589123206387,
    -0.10602358595926056,
    -0.19753426910312671,
    0.22003175529086672,
    0.05146292348921369,
    -0.16954845346609956,
    0.03146914237766279,
    -0.09722814722467683,
    0.002505098578795979,
    0.07298316160799474,
    -0.1340568801689447,
    0.033629430569705535,
    -0.14784667462637557,
    0.038176454007483054,
    -0.2313849174794533,
    0.029842884851538673,
    0.23838060189703084,
    0.22027909726411937,
    0.10116141071550522,
    0.17395863475395365,
    0.23306529265051068,
    0.06084514806161166,
    0.07338052993777487,
    0.022514670722332437,
    0.21133333437603574,
    0.20476108567043175,
    -0.10756678686137511,
    -0.00029681287646199893,
    -0.1159623846149925,
    0.07972112181484817,
    -0.23224876464206515,
    0.07846932173706664,
    -0.058615012782208736,
    0.08066547332341298,
    0.06803284161134224,
    -0.11440628121974165,
    0.11970419921188222,
    0.09616440181208832,
    -0.20251130528450362,
    0.23943878954262038,
    0.22518781734816642,
    0.14554684813730256,
    -0.015375675461255895,
    0.07857419343392294,
    -0.1252553549297412,
    -0.07495057203773514,
    0.10799135408590949,
    0.10129380133666543,
    0.08899833129538547,
    -0.2284346596135539,
    0.19717025582853268,
    -0.09442219569661281,
    0.20635501349130878,
    0.19598875212335437,
    0.08266367883684991,
    0.23907329503725547,
    0.13355677863821502,
    0.13662279975164876,
    -0.09489126554325235,
    0.22187222897367104,
    0.05552676522578489,
    0.1577080228580903,
    -0.04653049582580619,
    0.17105632249471273,
    0.21177643350021969,
    -0.18156318626903498,
    0.2149504776970923,
    -0.15522263144042173,
    -0.1621194978185368,
    -0.19892235989896564,
    0.06224048523423679,
    -0.1777078934951965,
    -0.08411021115703338,
    -0.11567303752156975,
    0.05681768437288754,
    -0.2354410892728021,
    -0.10461208891024437,
    -0.008163659188164635,
    0.012459437033543288,
    -0.10290786943556202,
    0.07956816524406174,
    -0.15493991174188396,
    -0.20172292023349903,
    -0.025542773055636243,
    -0.12516338371427316,
    0.14758456530797162,
    -0.16088146704431883,
    -0.010997597073205165,
    0.09384043262391659,
    -0.20893565802724698,
    0.18353112310747538,
    -0.10359554730461688,
    -0.05803201491632024,
    -0.14292995118566626,
    -0.08316158357587404,
    -0.0863994742167331,
    -0.21247010954468937,
    0.07542923744556303,
    -0.010701891999162423,
    0.2345584994456034,
    0.15867026038702553,
    0.20748444003315872,
    0.06355913257486787,
    0.1213663148315634,
    0.22409817080632624,
    0.19526086364380116,
    -0.18210017087345415,
    -0.04606078124788126,
    -0.23111705512614683,
    0.019456790854403293,
    -0.07829969125932605,
    0.2069800676663365,
    0.029531370904729154,
    0.012751022515976547,
    -0.17085728559803876,
    -0.18618324965844424,
    0.029361042709346842,
    -0.11422213003871688,
    -0.12481113050641,
    0.16535976365605937,
    -0.12033063123653913,
    -0.10127800636079609,
    0.20195088549760357,
    0.0876767448315699,
    -0.13205328332943292,
    0.08571075548284547,
    0.116035935820321,
    -0.21205106078587446,
    0.036706099359886626,
    0.06711733874325239,
    -0.0197360954590218,
    0.22970100031618734,
    -0.1552450040194419,
    0.125530606177019,
    -0.14280364245969923,
    -0.2040275046962313,
    0.16038097053578204,
    -0.10993223271075014,
    0.021747064079988606,
    0.12147711858347698,
    -0.1986657332779989,
    -0.203998097549863,
    0.07511760312839481,
    0.2079823751353242,
    -0.016461526452676067,
    0.1660577280573048,
    0.07785204776002153,
    0.061329317110225774,
    -0.14939423732428883,
    0.22793045291222946,
    0.10451117483492026,
    0.028661048295353594,
    0.16682826146601334,
    -0.204807755904994,
    0.04387267030324704,
    -0.1076838581511669,
    -0.015394771587116145,
    0.09189907421271244,
    0.10072601670261379,
    0.04735510504940887,
    -0.1834892737897218,
    -0.14645943203316245,
    0.014360756665242022,
    -0.033298556098904974,
    -0.1992545150406203,
    0.23629238979570522,
    0.021448398025669828,
    -0.16763867301591107,
    0.09964908967367532,
    0.09862662699999793,
    -0.11264284440708283,
    0.11536265027304479,
    -0.14508715112481124,
    0.09661855629289814,
    0.22747710158851214,
    0.15503395614151935,
    0.11342385544148459,
    -0.04086354397080045,
    0.05693200433545779,
    0.07724335717829955,
    0.05106501144103902,
    -0.04065198088085361,
    0.024882867707994596,
    -0.09125974602058083,
    -0.13131818656717906,
    -0.22070994274523104,
    -0.19382819327855602,
    -0.1469300817978822,
    0.22897338151629312,
    0.04003285365587576,
    -0.21615601632579537,
    -0.11779380398451707,
    0.04839827308735642,
    -0.0648292045681257,
    -0.06076786855871569,
    -0.0838810086396311,
    -0.0510632261790485,
    0.018763747357429236,
    0.0048190362879829435,
    0.15062172579202726,
    0.14998709027496132,
    0.19574884456005098,
    -0.017947765284182567,
    -0.10163172443202938,
    -0.008917837450682115,
    -0.1555543589165879,
    0.09228236317041037,
    -0.0201692289968336,
    -0.07007162191659144,
    -0.2019537876097213,
    0.11048117807985972,
    0.12954678508934825,
    0.2180576057377543,
    -0.07856978280261183,
    0.0653300357879456,
    -0.0005551783824339369,
    -0.14924371669501846,
    -0.14628847282998378,
    0.11802338257663307,
    -0.13358224668843438,
    0.17204697548331088,
    0.07734129583217386,
    0.07537946893130953,
    0.1546450983005653,
    0.11235563514088827,
    0.09782298712908455,
    0.11971640258193168,
    -0.09609464147434332,
    -0.122571851248693,
    -0.03580472292906764,
    0.12879293116781482,
    0.16495797136427712,
    0.17410406851314342,
    -0.06886171573532959,
    -0.021727753736512784,
    -0.16170617220583725,
    0.144150352758153,
    -0.15578303056047652,
    -0.09287407703820456,
    0.19644234133718613,
    0.050756517203078305,
    -0.09465979903565526,
    -0.15834412465567332,
    -0.16191972557854764,
    0.19175740894742044,
    -0.21850195665945227,
    0.2060332669592397,
    0.18999231554668142,
    0.005503456163224748,
    -0.010048694669605018,
    0.18443192013430124,
    0.1002459985580278,
    0.22637865150296277,
    0.19195369737919607,
    -0.15394111305620092,
    0.1442811540513905,
    0.11608403616345006,
    -0.16750396054468464,
    0.11006960608696484,
    -0.11985526200686646,
    -0.13894935635259342,
    -0.00529329763780817,
    -0.020722779020979073,
    -0.05722336424573022,
    -0.15395302550404025,
    0.12676095198223472,
    0.23926823628165422,
    -0.04539906326984204,
    -0.15844468819641727,
    -0.0028978129049679353,
    -0.20720346492708905,
    -0.1930149416036843,
    -0.07328296429863886,
    0.14707766624814175,
    -0.1815294669721352,
    -0.029898410457711588,
    -0.11981908580045439,
    -0.2201981791920962,
    -0.04628287008561867,
    -0.0045764706519664765,
    -0.032039977705507164,
    0.1727849361557006,
    0.09015134983126026,
    0.14564999312322896,
    0.08792433735066937,
    0.016235147990680147,
    0.12569126875021783,
    -0.1494886503390031,
    0.11738495094536176,
    0.1090919589386135,
    -0.09610297589856516,
    -0.018575786923164576,
    -0.17912018779564867,
    -0.20876292448786596,
    -0.010272974140666798,
    0.03476829918167474,
    -0.04392872767722634,
    0.06724010538648845,
    -0.18300184677694709,
    -0.12742204986637617,
    0.16255004907127574,
    -0.25328606041747487,
    0.029260443080583114,
    0.1824691755740683,
    0.1774228955060776,
    0.09527726515050886,
    -0.21772574047244928,
    0.022185091571505142,
    -0.07791582498057181,
    -0.06028026772106823,
    0.18154886345045784,
    -0.0749629631525091,
    -0.16904381388003809,
    -0.19068551411177098,
    0.14784647877863263,
    0.0020796976187594674,
    0.23691704441894518,
    0.04112652288901324,
    -0.2229805434383894,
    0.05185515118156343,
    0.21876189152094339,
    0.14505797097239292,
    0.06502509205271162,
    -0.17782675076455853,
    -0.13990996600804098,
    0.15975475932506616,
    -0.1571656338427047,
    0.04703686549472368,
    -0.02203258655090128,
    0.0737725428219161,
    0.02635334389184384,
    -0.18041863796995122,
    -0.0896539989027566,
    0.2080488861681094,
    0.019435720508937725,
    0.11676533853263989,
    -0.11612727878954433,
    0.18791160574241947,
    -0.043524656463700136,
    -0.07426737339574896,
    0.0407175706889048,
    -0.07958056270126379,
    -0.09047018864543527,
    -0.025779401282232106,
    -0.004286593667216012,
    -0.13218983621884667,
    0.07545519088816277,
    -0.23229641839321344,
    0.1434671104899726,
    0.22186658204283943,
    0.030450657644564193,
    -0.04841800106881146,
    -0.21897607999426752,
    0.10740196769621166,
    0.19484617777068863,
    0.2037323351637046,
    0.012301488151748344,
    0.0731178045979039,
    0.22955307478473436,
    0.027320189138325318,
    -0.11069428592121251,
    -0.2273579225240847,
    0.09930592905013558,
    0.08738790679367003,
    0.2121719981199215,
    -0.11727682711057161,
    0.09738263978133771,
    -0.0727159915693475,
    -0.052136977086458446,
    0.13587186981269686,
    -0.23916560491359748,
    0.17428666607513654,
    0.10627653233105043,
    -0.13858118178823017,
    0.13757135434512044,
    -0.05288625854656875,
    0.03249787934138284,
    -0.05691760600574821,
    -0.23478028464206052,
    -0.01589970790427962,
    0.11198153159958583,
    -0.019088049864745694,
    -0.11310482577852407,
    -0.002053417830368196,
    0.035626194290538836,
    -0.059758184695988516,
    -0.18387219765740576,
    -0.12403658816318937,
    -0.030762915575879467,
    0.0800379276060967,
    0.2123187509295039,
    -0.005317363963376462,
    0.07951276410823546,
    0.1338441767641052,
    -0.09901496153674212,
    -0.07295663831134303,
    0.15582767559442912,
    0.16899856474547648,
    0.0492430903117784,
    -0.18319664635152622,
    0.13189801476999083,
    -0.196624912245015,
    0.11495694745733702,
    0.019653063664223674,
    0.0707561600978413,
    -0.23368779470629483,
    -0.07789601374938979,
    0.09617602451166582,
    0.18242259479567532,
    -0.061575425181097806,
    0.21293868174200728,
    -0.045793292697036775,
    -0.14078793465939457,
    -0.09826180632094061,
    0.005569592328357277,
    -0.03443782463006834,
    0.11100262797648955,
    -0.12835688461905082,
    -0.06111931818306942,
    -0.2377539526254972,
    0.1940618027291853,
    -0.03704498054256228,
    -0.18707912752771022,
    -0.002080084518249989,
    0.009541699153548367,
    0.05943492967431768,
    -0.017442100146669623,
    0.1472670539270107,
    -0.07625825595816094,
    -0.06482941557809516,
    -0.049370815806511176,
    0.03463697348270121,
    0.19030607283061918,
    -0.0015058149134846693,
    0.18235829908221665,
    0.18638779893454394,
    -0.12016415031324645,
    -0.011489355965616958,
    -0.10801828862157564,
    0.09399542806671514,
    -0.07789414873341022,
    0.0662650958942671,
    0.024913877007110737,
    -0.15411757129566578,
    -0.15807472477926998,
    -0.2341824688498873,
    -0.12984680119285158,
    0.05984144639603592,
    0.005244573831226371,
    0.17802689344019176,
    -0.20982928235763124,
    -0.01730083951570416,
    -0.21416335150393143,
    -0.008401762563600515,
    0.08108569752671632,
    -0.2142617285788134,
    0.21078902698723634,
    -0.06765032068080679,
    0.21150990761463762,
    -0.031967536466585816,
    0.13183012575408118,
    0.2172699654098575,
    -0.08102057561026656,
    -0.050774963841983864,
    0.12113388921698753,
    -0.20403375930001807,
    0.13798334540210158,
    -0.14702958401452731,
    0.22219170868305768,
    -0.15384255750973383,
    -0.09287988023637267,
    0.17654742749056285,
    -0.09884853134018239,
    0.20428875071525152,
    0.16200632996091402,
    0.21850374479194737,
    -0.23232133304987426,
    0.012796447635365325,
    -0.07223082402106543,
    0.049554268531433125,
    -0.17876384342284993,
    0.09251761399410818,
    -0.0019070513457055994,
    -0.10817339682316823,
    -0.21490179051908384,
    0.12076857660866151,
    -0.08047957252151335,
    0.17447015808588745,
    0.03450809140509714,
    0.06603771201328594,
    -0.027918908341846717,
    -0.02463675590976725,
    -0.07492976428517324,
    -0.2064762289401678,
    0.14717535292281544,
    -0.1474365085636211,
    0.13571076781533967,
    -0.07432214555676141,
    0.14661837747713108,
    0.20425654166099136,
    -0.14290283812611823,
    0.19643235760603178,
    -0.0038994104822987,
    -0.18098380610416423,
    0.0920548864006238,
    0.1315612220771385,
    0.21037869279919688,
    -0.22798090806584526,
    0.2157414676451142,
    0.17952771162856612,
    0.2359412003880607,
    0.1262530066498226,
    -0.1115299132972709,
    0.1796538860334822,
    0.21848029297127516,
    -0.0855942203738388,
    -0.030869985228034066,
    0.18563407599722725,
    0.19124666145706237,
    0.1551478597820327,
    0.18153410297889475,
    -0.11847614964826164,
    -0.03313124048843505,
    -0.08987921052924419,
    0.1199360585292999,
    0.07226783916859472,
    -0.1831143029760972,
    -0.021409280497905928,
    -0.19386475072072823,
    -0.22527972533904697,
    0.21790773979348016,
    -0.1157564083704389,
    0.10158422029263717,
    -0.04567322686682228,
    -0.06062166041825267,
    0.008736414297255194,
    0.18498292846877068,
    -0.024589795283876857,
    0.1968671448033353,
    0.13627831791867281,
    0.1615033389769339,
    -0.21673622407805873,
    -0.10690054529373236,
    -0.19368206336425242,
    -0.04310092393206603,
    -0.04178461404171509,
    0.060788259034386824,
    0.21399349314543456,
    0.10222805938607929,
    -0.16396556054855463,
    -0.1467872128186868,
    0.17877743320560008,
    0.014888566178677051,
    0.06062903025408656,
    -0.12075917091149299,
    -0.020493854773630582,
    0.061179040044910676,
    -0.1540568659331792,
    0.15316658628929766,
    0.11458762099865363,
    -0.13579442214691176,
    -0.09252069240167518,
    -0.068739222171955,
    0.04890491899036857,
    -0.0817067884038483,
    0.22915612871776128,
    -0.2308059273257457,
    -0.13130128881958694,
    -0.141745950221003,
    0.05759805236177371,
    0.025478341960042516,
    -0.061241831062767996,
    0.20336544900343562,
    -0.20581397596225454,
    0.07811480240205998,
    -0.12756435445064748,
    -0.046930656556030584,
    -0.23075050376190445,
    -0.17662743628670563,
    -0.20211280273351495,
    0.09907130805402628,
    -0.08387876006972055,
    0.12077564414142297,
    -0.1254887045679954,
    -0.05194437467980095,
    0.02026835962664287,
    0.2194751111258014,
    -0.05738136918570317,
    0.1349318318902127,
    0.058971675932680725,
    0.14205195933754294,
    0.14792833233473168,
    0.09145596069260879,
    -0.06538739548241845,
    -0.06016895744595315,
    0.08732564464732308,
    0.1262619795454009,
    -0.003358330291741908,
    0.11532134788965226,
    -0.14040611067129793,
    0.13091594866064193,
    -0.020685234211915315,
    -0.16204410727841284,
    -0.11147266381134402,
    -0.18092560248772088,
    0.04043614786187446,
    -0.1382665317243785,
    -0.06159366349088377,
    -0.005676495077063408,
    -0.14254170600151794,
    -0.003574118630032066,
    -0.02173449796491259,
    0.06918804071884013,
    0.1706030021409707,
    -0.14091850882489768,
    0.12668802647936842,
    0.004665675578277928,
    -0.13289012429860395,
    -0.10337979486925401,
    0.053637626968756257,
    0.04205720286641634,
    0.001877790370014733,
    -0.1144629892934462,
    0.11607551280645549,
    0.02709810449036496,
    -0.23303342316550532,
    -0.03422254138494848,
    -0.05783005206520901,
    -0.09667917131714207,
    -0.1286758800186187,
    -0.19281672490415788,
    0.23622679510042474,
    -0.21835448398292848,
    0.22239519818622216,
    -0.18652634739487756,
    -0.05065766826148601,
    -0.09241861678788683,
    -0.12381335389261082,
    0.07888612642121956,
    0.1349000629170251,
    -0.15422664698639124,
    -0.10643778981564944,
    0.11760764720587903,
    -0.04019696753040349,
    0.05089001452580315,
    0.12071472444203021,
    -0.10239568246384387,
    -0.12874493128200842,
    0.0820264097857458,
    -0.08155095481688197,
    -0.15641144689987357,
    -0.11610549356573832,
    -0.10624299652743247,
    0.23893012043701906,
    0.03808498969838577,
    0.09767001860657433,
    0.023587149430670293,
    -0.1585375159215745,
    0.17041067816023403,
    -0.028884453821859928,
    -0.0547358190614865,
    0.19374017761287868,
    -0.11735423474578174,
    0.04076852870426016,
    -0.20267183280878961,
    0.11810729078506238,
    0.0893041657944647,
    -0.1955750382375787,
    0.12953569793720693,
    0.01751416276850084,
    -0.11909278206695413,
    0.2031593072458214,
    0.09737021242840417,
    0.07785748858670091,
    -0.08285775972597165,
    -0.12708174874872524,
    -0.12452016951799974,
    0.08392799239005243,
    0.05734925659879608,
    -0.1396257735951369,
    0.21748889703981147,
    0.13565572344447077,
    -0.08545216393065308,
    0.11934636699161522,
    -0.09597647170673397,
    0.06845780063255454,
    0.19808417343721083,
    -0.2111338980494321,
    -0.11430337011759467,
    -0.004129283579308392,
    0.04727846823100119,
    -0.21559304230177953,
    -0.15447661445196623,
    -0.013952991747167172,
    -0.026045192409977345,
    0.04392734424842122,
    0.0217732727705711,
    0.041289403511937536,
    0.026477112741869202,
    0.01874125204256056,
    -0.004443529582543026,
    0.07978152409819396,
    0.16062527915234584,
    -0.11476416768555625,
    -0.11951436067783265,
    0.11972783455676117,
    -0.17078430747820242,
    0.15246610836362948,
    0.10549795453491553,
    0.026163523684682097,
    -0.09853665556050589,
    -0.0024770047039343133,
    -0.18766443811783398,
    -0.21492131096308212,
    0.2254268558117099,
    -0.2142324628146048,
    -0.19743946278366506,
    -0.08711289896771435,
    0.004053563056265074,
    0.0472620082606049,
    -0.11319724156188668,
    -0.03425722528575604,
    -0.06582009605387779,
    0.1991825291878541,
    0.2069894379841317,
    0.09275421436462669,
    -0.011537176744509296,
    0.1774844369516014,
    -0.19184724811003726,
    0.09445622309448401,
    -0.13531505472325078,
    0.18496641806901373,
    -0.21099785100440827,
    0.0828931338148519,
    -0.1955468453740165,
    0.13591342170171525,
    0.03571678466965842,
    0.20451268741559675,
    -0.17855556298708167,
    0.15090393073562916,
    -0.15684204991041295,
    -0.12494776852985597,
    0.08509117281919251,
    -0.032085570108122026,
    -0.1873842977231545,
    -0.20272920202581707,
    -0.05491396410959632,
    0.059222388351052355,
    0.20958957786518065,
    0.1738649230653176,
    -0.005854259191613562,
    -0.14334977974360838,
    -0.21288939672750146,
    0.21335114003905986,
    -0.12938752803124917,
    -0.03397083245066618,
    -0.191729722725946,
    -0.16280390355100263,
    0.03851466514530918,
    -0.05180848318483118,
    0.018635449689460036,
    0.00798453882884218,
    0.022735032356648737,
    -0.03954017459990645,
    0.0003118391175849673,
    0.09866948690781843,
    0.17263076966544963,
    0.20130832302206894,
    -0.19396792586467398,
    -0.201327737433523,
    -0.04735803343233704,
    -0.009073641377361266,
    0.1279858442563679,
    0.22534058074105,
    0.054201129327506016,
    -0.16756583660172975,
    -0.01830451690054375,
    0.151683246539968,
    0.08224384761883345,
    -0.16680454112520762,
    0.00460567928921927,
    -0.23139198886974943,
    -0.0907417918089405,
    0.1648519949985644,
    -0.09844778629864816,
    0.1426442558394203,
    -0.19391975477382406,
    0.21102700002746308,
    0.10925304727833675,
    0.15200370846625016,
    0.0582745513790691,
    0.007722948460572714,
    -0.11312297515344194,
    -0.12794966461702706,
    -0.16168064374898164,
    0.19661227338278192,
    -0.07677221308198656,
    0.016086924712982363,
    -0.225027568080649,
    0.05709995829790905,
    -0.0752239348841589,
    -0.18995779292747575,
    0.020943352440944682,
    -0.22030431686322086,
    -0.014638892610282615,
    -0.1941616698321731,
    0.1480520000558198,
    -0.18854205243581776,
    0.030836253038846368,
    0.11378809465903539,
    -0.18975433010275441,
    0.1518422705170555,
    0.1936043690844156,
    -0.14325049391354225,
    0.010943768743630927,
    0.06581342751304195,
    0.1970522132094606,
    0.1853183537368189,
    -0.19970401839124416,
    -0.19376783869586967,
    -0.2110554586577816,
    -0.10118702134083087,
    -0.04046817525942714,
    -0.0797029875957181,
    0.15473188202355578,
    -0.16229425745865775,
    -0.18953245367842206,
    -0.1854301695739062,
    -0.1375656471118107,
    0.23486701917920116,
    0.021576676211612328,
    -0.03377622144770201,
    -0.06347280731482106,
    -0.18148209044415714,
    -0.07482376531858353,
    0.12170744924748744,
    0.15896416882828712,
    0.17032110370436926,
    0.007809121689357415,
    -0.1263013156942987,
    -0.13759306499669363,
    0.23296422656484775,
    -0.21565080795138533,
    0.049189508790649386,
    -0.013612590706565118,
    0.22211812154759933,
    0.13644118609026637,
    -0.05316275057859885,
    -0.19744086348630832,
    0.022843276604059888,
    -0.16486111236798198,
    -0.016369131651591033,
    0.052598293328492224,
    0.11208363298525086,
    -0.057623869498469336,
    -0.15875957731979468,
    -0.20291820110991438,
    -0.2268002336493617,
    0.021360282718924387,
    -0.14216112430100838,
    -0.0009114077967156235,
    -0.10843933274517059,
    -0.15918345278253812,
    0.15857435718801552,
    0.13148087581810963,
    0.18553132660694255,
    0.2298149916985023,
    -0.1708854410298713,
    -0.1230800949397781,
    -0.17821220554024672,
    0.1578699461628197,
    0.13730306126470487,
    0.1926608023279342,
    -0.16492998716638785,
    -0.12407410453612022,
    0.23372013011721343,
    -0.1885202372465053,
    -0.15650304178234015,
    0.08203985031589382,
    -0.20853934840045638,
    -0.060686606035489046,
    0.09622846592493961,
    0.19480953380072957,
    -0.018373615492387342,
    -0.21123605999300193,
    0.1315237907337981,
    0.23923509909865426,
    -0.1755956362175065,
    -0.001046970593978347,
    -0.1708452935386189,
    -0.11765548217519879,
    0.07413397513570834,
    0.10679841423047298,
    0.11337460649431348,
    -0.22547191910188003,
    -0.05060995733753769,
    0.09655018605670523,
    -0.013206013377326216,
    -0.08728632167584993,
    -0.1191389531969653,
    0.227045237668898,
    -0.19011551773186702,
    -0.18693040193316518,
    0.17217971422691855,
    -0.14185247838856632,
    0.14107156087199368,
    -0.12781290035336745,
    -0.02382531749366998,
    -0.11079315031795499,
    0.2165528412040733,
    0.16331724512685192,
    0.0020294009759906882,
    -0.003972337203932913,
    -0.08434964123460252,
    -0.12363284587094645,
    -0.0845629689332155,
    0.07186586679553794,
    -0.03497129244839822,
    0.1596952139204069,
    0.02600038101561001,
    -0.007168325577478752,
    -0.14535852882035047,
    0.09085490337170175,
    -0.2212526708040557,
    0.048413739586346455,
    0.07970382561499373,
    0.03524693685366979,
    0.16594448143182053,
    0.050004973643377734,
    -0.059047192115547376,
    -0.16493953139713188,
    -0.22202710645029414,
    0.11617219032510358,
    0.1260858770281047,
    -0.1806954307049392,
    0.056934652173365435,
    -0.081932355878924,
    0.20056457960708698,
    -0.0761729645830001,
    0.196937564210296,
    0.16682975372869416,
    0.12827480538509226,
    0.1608523414891538,
    0.06797262215534561,
    0.07474782616054759,
    -0.2025391241060315,
    -0.04707807982145502,
    -0.018344570810854884,
    0.11130338891710068,
    -0.08687782105285768,
    0.10455234898394125,
    0.15974495442904008,
    0.0977958109041604,
    0.11867489893245661,
    -0.023323880044602497,
    0.10975827897653456,
    -0.07573389827122465,
    0.20656410380549026,
    0.003552872472002937,
    -0.004596687423842992,
    -0.21010408303022188,
    0.22122801131580094,
    -0.024978916348628373,
    0.17620270707295874,
    -0.15355237454407827,
    -0.19915732033346936,
    -0.05000859839498729,
    -0.1899010314897872,
    0.05802199149029539,
    -0.006573592639662073,
    -0.08167993315175262,
    0.14653448899055274,
    0.15196657505552952,
    -0.2107384749854158,
    -0.19028115821328823,
    0.13625715846753403,
    -0.14184125874304357,
    0.03824962716813898,
    -0.05658561269959363,
    0.03470939249330346,
    -0.1279594694780808,
    -0.00895688323071546,
    -0.07850758397559313,
    -0.10262236767615776,
    -0.11291118983072572,
    0.04584484740722322,
    0.15176935903760153,
    0.0038067570791235333,
    0.007477137655617623,
    0.19632693544580443,
    0.1915271871392027,
    -0.026297911696223503,
    -0.19471327837810942,
    0.0686635830410719,
    0.0646496659976496,
    -0.18782446457608296,
    -0.21426934498672998,
    0.016230773911411735,
    0.23412340874593365,
    -0.21361329223396652,
    -0.11249501219207994,
    -0.07621856033183978,
    -0.21082922980260882,
    -0.14393285724211521,
    0.186232652524557,
    0.18120996299090095,
    -0.17392394434031863,
    -0.004603469163218901,
    -0.19361313092493526,
    0.09384144811276526,
    -0.16075438921380272,
    -0.11740466881328246,
    -0.10587941359102494,
    0.0268559066188062,
    0.15705821896652905,
    -0.09463488474900135,
    0.03611630652803581,
    0.18905631870893094,
    -0.005157781459115149,
    0.015822006669022053,
    0.008574420142853999,
    0.006762186223030632,
    0.14009384470312888,
    0.12527463682161144,
    -0.12389289719986149,
    0.22871630358894754,
    0.13385253751658624,
    -0.02912243839646695,
    0.20765988556393022,
    0.003460379104286735,
    0.14797999184961533,
    -0.20227424178691247,
    0.21440714110930315,
    0.2256734714819164,
    -0.17680359925975567,
    -0.2137625714702221,
    -0.06276392597987851,
    -0.14370379352278134,
    0.056798372246259214,
    0.1012849799916427,
    -0.02186030817022236,
    0.16543021961158386,
    -0.0005257916036060777,
    -0.06348024037032067,
    -0.20339364187659517,
    0.06945783257136122,
    -0.22555212320761442,
    0.008916495487254652,
    0.046529574189295764,
    -0.1300134838798574,
    0.06510581653496683,
    0.03860180717198095,
    0.15730681379878234,
    0.14636321744426214,
    -0.19232001443341215,
    -0.17549657387326204,
    -0.08175804622652044,
    -0.18984918756906627,
    0.08838324452888807,
    -0.1537988128713685,
    -0.18086975324201815,
    0.06281822376262523,
    0.14088009605667393,
    -0.0626833435461412,
    -0.23911502918058014,
    0.025338515813626318,
    0.11811787247321015,
    0.18529391406982382,
    0.013728927274781557,
    0.16355891238641113,
    -0.21353535947269225,
    0.2291703741780603,
    -0.15143520371092012,
    -0.16064463326241085,
    0.16941941686023254,
    -0.04555528839487432,
    0.14428502832075613,
    -0.16510719061854529,
    0.17914447460372288,
    0.2270996565159587,
    0.06570155349174488,
    0.19167449929398842,
    -0.16853304005096723,
    -0.045206850853261,
    0.06609731459879085,
    0.1312743263359206,
    -0.12349113658615615,
    0.14908489165725203,
    -0.07228255932410219,
    -0.1234403226223948,
    0.05866505522843836,
    -0.18912783531434418,
    -0.2194505013586627,
    0.07312844371915933,
    0.07515541086125936,
    0.08613930555479696,
    -0.022789606498227605,
    -0.17283494415345266,
    -0.19083501064132086,
    0.2292255082817839,
    -0.20673345449721706,
    0.06534950047998458,
    0.1930461146816823,
    0.1809949223094774,
    -0.14762733129634034,
    -0.07061016933872125,
    -0.1898844606868836,
    0.14681839952763084,
    -0.22461066490468953,
    -0.2201476048418935,
    -0.15690141511002034,
    0.19392563657251072,
    0.1520481768153921,
    0.1575125675645597,
    0.20182087406271432,
    -0.10659695348891685,
    -0.12942325493049994,
    -0.14358400314662004,
    0.07249200387695379,
    0.08724852427424624,
    0.04188036897338418,
    -0.1823300638007984,
    0.0322023207069501,
    -0.12266050580315459,
    -0.03916368603348365,
    -0.02870744431450907,
    0.002427433312525413,
    -0.20920569574524722,
    0.20340061558941136,
    -0.09638225293217158,
    0.06811593430796893,
    0.162162144654096,
    0.09074441436164794,
    0.16508066882139175,
    0.13117218645307716,
    0.17306147025258772,
    0.04276835373901705,
    0.149676016732846,
    -0.09867027636015928,
    -0.12471313042132823,
    0.10937800666110571,
    0.055599270904213356,
    0.0006165352650382584,
    -0.2008781582310934,
    0.07169317905318429,
    0.15193954455519088,
    -0.018866192402741747,
    0.047438665691105844,
    0.10129693053000663,
    -0.23689565566700546,
    -0.031136982294876745,
    -0.08274340706451179,
    -0.11778116795454381,
    0.14280327200624698,
    0.23787255912896174,
    0.029892188486525743,
    0.14559696814788473,
    -0.17547156987010373,
    0.0340754361780865,
    -0.022339168402750312,
    -0.14419056061668528,
    0.041264580064542665,
    0.06958458193815577,
    -0.0020915129493046455,
    0.0961627925152273,
    0.11003732865362705,
    0.21676135873775235,
    0.004505905898919891,
    -0.0010705462877914056,
    0.006420868273659093,
    0.02450285572055351,
    -0.1521053686164169,
    -0.02077856431128025,
    -0.20140905442084134,
    -0.16535856136695068,
    -0.20294789050215958,
    0.17540093877676932,
    -0.13367639131236092,
    -0.010189343435383254,
    0.016734676972764963,
    0.21080506057091503,
    0.10346161428405336,
    -0.1680344155527561,
    0.23451972374383476,
    -0.22679749184547976,
    0.02251059853897383,
    0.21842725479502234,
    0.20681388037237614,
    -0.047947003176592826,
    -0.15684160287878832,
    0.09977702969498765,
    0.1827166229228735,
    -0.1232764430685096,
    -0.029565400808184407,
    -0.14203935085819205,
    0.08547392359598195,
    0.04321628056200575,
    0.11392508949263848,
    -0.07577684225032394,
    -0.23132841247017458,
    -0.09528420596476987,
    -0.18552328188357115,
    -0.05023070851720785,
    0.08085921626532355,
    -0.1979840377881403,
    -0.0016866556695331603,
    -0.23459586326919035,
    -0.16716347800469922,
    -0.16503581452207844,
    -0.07512368263441274,
    -0.11667140122794914,
    0.028486251352835567,
    0.1428273792915179,
    0.1785082249459101,
    0.06877189442628912,
    0.008226277450977044,
    -0.034555382924052955,
    0.15975194753809366,
    -0.1331835331327695,
    0.17070363785171103,
    -0.2307038473499461,
    -0.1765936804292049,
    0.056320466853058686,
    -0.09296938306636211,
    0.03664700677601142,
    0.20782600300829876,
